3321 50
, -0.14005527 0.3328398 -0.17220116 0.32973 -0.29284984 -0.5325065 0.1364992 0.059230424 -0.19324425 0.065302245 -0.4454953 -0.21247388 -0.21677972 0.10555432 0.113030806 0.22798286 0.3359356 -0.13682419 0.2240581 -0.15832941 0.20224997 0.28475603 -0.041309062 0.22984628 0.15666686 0.08880609 0.11071764 -0.3458137 -0.41035315 0.11939421 0.10121307 0.06311917 0.82473165 0.1535901 -0.29069048 0.07687608 -0.047675867 -0.35189155 0.756793 0.23898228 0.38963148 -0.00401865 0.07723923 -0.20138621 0.17401747 0.44442987 -0.22210136 -0.22264706 0.12552887 0.640734
. -0.043466534 0.3070567 -0.22305535 0.22588699 -0.17122854 -0.48186332 0.18717875 -0.14920239 -0.18620563 0.118555866 -0.4979987 -0.2059232 -0.3158305 0.14324619 0.24444143 0.19139208 0.29295796 -0.1820914 0.17893912 -0.06812503 0.11150342 0.34961113 -0.06756195 0.14696193 0.0355315 0.06227021 0.18576208 -0.37495646 -0.38834065 0.060588684 0.12330724 0.043767713 0.82541037 0.38962048 -0.18710348 0.20746654 -0.09155136 -0.256746 0.5833991 0.26134014 0.48235965 -0.016198767 0.060927432 -0.13731526 0.13839585 0.40413582 -0.16599783 -0.37356815 0.20489508 0.60880345
? -0.16449234 0.34337053 -0.08853766 0.116524264 -0.182413 -0.5073364 -0.0053074756 -0.05457786 -0.1543041 0.014330025 -0.158482 0.08320831 -0.587995 0.15427466 0.15052071 0.11972683 0.33367497 0.037151188 0.24018525 0.021082727 0.23364195 0.1928413 0.022523416 -0.10039578 0.23932329 -0.11442036 0.26523802 -0.29993713 -0.21585283 0.099314645 0.37952405 0.10234379 0.58758926 0.47593418 -0.26975805 -0.006635215 0.037621044 -0.22443621 0.52200687 0.5587817 0.3482738 -0.081921846 0.04940776 -0.2909595 0.1686998 0.6598379 0.10611863 -0.13768587 -0.11122145 0.637018
di 0.14711519 -0.12623927 -0.58500725 0.47453672 -0.6944463 -0.49875626 0.2831164 -0.08274006 -0.14664038 0.1713071 -0.45903334 -0.212794 0.08667542 -0.0066321217 0.15047674 0.034756243 0.5554901 0.35976326 0.14885032 -0.028856317 -0.013199388 0.26527038 0.009903641 0.34962043 0.049519286 -0.049078345 -0.010597683 -0.17972244 -0.7185853 0.6072139 0.5879736 -0.17407793 0.7070199 0.20035349 -0.29539254 -0.3176083 0.10007757 -0.022647494 0.49758193 0.40906012 0.7839896 0.07244494 -0.18714558 -0.7245924 0.21741028 0.3109639 0.34671536 -0.65648556 0.21425368 0.90871924
aku -0.10528645 0.2906216 -0.50444984 0.27651495 -0.49134952 -0.4558412 -0.021398017 0.20321625 -0.15713225 0.09503993 -0.2622013 0.09823564 -0.10451557 -0.017649628 -0.038740423 0.032350462 0.4399635 0.2849564 0.21457073 -0.06745044 0.29436293 0.32025543 0.011687484 -0.045996334 0.38879988 -0.3208854 0.16230848 -0.24926692 -0.58111143 0.3147544 0.5167071 -0.17568654 0.50583094 0.24771546 -0.3076098 -0.41833976 0.16761135 -0.19062126 0.61260784 0.61286 0.49807805 0.10336228 -0.06664445 -0.46295908 0.3095851 0.45294487 0.10362882 -0.36800298 -0.026031362 0.87755656
yg 0.14506283 -0.16960046 -0.6489869 0.4745642 -0.8297188 -0.6315347 0.34468815 -0.10428597 -0.20666352 0.10170699 -0.6088288 -0.45563674 0.1095348 0.11118468 0.17078754 0.111344695 0.5369828 0.36795822 0.0016557245 -0.21139537 -0.10769181 0.34075487 0.06720452 0.4831039 -0.109824546 0.13972522 0.0007912413 -0.12708361 -0.9468494 0.86740947 0.60587263 -0.11111093 0.7855498 0.21581113 -0.3732523 -0.29138762 -0.0666515 0.05204651 0.35525548 0.293068 0.8838691 0.058995925 -0.21906345 -0.79425025 0.24880293 0.12766841 0.34732231 -0.7782973 0.4934793 0.88660806
ya 0.02042351 0.029929025 -0.4806619 0.34658062 -0.4836475 -0.4885137 0.3014629 -0.1241413 -0.106197774 0.0018443747 -0.47878996 -0.16972823 -0.10702413 0.14068995 0.17878543 0.053105276 0.41470537 0.17223135 0.10530922 -0.043612454 0.08075228 0.27167884 0.058875762 0.3228291 0.017466037 0.033801764 0.056042153 -0.30210736 -0.5303761 0.5586197 0.45772657 0.012400657 0.7357493 0.31175518 -0.3442989 -0.107210755 0.03011335 -0.102005884 0.39670953 0.35966873 0.62977767 -0.10250486 -0.16688366 -0.54304916 0.23123485 0.31420928 0.29549557 -0.5415746 0.2731077 0.8099202
aja 0.1505217 -0.13080797 -0.67384464 0.46553838 -0.75414246 -0.5467854 0.3875253 -0.01840671 -0.08343914 0.07954178 -0.5415013 -0.41909608 0.17129497 -0.009471266 0.106484935 0.0399403 0.4992083 0.4170538 0.027114576 -0.24885973 -0.079383045 0.37850478 -0.0020762023 0.41680092 -0.004639843 -0.055521224 -0.03259824 -0.18607126 -1.0025802 0.83414227 0.59191716 -0.10924965 0.8069403 0.2734348 -0.40741104 -0.31623268 0.06816461 0.09044689 0.3764922 0.3455768 0.9253663 0.09078774 -0.31999168 -0.8600508 0.30097264 0.13503793 0.40973055 -0.7857069 0.3611269 1.0155325
bisa 0.13274558 -0.117139764 -0.57129556 0.47541243 -0.648428 -0.5510329 0.3587744 -0.17472708 -0.16803607 0.027697919 -0.7410383 -0.5680417 0.02879155 0.10244833 0.20586492 0.07405786 0.42689267 0.29707682 0.023983562 -0.20910269 -0.14610851 0.3210176 0.0622439 0.42731398 -0.18542871 0.17213653 -0.0795148 -0.14997397 -0.8811132 0.79879546 0.49112788 -0.011754427 0.91159606 0.18542919 -0.3293186 -0.17240135 -0.070495695 0.094821 0.3576211 0.24949047 0.8438114 0.027695967 -0.30799443 -0.5975581 0.2562693 0.2574273 0.32411465 -0.7165283 0.4292929 0.8150807
ðŸ˜­ 0.24050589 0.5626545 -0.37294844 -0.013052863 -0.10166239 -0.4662651 -0.011156773 -0.6133667 -0.23696958 -0.19102627 -0.38601926 -0.05301445 -0.6655658 0.23466164 0.2437319 0.11017735 0.500557 -0.074400134 -0.29496524 0.42984313 -0.14232379 0.22165845 0.07824008 0.08133733 -0.12324927 -0.07140552 0.094418585 -0.08286239 -0.27467635 0.10905997 0.16858596 0.29240692 0.8206017 0.6682359 -0.052607473 -0.13884331 -0.09932222 -0.24980503 -0.23158146 0.13786277 0.25189972 -0.29343736 -0.21020864 -0.4870702 0.15574653 0.63103044 0.34347582 -0.071580976 0.10741567 1.0603735
yang 0.09465855 -0.07248733 -0.6109889 0.5140656 -0.62223905 -0.56779134 0.39875257 -0.117195636 -0.23505017 0.06022152 -0.8102693 -0.6619229 0.008775663 0.012085373 0.104540296 0.08265595 0.39358455 0.3628611 -0.06561404 -0.2512497 -0.14558566 0.3212686 0.08607378 0.45930725 -0.2456148 0.20763591 -0.0623338 -0.16100429 -0.88655436 0.9111735 0.52607715 -0.07170245 0.8491701 0.059626713 -0.4376194 -0.1490946 -0.085996754 0.030310132 0.41673544 0.17342573 0.89472145 0.018967094 -0.33468243 -0.5870077 0.296614 0.2238056 0.16298322 -0.73528713 0.41142252 0.80104977
ini 0.12244164 -0.11141668 -0.53919107 0.5686349 -0.66521055 -0.5684127 0.34616214 -0.32412484 -0.26027948 0.1728477 -0.6416697 -0.48968625 -0.0057906383 0.18870485 0.16745792 0.045022286 0.3878128 0.26219866 -0.18886219 -0.1761899 -0.06943428 0.24530764 0.12207975 0.51987374 -0.2135018 0.24850781 -0.024959393 -0.15271896 -0.74873346 0.8794154 0.59432787 -0.023265438 0.88833976 0.107081 -0.4568028 -0.26032314 -0.08231564 0.025180694 0.27991226 0.2524706 0.8163884 -0.017515438 -0.35520774 -0.6151984 0.23386237 0.32494766 0.16829965 -0.7210824 0.5634348 0.75151145
dan 0.025046567 0.16356179 -0.6554691 0.5659983 -0.38722527 -0.57150555 0.3293987 -0.15175009 -0.2647852 0.17984775 -0.7686436 -0.38536415 0.033904117 -0.0691554 0.087028764 0.11385219 0.33022633 0.30458587 0.028046485 -0.055018146 0.16419093 0.24631861 0.02945117 0.3488793 -0.073098905 0.16191387 -0.056152213 -0.12667942 -0.51879454 0.76804936 0.4737662 0.06522093 0.69782305 -0.08963213 -0.58756256 -0.2252622 -0.08766669 -0.11703793 0.6022937 0.25084347 0.54368573 -0.065139994 -0.30139834 -0.36050707 0.2785023 0.46967915 -0.056938745 -0.6898164 0.2636568 0.697143
ga 0.12423095 0.036190614 -0.55904865 0.3606254 -0.65955347 -0.5762615 0.2193935 -0.015552333 -0.1638027 0.04154591 -0.45199627 -0.29089025 0.11820063 0.0021348612 0.0019407253 0.09174188 0.4610839 0.31091326 0.094261184 -0.23876825 0.031045295 0.375302 0.017209973 0.31920588 0.12467128 -0.04073332 0.03418595 -0.17298682 -0.8745456 0.61662984 0.5515074 -0.14704056 0.6971998 0.24462123 -0.28537002 -0.29964617 0.10305328 -0.055245765 0.4390196 0.38326278 0.75685877 0.15458797 -0.20836891 -0.6293987 0.22339652 0.23366751 0.24281098 -0.61635417 0.2584083 0.94930595
ada 0.14223316 -0.11203652 -0.62463075 0.5604269 -0.682562 -0.5546747 0.30208415 -0.12031992 -0.21996099 0.14487681 -0.6246247 -0.3581004 0.055011958 0.02782194 0.11414287 0.03500611 0.49202362 0.38326052 -0.0018347257 -0.21732022 -0.0330773 0.27595213 0.0380417 0.39409557 -0.030452685 0.10218186 -0.059784256 -0.12194292 -0.8687651 0.7826539 0.6039276 -0.046392262 0.80068535 0.12123271 -0.4642146 -0.31809217 -0.014311471 -0.009747798 0.39099154 0.28215408 0.8464921 0.08386074 -0.24495062 -0.6577737 0.23885462 0.18734552 0.2068964 -0.70666605 0.42441037 0.8810733
.. -0.13824862 0.48275056 -0.26750883 0.06889607 -0.32704154 -0.4038819 -0.039299373 -0.060196795 -0.10533738 0.016679035 -0.20328176 0.23499079 -0.44789693 0.17779924 0.14849083 0.16218875 0.3120722 0.005169372 0.3657284 0.047290944 0.3705449 0.3249079 -0.011132072 -0.11067433 0.3612059 -0.18073767 0.26890248 -0.31662908 -0.21671091 -0.05787131 0.24562967 0.0030368944 0.48799697 0.48168087 -0.25110695 -0.07200481 0.069828525 -0.27729353 0.6305946 0.5842073 0.30468664 -0.05698102 -0.020986592 -0.2853524 0.15937656 0.57552904 0.0059450287 -0.28256434 -0.08719997 0.6519695
gue 0.12622654 0.11602557 -0.3536846 0.5266391 -0.36720273 -0.54819 0.44125283 -0.25626022 -0.2366161 -0.02729897 -0.6863955 -0.68782735 -0.018671183 0.060183953 0.289865 0.23188056 0.32246014 0.03260964 -0.103326544 -0.2634774 -0.09321045 0.34585705 0.05903563 0.40077165 -0.23249719 0.31397575 -0.075613044 -0.342103 -0.8102496 0.72776747 0.34727606 0.05441212 0.94508696 0.27005994 -0.20424412 0.10459851 -0.20581926 -0.057386868 0.28244096 0.035992775 0.8228275 -0.13371067 -0.24356686 -0.41827175 0.18537273 0.32608885 0.17283061 -0.6469745 0.46953732 0.7632855
tapi 0.029964685 0.17148313 -0.4461809 0.24158257 -0.58292836 -0.5203276 0.09100927 0.020888519 -0.096345834 0.03959607 -0.35202846 -0.115472674 -0.022185296 -0.016585002 0.001577921 0.08228655 0.4652505 0.27336556 0.17444703 -0.12090441 0.06925629 0.38236463 0.032127406 0.17079596 0.18267103 -0.15163863 0.032887433 -0.2332095 -0.6643001 0.3851182 0.49967587 -0.13767937 0.6717075 0.28103027 -0.23123863 -0.2561441 0.08269407 -0.13514178 0.562537 0.4654971 0.609348 0.11495668 -0.06965148 -0.59188044 0.29544744 0.3636667 0.18207116 -0.37770668 0.12051908 0.79797626
" -0.08576426 0.41776994 -0.31924412 0.087086715 -0.2751609 -0.44030678 -0.026298258 0.032411043 -0.1947935 0.02772538 -0.25278062 0.08549933 -0.54765403 0.181893 0.113426454 0.24546193 0.26225024 -0.27515453 0.3384473 -0.05462387 0.20326547 0.33997938 0.06054056 -0.060384206 0.43166226 -0.19497521 0.288321 -0.3766266 -0.27783084 -0.026412131 0.24662848 0.07695122 0.6425613 0.49384278 -0.14930624 -0.06891024 0.01999185 -0.30815986 0.5753506 0.5032273 0.3477026 -0.034715988 0.07610308 -0.29057106 0.09964889 0.46750945 -0.122760534 -0.11657256 0.0084995255 0.61067253
itu 0.09615453 0.052185934 -0.52202415 0.47795293 -0.5405822 -0.59203583 0.30046925 -0.12524053 -0.18049407 0.008086911 -0.60087043 -0.42174706 0.015913177 0.08893491 0.16946273 0.12920204 0.38881874 0.15512103 0.04240059 -0.22145085 -0.046265356 0.31860867 0.012026967 0.34775203 -0.001239946 0.08705959 0.0116988355 -0.23379922 -0.76393116 0.6729612 0.4641795 -0.036043666 0.7909922 0.24762791 -0.33996928 -0.09052206 -0.11135202 -0.03520359 0.42820248 0.22380345 0.7325104 0.050758574 -0.18864965 -0.528305 0.25171518 0.22936104 0.1641176 -0.63588345 0.3746639 0.8273164
sama 0.11004626 -0.04854897 -0.47001767 0.45355642 -0.63144726 -0.5526847 0.31409374 -0.15993245 -0.204477 0.053447887 -0.6031417 -0.48799208 -0.0137349935 0.11716695 0.21400058 0.1155454 0.42435044 0.14365481 -0.04079586 -0.19909237 -0.07062295 0.3401174 0.061948936 0.3814777 -0.15340136 0.20498359 -0.010178786 -0.19908647 -0.73803186 0.7709939 0.5167429 0.046585336 0.92250276 0.2320542 -0.29749322 -0.10962662 -0.076126695 -0.02335055 0.3252199 0.19694212 0.7776109 -0.047499947 -0.26309246 -0.53577113 0.1879855 0.22044373 0.13544838 -0.66273224 0.4143784 0.7890924
kalo 0.08205757 -0.09825045 -0.5488552 0.45168433 -0.6395544 -0.5372156 0.3264165 -0.06536984 -0.1304571 0.08616422 -0.5746468 -0.47947657 0.13194184 0.07551782 0.11355195 0.15415964 0.4473497 0.2871269 0.05178355 -0.29778692 -0.08772981 0.38842225 0.040166575 0.430723 -0.045087952 0.13561632 -0.028984627 -0.2541271 -0.951224 0.7509273 0.517414 -0.011307434 0.8171332 0.28873712 -0.30159572 -0.16230445 -0.03475851 0.025631288 0.4027877 0.24015239 0.9242838 0.049297724 -0.25273025 -0.6487826 0.21744232 0.19591823 0.35045964 -0.7119464 0.35452044 0.92353296
udah 0.18621498 -0.0691034 -0.5111392 0.47861007 -0.62195516 -0.5793819 0.27110618 -0.17106876 -0.20944619 0.0820137 -0.59388167 -0.4671001 -0.07667476 0.152973 0.204345 0.06239429 0.4317018 0.2277552 -0.06627426 -0.26061064 -0.10974911 0.30380532 0.04102299 0.34501016 -0.13992836 0.106287725 -0.03121295 -0.1472068 -0.779035 0.76238376 0.49339485 -0.07620069 0.88014084 0.24953255 -0.268964 -0.18314433 -0.0039600655 -0.011015597 0.28501505 0.2649415 0.7732937 0.055234116 -0.2412981 -0.6165966 0.194917 0.2596981 0.23830198 -0.62089556 0.3669863 0.83910197
banget -0.059254754 0.2874665 -0.40137538 0.4266078 -0.41841793 -0.5265684 0.2070303 -0.14460123 -0.24656029 0.11448611 -0.5437495 -0.30830055 -0.15417586 0.0062478087 0.08710539 0.19226308 0.286931 0.11290073 0.006522322 -0.12558545 0.13374023 0.34330663 0.09231183 0.2940457 0.009894132 0.16456644 0.03565621 -0.082957484 -0.5116781 0.51547265 0.3714095 0.08767931 0.6757272 0.124465995 -0.29382157 -0.043962937 -0.059398487 -0.16736047 0.46981862 0.29590845 0.50736636 -0.085022196 -0.1786338 -0.30640256 0.23069151 0.46202177 -0.1273327 -0.56890833 0.21901904 0.6199333
gak -0.0673243 0.21404229 -0.4476822 0.1937577 -0.54838026 -0.47080618 0.09156865 0.04591357 -0.0578586 0.07042365 -0.2559538 -0.014853191 -0.1662865 -0.031383865 0.06287859 0.042733356 0.48172614 0.28669494 0.22702082 -0.09561126 0.13592766 0.36129203 0.058587305 0.1305497 0.25080338 -0.16640672 0.07429895 -0.12717296 -0.5992446 0.37043276 0.534522 -0.0654068 0.6407149 0.37944505 -0.26079947 -0.3365438 0.088945344 -0.089696825 0.5479817 0.5285896 0.52351475 0.10443393 -0.08391496 -0.5854734 0.2214827 0.31231534 0.19495414 -0.4544852 0.030251123 0.8752625
mau 0.044845026 0.042380072 -0.39694324 0.3703465 -0.46178755 -0.51828223 0.24889843 -0.099181354 -0.14271939 0.06834076 -0.52223706 -0.32054794 -0.10188129 0.11693236 0.19839507 0.17287996 0.3885243 0.21033047 0.014148731 -0.18791354 0.003418884 0.35826078 0.014775128 0.22488886 -0.012794241 0.058361914 0.024006441 -0.286333 -0.6796077 0.5633314 0.3781258 0.018469293 0.742456 0.31902874 -0.3331936 -0.0884887 -0.041404676 -0.11401813 0.34994507 0.30321315 0.7034728 -0.02172113 -0.14241843 -0.5254266 0.21270673 0.33870232 0.22290647 -0.5189135 0.2853157 0.82561266
juga 0.023921564 0.118813984 -0.51848304 0.46773967 -0.51254296 -0.5594461 0.2588416 -0.16988797 -0.21745299 0.041569836 -0.64059395 -0.36805198 -0.07595032 0.020786906 0.21586184 0.17028725 0.4179495 0.23579766 0.031917956 -0.14131668 0.04152166 0.37616667 0.0668522 0.33750787 -0.07866962 0.18758003 -0.07180085 -0.16785373 -0.6493202 0.7150136 0.45116293 -0.0063677183 0.7735642 0.13784806 -0.37722954 -0.1431772 -0.09528209 -0.032619108 0.4105236 0.2492735 0.67380464 -0.021996113 -0.20061494 -0.5007207 0.25078464 0.31964827 0.12794481 -0.6219471 0.28993842 0.7285299
! -0.057923373 0.43573257 -0.1582954 0.26144 0.031188874 -0.51016843 0.1452597 -0.7788324 -0.38537687 0.15164712 -0.7392999 -0.109078735 -0.8845825 0.56166774 0.66756785 0.18106039 0.119011424 -0.50109285 0.005721869 0.14252011 0.13589107 0.090569966 0.0074051907 0.10184555 -0.13603744 0.34446946 0.358929 -0.33282858 0.19152535 0.06427878 -0.021894094 0.53170484 1.0875162 0.43633553 -0.18963027 0.4263284 -0.27628982 -0.4140571 0.3981967 0.05364545 0.058534686 -0.46584645 0.09044554 0.070845634 -0.096793264 0.79184455 -0.24004139 -0.13116986 0.3060756 0.4335168
buat 0.043084376 0.16625445 -0.6913649 0.62500924 -0.32051468 -0.5936649 0.39024743 -0.21612264 -0.27396387 0.23338917 -0.8110685 -0.5924132 -0.043971274 -0.03017809 0.089599155 0.15428118 0.27917576 0.2238021 -0.09292568 -0.18551219 0.15864068 0.23193951 0.08799895 0.4768894 -0.16395982 0.32148337 -0.011203645 -0.101061426 -0.5401617 0.9306456 0.46721986 0.040214475 0.80325437 -0.18537326 -0.6019176 -0.24004178 -0.034830708 -0.14037795 0.46088666 0.15743043 0.6388123 -0.11594221 -0.27396744 -0.24148405 0.21743543 0.4820024 -0.16876005 -0.70615685 0.4468476 0.6371024
lagi 0.12160228 0.021466339 -0.5119567 0.36448246 -0.6551744 -0.5305254 0.28420535 -0.12823 -0.18397638 0.053358804 -0.4984305 -0.22770475 -0.042930447 0.120586045 0.14005579 0.13584886 0.45353144 0.3083315 0.08019814 -0.07807736 -0.031077547 0.27145958 0.031175097 0.19060987 -0.029553274 -0.013780929 0.049806606 -0.1776523 -0.6535628 0.6190829 0.48826373 -0.06912355 0.7744816 0.21154085 -0.3143608 -0.29742262 0.029682752 -0.036163375 0.40968525 0.3100723 0.71876484 0.08117527 -0.2243541 -0.6628742 0.22754548 0.27337527 0.29426336 -0.53760624 0.19651392 0.9398691
ke 0.059031405 0.014837296 -0.45789477 0.38179156 -0.5911024 -0.5525486 0.18875512 -0.095872425 -0.15881068 0.12226443 -0.49834123 -0.2584706 -0.085712194 0.14129224 0.13436268 0.0894518 0.42666823 0.25520417 0.1100868 -0.11932927 -0.034084108 0.3401825 -0.035441305 0.24008489 0.00383393 -0.023440367 0.043247223 -0.14406864 -0.67002386 0.53439975 0.49370694 -0.116443686 0.759586 0.30679935 -0.26784092 -0.22108561 0.071285374 -0.055204686 0.3891642 0.39541152 0.7447558 0.044910315 -0.1880594 -0.57033825 0.23524179 0.29590252 0.20649427 -0.5906498 0.25101155 0.7972015
... -0.18174909 0.5166169 -0.20895913 0.06812601 -0.23160405 -0.41452688 -0.093408875 -0.10161035 -0.10240805 0.08008776 -0.233244 0.24693532 -0.51002866 0.12987576 0.14778483 0.12489079 0.28805834 -0.08162784 0.35245565 0.051845998 0.36198398 0.26656687 -0.015023141 -0.1869274 0.3847662 -0.15956588 0.2966117 -0.34294415 -0.114192866 -0.10074156 0.14760908 0.037098527 0.64113665 0.44229278 -0.17229849 -0.06394896 -0.035487514 -0.44826528 0.69778776 0.5754203 0.21956235 -0.041559204 0.091601074 -0.19260526 0.14113687 0.61890614 -0.09250755 -0.08695231 -0.03848281 0.6311128
jadi 0.10439767 -0.008187066 -0.46225753 0.46042234 -0.44507343 -0.5321305 0.32104644 -0.19647925 -0.20806612 0.087886095 -0.6854274 -0.5390371 -0.13074273 0.14903213 0.15965882 0.20360072 0.31950316 0.15104428 -0.04523011 -0.20372745 -0.004604216 0.2898871 0.07074076 0.40831056 -0.18137637 0.2573861 0.063093506 -0.23800708 -0.6978201 0.6778294 0.44051543 0.03605168 0.843321 0.12575889 -0.33324674 -0.064100675 -0.09710951 -0.069984905 0.33920714 0.13352874 0.7560977 -0.085291296 -0.26576474 -0.42888013 0.20051956 0.3281214 0.061570957 -0.63826966 0.47591132 0.73502254
sih 5.492264e-06 0.17913549 -0.37202585 0.36809936 -0.4785716 -0.51649463 0.21301682 -0.07972159 -0.19187394 0.042865377 -0.45173258 -0.33872178 -0.093705945 0.021495692 0.13839753 0.110904746 0.3771183 0.19889362 0.093354985 -0.2087792 0.06431222 0.34265968 0.04002645 0.21750934 0.056755606 0.033646703 0.040482774 -0.21701081 -0.6848028 0.5038452 0.39265478 -0.046834335 0.6812926 0.25810874 -0.2960541 -0.12220099 -0.07319077 -0.10435 0.37964877 0.28272527 0.67051345 0.020197049 -0.119197845 -0.45206806 0.19512214 0.38294062 0.0982484 -0.53252393 0.23333469 0.7978713
dia 0.12253288 0.019320289 -0.5545941 0.39591727 -0.59007806 -0.5636701 0.34136218 -0.022008805 -0.14782538 0.041909024 -0.58298963 -0.4932969 0.07635514 0.03149425 0.108954094 0.092892975 0.4939672 0.3060264 0.07433369 -0.23814133 -0.015908541 0.32477328 0.04904528 0.34092838 -0.06756442 0.06495636 -0.06638571 -0.22122675 -0.9052624 0.7457645 0.5351306 -0.06457238 0.7976642 0.25549525 -0.27254626 -0.22646599 -0.057658706 0.0443272 0.38259685 0.28221038 0.87620234 0.06821343 -0.2112591 -0.6273246 0.2783968 0.15720859 0.23179844 -0.6650332 0.34881526 0.9212626
bgt 0.045208998 0.25953123 -0.36471993 0.39150047 -0.4748277 -0.5115287 0.22865613 -0.21741652 -0.17303275 0.09886369 -0.46101335 -0.22020683 -0.21006812 0.010383639 0.20369102 0.14907604 0.38008267 0.14782761 0.08495287 -0.066254646 0.04961997 0.2715157 0.04334257 0.24918182 0.03602026 0.032237686 0.054650106 -0.1139642 -0.5382122 0.50538844 0.4081097 0.06424531 0.6571783 0.2699718 -0.19916138 -0.101588026 -0.040155858 -0.089514874 0.4195344 0.34766084 0.5865932 -0.09764356 -0.14905179 -0.53548396 0.18906957 0.42687503 0.107030064 -0.52147335 0.20495243 0.7655801
dari 0.08956874 -0.0073338817 -0.5619815 0.45547876 -0.5937798 -0.5321315 0.24395375 -0.23055084 -0.18821271 0.12885892 -0.57793367 -0.22514302 -0.039339032 0.0900445 0.22447014 0.06822729 0.45964953 0.3265777 0.049262263 -0.17981443 0.01447698 0.2902226 0.015997961 0.20308757 -0.053885706 0.04974158 -0.06953884 -0.08156006 -0.6316683 0.65626734 0.5700793 0.0021012402 0.7401901 0.24485843 -0.3205578 -0.20595144 -0.016276255 -0.012273144 0.44621894 0.27033776 0.65581554 -0.019887464 -0.18798228 -0.5419695 0.2068572 0.3277349 0.1852342 -0.6161895 0.34701282 0.78748
e -0.3165565 0.9182818 -0.3334188 -0.15560485 -0.3626676 -0.45594612 -0.43298003 0.15103222 -0.02972014 0.19324288 0.13359603 1.0102003 -0.6804868 0.034795668 -0.060140945 0.05472331 0.5228723 -0.025542917 0.7065527 0.25475556 0.70778286 0.4526118 0.020856628 -0.49961326 0.890684 -0.67566884 0.53270686 -0.31587744 -0.00094819453 -0.5144471 0.38066065 -0.049151752 0.5186526 0.678033 -0.09419932 -0.3808977 0.28141904 -0.4753402 1.0870694 1.0144234 -0.03751651 0.029487692 0.32899693 -0.2563497 0.23212571 0.8594585 -0.24938382 0.07807808 -0.44931957 0.7281039
to -0.30112082 1.0573125 0.47590193 0.20450115 0.48272663 -0.70569754 0.21608894 -0.7753988 -0.5107231 -0.028520938 -0.8510679 -0.49171188 -1.49793 0.41823366 0.9715519 0.62874734 0.14190717 -1.2720772 0.20259108 -0.17913464 0.29552194 0.34322754 -0.09148713 -0.03600569 -0.15442899 0.59885544 0.50601226 -0.8454809 0.20050009 -0.2440169 -0.5632433 0.5694707 1.4305176 0.83483773 -0.08984303 1.2591822 -0.6083154 -0.98003775 0.9241483 0.14002791 0.26135182 -0.72604865 0.531767 0.6668635 0.012370947 1.3843831 -0.76726097 -0.08111478 0.35640827 0.33223358
nya 0.02303872 0.08384894 -0.45672446 0.3531441 -0.3945281 -0.4486912 0.29855335 -0.20154601 -0.18203603 0.07613917 -0.5555985 -0.36989173 -0.17171644 0.09297778 0.24449009 0.20383789 0.36259046 0.114231445 0.024833344 -0.13604726 -0.018086465 0.26405373 0.028365754 0.29915208 -0.04662381 0.091107674 0.08123565 -0.1248093 -0.62085533 0.48574194 0.36247793 0.0029222027 0.79945326 0.26340553 -0.28626838 -0.10296783 -0.04553365 -0.15376723 0.37423375 0.25502378 0.6196728 -0.083840705 -0.15659696 -0.42976868 0.094277345 0.39216334 0.08426106 -0.50787914 0.31948268 0.8042842
kok -0.13252015 0.514527 -0.33276394 0.06586515 -0.3914768 -0.42878494 -0.16518793 0.10641219 -0.076711304 0.100197986 -0.071482636 0.41481218 -0.3751068 0.060684666 0.0077256514 0.0469128 0.43324086 0.09086961 0.4229689 0.0385929 0.4290701 0.37050402 -0.05850368 -0.17765276 0.50759274 -0.38682276 0.30517524 -0.28913426 -0.26413795 -0.08899433 0.41360396 -0.106532425 0.5461538 0.539622 -0.16847612 -0.30170697 0.13929392 -0.26390177 0.74136347 0.73453367 0.28132647 0.06252846 0.060077135 -0.34156394 0.21847768 0.5549319 -0.044883106 -0.14789245 -0.16769874 0.75801337
malah -0.06846273 0.3838621 -0.39564323 0.11441355 -0.5306007 -0.46614462 -0.089839265 0.07538603 -0.11533493 0.08761318 -0.19253649 0.27624503 -0.24267548 -0.059101425 -0.057712212 0.08040295 0.44420612 0.21065806 0.36861575 -0.0691244 0.28825638 0.3717699 -0.06619542 -0.010793375 0.4251265 -0.2962748 0.24292545 -0.19273214 -0.46222895 0.12228336 0.39421487 -0.17309201 0.5870594 0.42393842 -0.13375823 -0.29019415 0.17897098 -0.20356528 0.62067604 0.660144 0.4195699 0.13880233 0.05905781 -0.49049592 0.28259817 0.38738298 0.058602147 -0.22860484 -0.11404079 0.7975083
: -0.3191105 0.61221766 -0.13766772 0.17593892 -0.36819917 -0.39372966 -0.20699969 -0.65567136 -0.08541573 0.058261417 -0.19606817 0.74542177 -1.0503135 0.2180166 0.5893157 0.0717645 0.3519025 -0.07155672 0.16126187 0.29579893 0.28516665 0.28527758 -0.049418565 -0.57397205 0.012067966 -0.045942478 0.15735374 0.08593254 0.40494817 -0.06234393 0.42546052 0.24107264 0.54185325 0.6101481 -0.19732489 -0.11209417 -0.048776545 -0.17337294 0.53797555 0.6620058 -0.15975274 -0.42020717 0.030498488 -0.4235692 0.0054124515 0.8134436 0.05203032 -0.2210102 -0.25354877 0.42463046
temen 0.08900069 0.09805448 -0.49789634 0.45569697 -0.57802343 -0.53674465 0.28521007 -0.10275093 -0.21475945 -0.03409527 -0.571081 -0.27462286 -0.090137824 0.1018103 0.14298342 0.13218196 0.42508873 0.15977006 0.0053739427 -0.19105944 0.01398895 0.30736133 0.033185076 0.33754674 -0.041484207 0.054784555 0.05392032 -0.17853221 -0.65344614 0.7500698 0.39644375 -0.04061121 0.7196625 0.22367412 -0.2921664 -0.1600809 0.01620011 -0.054182157 0.26206574 0.29120666 0.7923299 -0.1305751 -0.24575815 -0.59727293 0.21628113 0.256288 0.14189732 -0.56668335 0.29327828 0.83166766
( -0.06983365 0.25358456 -0.14030081 0.2561272 -0.29494882 -0.48272 0.04967735 -0.2677594 -0.24030393 -0.05922826 -0.6155987 -0.25318542 -0.49094173 0.3019976 0.4432633 0.23901123 0.32907242 -0.13830031 0.22258464 -0.015998533 0.092809916 0.35635558 -0.083139054 0.10236023 -0.09784181 0.19619095 0.011112828 -0.1623197 -0.24307936 0.22185901 0.22210012 0.08803321 0.70755 0.4179618 -0.16919903 0.19204311 -0.06282037 -0.22006159 0.30283672 0.42955902 0.4839546 -0.18509327 -0.058747873 -0.3089671 0.052479867 0.53369313 -0.022990936 -0.35376248 0.21949677 0.5026196
dulu 0.07558467 0.014331198 -0.50779235 0.40663287 -0.54666185 -0.44636634 0.20634949 -0.22938071 -0.18156691 0.10619164 -0.5686024 -0.2525136 -0.092281364 0.1633838 0.20152359 0.07044345 0.39331874 0.18633787 0.03041097 -0.12784974 0.0057156933 0.3368402 0.028613418 0.26242542 -0.04564876 0.04737439 0.031986617 -0.17749271 -0.60977983 0.6629836 0.48364282 0.03278016 0.83157265 0.26292172 -0.3253768 -0.19823979 0.02181782 -0.02319614 0.3677516 0.33019036 0.68870085 -0.024118768 -0.28245184 -0.5339082 0.18833798 0.2654104 0.22808993 -0.5752612 0.313912 0.84610933
) -0.090397425 0.27298877 -0.13889246 0.23667844 -0.30968833 -0.48460996 0.01564194 -0.26372257 -0.20994714 -0.05213969 -0.62397605 -0.20337468 -0.5270321 0.24843056 0.41325772 0.25665575 0.36909556 -0.16010696 0.22300339 0.0035944632 0.11062075 0.37077633 0.00024971674 0.0607694 -0.095950045 0.19043604 0.020469813 -0.14342591 -0.25482082 0.23835507 0.2556856 0.063346356 0.65646863 0.39507797 -0.1792351 0.10781689 -0.047425337 -0.21142553 0.30462798 0.39950013 0.43913028 -0.13053195 0.024320722 -0.34030518 0.110922165 0.49213052 -0.015186101 -0.3465208 0.16275756 0.52975184
kan 0.03960955 0.13821909 -0.489903 0.33498564 -0.55425733 -0.45169938 0.16544907 0.03806499 -0.074927956 0.0635753 -0.35486805 -0.022443866 -0.1273744 0.11486351 0.06066381 0.088268615 0.4634344 0.19605266 0.2116267 -0.044226546 0.09253875 0.33990064 0.008658115 0.13109842 0.20563368 -0.18751046 0.13851556 -0.18997099 -0.5511142 0.4285631 0.50579923 -0.09270409 0.6179218 0.34712794 -0.27501625 -0.2747684 0.033380777 -0.048099354 0.4719755 0.4929329 0.617917 0.014996345 -0.1617613 -0.5666194 0.23254095 0.36971328 0.25665134 -0.44255957 0.1183433 0.8376784
yo -0.4062388 1.0509958 -0.2511393 -0.22689897 -0.31231222 -0.5327565 -0.49491748 0.28531766 -0.08768676 0.13506228 0.2611551 1.0715444 -0.730726 0.10332605 -0.14678355 0.08745063 0.499748 -0.12071573 0.770387 0.20258968 0.86371464 0.46803457 -0.0063737296 -0.6017543 0.9568384 -0.74578464 0.6489775 -0.4350809 0.13341178 -0.6141765 0.46562013 -0.08137779 0.4556604 0.73061806 -0.10043069 -0.43901378 0.3304425 -0.63439447 1.1940128 1.12183 -0.069960095 0.03253331 0.39641953 -0.25583002 0.2804868 0.92892134 -0.32401103 0.1522121 -0.5195429 0.7248317
ðŸ¤£ -0.11883647 0.6032101 -0.35233444 0.12018162 -0.3205023 -0.3004874 0.07650874 0.34828952 0.03482975 0.21165903 0.0023093163 0.4225512 -0.46134284 0.11556209 -0.07556122 0.13900673 0.41423222 -0.060533915 0.46358353 0.17894705 0.33786047 0.26726857 0.0333349 -0.15564847 0.5437843 -0.37729287 0.2894313 -0.18190189 -0.32829008 -0.030676058 0.5077713 -0.10721214 0.5573513 0.627591 -0.061053973 -0.34439784 -0.04277994 -0.14903061 0.80808437 0.7323117 0.26706484 -0.0070219333 0.14301631 -0.32749242 0.3273747 0.405144 0.050480325 -0.27749974 -0.19115086 0.69145525
tp 0.014056554 0.30539033 -0.42957523 0.21442127 -0.46350363 -0.506949 0.09806046 0.039305795 -0.10958772 0.09164966 -0.36306447 -0.06129887 -0.1359221 0.013451794 0.021714889 0.12770967 0.47189596 0.15733044 0.19637923 -0.12954026 0.12737541 0.34127823 0.008723413 0.07569932 0.22925282 -0.13639528 0.053829882 -0.2451396 -0.57115954 0.40385082 0.40334332 -0.061785474 0.6590752 0.34547806 -0.27924812 -0.20338172 0.050201975 -0.15366942 0.5247519 0.4160595 0.523334 0.01805186 -0.03812773 -0.4889221 0.21258245 0.36546093 0.06671766 -0.453712 0.111143716 0.7579924
apa 0.029189885 0.018153006 -0.51041365 0.32388282 -0.5755035 -0.5327602 0.15240069 -0.092718706 -0.15199466 0.06148882 -0.40139115 -0.20394419 -0.10252078 0.025687778 0.1548208 0.06528403 0.508465 0.3167457 0.032872166 -0.17756161 0.0019192086 0.27946204 -0.005240999 0.18243621 0.048264753 -0.047179103 -1.4067171e-05 -0.13795146 -0.7070718 0.6254595 0.56056774 -0.0016914416 0.6822101 0.33107373 -0.3902067 -0.29875997 0.042638708 0.01640054 0.346022 0.39942005 0.6456945 -0.02166252 -0.15720256 -0.6645059 0.22338562 0.27568117 0.252831 -0.4953951 0.19259273 0.8605308
pas 0.009454853 0.18483636 -0.51084983 0.2798378 -0.50874954 -0.47345358 0.10860296 -0.011369573 -0.15669979 0.07294059 -0.34052265 -0.011264258 -0.09741466 0.015183174 0.04726585 0.07196488 0.4436346 0.2092586 0.24998038 -0.104399115 0.15457349 0.3426607 0.07700468 0.12093031 0.19308989 -0.18280728 0.09440051 -0.21202472 -0.65278774 0.38387805 0.47014466 -0.11414818 0.64440453 0.36450502 -0.18069912 -0.2840713 0.080741875 -0.13247311 0.48833737 0.50802296 0.60046774 0.08739611 -0.08161756 -0.5453141 0.20662309 0.3654641 0.19114843 -0.4331526 0.11622067 0.8392313
ðŸ˜‚ -0.11255697 0.5084169 -0.30701062 0.050923847 -0.37986058 -0.32426518 -0.07676896 -0.018537298 -0.23933274 0.009672171 -0.1060144 0.26541108 -0.4611842 0.079078615 0.0130386995 0.10386096 0.50759196 -0.030423695 0.29044357 0.07099411 0.32749814 0.26096103 0.015265982 -0.12877843 0.3477232 -0.42415988 0.32705405 -0.1764768 -0.265901 0.09129504 0.41624552 0.09325458 0.48785162 0.5176079 -0.12941416 -0.25680247 0.075950235 -0.10276066 0.64618665 0.6333588 0.4255189 -0.024856634 0.05977678 -0.34324288 0.12338706 0.55599064 0.08618327 -0.18634553 -0.08384707 0.65824074
gitu 0.040675666 0.03649698 -0.4577121 0.36250117 -0.47344118 -0.5162487 0.28421676 -0.16653748 -0.1308276 0.09552432 -0.47706375 -0.3520176 -0.08301652 0.06666466 0.1277191 0.08965056 0.42795897 0.20063356 0.06503006 -0.1548292 -0.005147489 0.34839964 0.031479876 0.21946666 0.009883541 -0.016157787 -0.00087601016 -0.17438594 -0.6812266 0.5664467 0.48942938 -0.04052087 0.7112483 0.32481715 -0.30371204 -0.16832918 -0.053053133 -0.03434332 0.44839457 0.31710747 0.6746074 -0.020854874 -0.1809215 -0.56522256 0.19903353 0.2844207 0.19095089 -0.5769921 0.2606208 0.7972567
karena -0.005723355 0.15574996 -0.4059681 0.48911613 -0.27392176 -0.5302452 0.34698057 -0.20773889 -0.28459504 0.11837814 -0.78135705 -0.54050434 -0.14992237 0.049314037 0.19582191 0.20535414 0.24031341 0.038348943 7.415505e-05 -0.20703189 0.10696462 0.25180757 0.07093672 0.34913805 -0.09440008 0.20872758 -0.047784116 -0.18982162 -0.5763922 0.62130076 0.3011454 0.053598948 0.81608 0.10515399 -0.38470423 -0.0094981305 -0.13894555 -0.21764724 0.43081942 0.16355859 0.63027644 -0.10921929 -0.16319768 -0.24303111 0.18585277 0.49096566 -0.0570233 -0.5883886 0.3465416 0.6343846
tau 0.041065715 0.11476391 -0.4395587 0.30410415 -0.49126312 -0.43544224 0.16748464 -0.064447656 -0.12907428 0.087456875 -0.40709466 -0.25577557 -0.10319188 0.11147009 0.06773058 0.10571312 0.42544362 0.18101397 0.11546585 -0.16797772 0.07088952 0.31717426 0.04528236 0.2377516 0.040794946 -0.034735546 0.040734682 -0.21558194 -0.61111677 0.4927772 0.47154737 -0.013039903 0.73947793 0.28022164 -0.28701702 -0.15775253 0.011555537 -0.0761948 0.39657083 0.34435236 0.596658 0.037878253 -0.106073 -0.5412897 0.24075179 0.3452149 0.1756782 -0.4697641 0.2083988 0.7618331
terus 0.01753887 0.15656199 -0.43285474 0.25331485 -0.47138226 -0.4919325 0.08882627 -0.14730826 -0.17903444 0.13584562 -0.37835854 -0.09366189 -0.19760884 0.12576874 0.10611187 0.075969025 0.3362554 0.117657855 0.1722986 -0.04510714 0.09636507 0.26745892 0.026563039 0.1470299 0.09428271 -0.07520564 0.1460796 -0.23879518 -0.4453685 0.4168073 0.4074423 0.00410508 0.69261163 0.35623786 -0.2346985 -0.22690298 0.023084147 -0.13150594 0.5016204 0.40386748 0.48710507 -0.010966874 -0.12905023 -0.56963986 0.1613255 0.32920197 0.0773614 -0.44756615 0.18369374 0.79655564
you -0.19499381 0.83471584 0.35082006 0.30565023 0.4730879 -0.83982795 0.23249207 -1.2244935 -0.72714543 0.1655057 -1.25601 -0.60869145 -1.7055306 0.7893839 1.2524471 0.6749149 0.015401175 -1.3229494 -0.0039266576 -0.13496654 0.18374187 0.21714854 -0.11607929 0.051698912 -0.40340787 0.8152385 0.51932365 -0.75352585 0.43636313 0.040332753 -0.5692066 0.98353237 1.7716006 0.78947467 -0.11013956 1.2005744 -0.74659413 -0.9316243 0.82809144 0.042259715 0.051047463 -1.0796221 0.5212266 0.54070973 -0.04645884 1.4673373 -0.7775089 -0.09687827 0.5616434 0.3514088
/ 0.01364828 0.18859653 -0.39513323 0.28100935 -0.45554283 -0.5044751 0.10085848 -0.14486712 -0.14200924 0.044847947 -0.4289346 -0.17757872 -0.21364471 0.16723676 0.17539853 0.11269513 0.3675339 0.037171643 0.125754 0.009675384 0.042209465 0.37990317 -0.010034901 0.115466885 -0.010823709 -0.021809619 0.15201323 -0.16768853 -0.4832613 0.31258187 0.32979244 -0.038387664 0.7081002 0.3483932 -0.23488961 -0.019240301 -0.028742682 -0.14007577 0.4619916 0.3503965 0.5008125 0.057896342 -0.08788781 -0.36925656 0.17700599 0.45265025 0.07621598 -0.4646077 0.13276778 0.6923998
orang 0.028085673 -0.018851494 -0.45662135 0.4096778 -0.56629944 -0.5329654 0.2968804 -0.017914563 -0.17898178 0.12512885 -0.5530688 -0.5222986 -0.050068296 0.0831915 0.11883758 0.0727163 0.45583665 0.30696112 0.0481386 -0.26705453 0.008874205 0.27864426 0.04795204 0.31440175 -0.11657245 0.09546626 -0.010394108 -0.21757782 -0.8098068 0.7445824 0.5570119 -0.04163627 0.8414187 0.28516832 -0.30617693 -0.21146958 -0.044805225 0.02581593 0.34488136 0.26226228 0.7417956 -0.067594916 -0.2248858 -0.62457615 0.25215042 0.23432943 0.2605901 -0.6261189 0.3786495 0.805984
tokped 0.080896735 0.1350605 -0.47143692 0.37416878 -0.65970093 -0.4870115 0.11941647 -0.2697771 -0.110310294 0.18217213 -0.27204922 0.058845032 -0.07618266 -0.068783745 0.12760615 0.031936377 0.43390614 0.31607896 0.28956863 -0.009272261 0.05905532 0.23467655 -0.08862704 0.19177352 0.2743205 -0.1329013 0.07227662 -0.06732629 -0.5619032 0.28043026 0.5642397 -0.100662686 0.64380586 0.3198822 -0.30763847 -0.30916592 0.13953845 -0.16126484 0.6004167 0.5365356 0.5652479 0.13998717 -0.010281307 -0.5666362 0.18120976 0.3656541 0.26939437 -0.40355968 -0.012381413 0.8585725
banyak 0.07697127 0.010857856 -0.45060658 0.4142153 -0.53521335 -0.5485246 0.18327557 -0.29013938 -0.17083932 0.13594323 -0.5140928 -0.28004614 -0.16136211 0.16511479 0.22227907 0.08573521 0.3864935 0.124511145 0.061855152 -0.08428161 0.026264302 0.26928523 0.061403587 0.28934672 -0.02425668 0.09887005 0.07177179 -0.15515365 -0.59940296 0.5960228 0.46369445 0.06598726 0.81128395 0.20037015 -0.33454502 -0.13196233 -0.049378272 -0.10362177 0.38956323 0.26024848 0.6618465 -0.1039793 -0.13400821 -0.50666606 0.155374 0.3181192 0.09200592 -0.5238299 0.36462232 0.6937609
masih 0.11893851 0.03938988 -0.4730338 0.37375098 -0.5655662 -0.49893203 0.19966081 -0.14271332 -0.1572935 0.06084179 -0.5344702 -0.33064756 -0.106556356 0.09670394 0.17728148 0.07283141 0.4507956 0.24381308 0.050675053 -0.11267232 -0.05288745 0.32447118 0.00874951 0.27268693 -0.030908067 0.045626163 -0.021475183 -0.16728953 -0.73009294 0.63487357 0.5212665 -0.07678965 0.78551614 0.25072575 -0.29106122 -0.20676479 -0.01801314 -0.0902896 0.39312288 0.36218587 0.7363181 0.04432497 -0.23315147 -0.62046325 0.24841994 0.28066844 0.19847736 -0.53899026 0.30150142 0.7664469
sing -0.32597315 0.94498056 -0.15931314 -0.22598413 -0.110964864 -0.49588355 -0.4741853 0.11280878 -0.10615361 0.13239516 0.10730142 0.7459422 -0.88639635 0.05207943 0.05122466 0.1413625 0.37601215 -0.3717359 0.7181473 0.10776311 0.6948064 0.41733536 0.05424215 -0.50569725 0.83958584 -0.48298377 0.58177555 -0.41000387 0.15800756 -0.57294595 0.12381377 -0.03921047 0.6542559 0.62532926 -0.07559553 -0.11516839 0.11226222 -0.67197406 1.0905254 0.85517097 -0.0840031 -0.060156014 0.41637316 -0.0301639 0.19343702 0.94959056 -0.4494746 0.22247669 -0.3283208 0.5506108
atau 0.034787033 0.047742795 -0.48276448 0.4096656 -0.5117477 -0.51868856 0.20375662 -0.11314086 -0.18839793 0.09835417 -0.543491 -0.2943132 -0.05879172 0.10917521 0.11018659 0.072410464 0.46618396 0.28986558 0.047252152 -0.13269253 0.04193331 0.3298937 0.06101897 0.2707678 0.005742741 0.004724329 0.04762155 -0.16867071 -0.71176124 0.54205364 0.5064605 -0.0914875 0.7361676 0.28335106 -0.30551004 -0.18410249 0.025755215 -0.05086376 0.40484154 0.37714612 0.6700175 0.050898187 -0.18378057 -0.57677096 0.21555565 0.3422712 0.20623809 -0.5626032 0.28397664 0.76644135
pake 0.102578424 0.082647234 -0.63448197 0.4528032 -0.60145414 -0.5786445 0.26744136 -0.089203216 -0.18483016 0.034941036 -0.47994334 -0.14410137 -0.049230494 -0.064240076 0.09328331 0.09443632 0.39482728 0.28235215 0.11284104 -0.057863086 0.002442876 0.3348344 -0.0066932407 0.31623176 0.12995878 -0.021398341 0.05059994 -0.117979445 -0.71285313 0.5569244 0.5565733 -0.14550473 0.69334877 0.1354092 -0.35180023 -0.24654885 0.017245144 -0.08088599 0.5244625 0.34512445 0.6139841 0.091158636 -0.21937008 -0.54285336 0.25467262 0.3390685 0.16466211 -0.5761329 0.12266547 0.8482383
i -0.36389074 0.950568 0.40084898 0.12018232 0.4586631 -0.69376093 0.17605324 -0.63516414 -0.5195377 0.04765482 -0.9056322 -0.60701257 -1.3940368 0.39654455 0.8540251 0.6444938 0.103976905 -1.0946195 0.18993998 -0.2779706 0.23457633 0.3846465 -0.05169804 -0.02186581 -0.114285186 0.5173995 0.42306918 -0.7244499 0.09209952 -0.10042842 -0.50017965 0.53246963 1.3535644 0.74981385 0.025727881 1.1347169 -0.51536 -0.9164647 0.86872613 0.17978565 0.2792626 -0.716685 0.51827246 0.5646755 0.04800071 1.2496057 -0.7591748 -0.1219678 0.3526127 0.3595675
kalau 0.069394834 -0.0055124904 -0.52288705 0.4144182 -0.59170085 -0.5348223 0.27126503 -0.083803296 -0.12991774 0.07075714 -0.5567377 -0.4111029 -0.018979048 0.07161083 0.14419705 0.052449778 0.40018535 0.27037814 0.051895738 -0.1829033 0.028326457 0.3237024 0.019694962 0.35630974 -0.037091933 0.04822639 0.014990671 -0.23796842 -0.7555173 0.62971604 0.4486189 -0.030158848 0.78313214 0.17629649 -0.42251125 -0.16948386 -0.02118613 -0.09381722 0.40386987 0.32206047 0.7787916 0.012919261 -0.21272194 -0.5855593 0.2539603 0.31525713 0.19530857 -0.61894363 0.30576432 0.8149865
gw 0.02460599 0.045853846 -0.43876794 0.3851785 -0.41203183 -0.5260276 0.2983016 -0.111071505 -0.14464046 0.0022863578 -0.5802339 -0.36464784 -0.08847795 0.0705425 0.15194651 0.15820739 0.354548 0.13776919 0.03224005 -0.17003372 0.007270119 0.3187334 0.034803446 0.25154358 -0.040794823 0.1337488 0.01168542 -0.21055536 -0.7431751 0.66047275 0.3499672 -0.026793396 0.8206605 0.32174346 -0.22245853 -0.12804094 -0.09330809 -0.08056158 0.36175612 0.30687723 0.6808025 -0.02335126 -0.17094451 -0.54163754 0.15210444 0.36978066 0.11873806 -0.5619899 0.24385025 0.8299903
iki -0.2652192 0.88824856 -0.24878155 -0.15363958 -0.32278752 -0.47702512 -0.43198553 0.06709817 -0.09748293 0.10362643 0.15282783 0.94745404 -0.7888668 0.06751175 -0.020071661 0.08471503 0.4272463 -0.12971869 0.66039586 0.24398486 0.77459294 0.4398757 0.036855027 -0.5695342 0.8467053 -0.6331032 0.5479261 -0.328662 0.016978953 -0.5462704 0.38615394 -0.05025614 0.53844976 0.61632115 -0.10998182 -0.37210402 0.1994006 -0.56412643 1.0350102 0.9638754 -0.077015005 0.05511024 0.3318127 -0.21903451 0.23886155 0.8939011 -0.27334073 0.11470834 -0.43690482 0.6926604
baru 0.08578743 0.13642277 -0.46587753 0.30154523 -0.5184237 -0.46364325 0.15558667 -0.14064114 -0.17447285 -0.0131507395 -0.49287677 -0.1802277 -0.15296823 0.04774812 0.13086309 0.10224441 0.4375946 0.13917916 0.11734295 -0.08679378 0.01482969 0.34357098 0.017816043 0.21359032 0.033976287 -0.016481413 0.06895353 -0.22828099 -0.65418446 0.49754283 0.41797164 -0.087370634 0.71694505 0.3408307 -0.25416133 -0.24106172 0.028533291 -0.09761278 0.4433102 0.43722376 0.64547604 0.08327897 -0.12018878 -0.5635097 0.20249736 0.33657616 0.2402605 -0.47041675 0.17735094 0.73261136
kita 0.061685905 0.01601973 -0.53579676 0.3775652 -0.5676841 -0.51449364 0.28599477 -0.15749402 -0.11899778 0.13417691 -0.5757395 -0.3666688 -0.07013135 0.1610171 0.17415586 0.08114845 0.41322744 0.25191313 0.04591495 -0.15536587 -0.017248867 0.2684542 0.0063203955 0.3017181 -0.06319961 0.07276573 0.07307499 -0.24835633 -0.6512022 0.5681328 0.45543763 0.017188411 0.89048165 0.26141432 -0.35746196 -0.14192806 -0.023621192 0.03657847 0.384137 0.3158713 0.66137594 0.006533842 -0.19517532 -0.5359915 0.21069781 0.23415697 0.19707695 -0.5243479 0.36234176 0.8146043
I -0.33553493 0.9475437 0.36470547 0.17585202 0.5246688 -0.8293174 0.28145579 -0.7938261 -0.57379365 0.026793242 -1.1382719 -0.808686 -1.6548926 0.49221462 1.0763825 0.73440254 0.121656716 -1.1756305 0.06536212 -0.23986036 0.14227761 0.3900878 -0.05795187 0.14146665 -0.3044778 0.6958039 0.4993895 -0.82174116 0.060276203 0.009346445 -0.6587083 0.68995804 1.617707 0.87393135 -0.02296046 1.2239065 -0.6726105 -1.0053976 0.85773444 0.06953761 0.38454202 -0.8324848 0.51103044 0.62725586 0.031205561 1.4463383 -0.775202 -0.16677979 0.46213374 0.4290423
nggak 0.017338179 0.10426507 -0.27369753 0.31809554 -0.3280027 -0.49307546 0.26214036 -0.22457866 -0.19417857 0.015178022 -0.59375566 -0.48065636 -0.2965839 0.106999144 0.30156547 0.1981263 0.2965445 0.016650304 -0.018565323 -0.18067038 -0.041958682 0.32566136 0.05171505 0.21834524 -0.119161606 0.25354627 -0.0018683417 -0.21388039 -0.5682295 0.523708 0.2759643 0.10481059 0.8449213 0.25713667 -0.34068117 0.06842888 -0.19136927 -0.1547469 0.3610687 0.18505181 0.5977589 -0.14961237 -0.12785606 -0.3174123 0.2110357 0.41247752 0.083811864 -0.5077434 0.31326413 0.61638737
RT -0.32696605 0.77567047 -0.1909189 -0.09564762 -0.28423664 -0.53879213 -0.31453738 -0.07539321 -0.1054343 -0.10557279 0.14017281 0.7264199 -0.772323 0.20059289 -0.017119782 0.22813492 0.25074932 -0.21979944 0.47984043 0.24203888 0.6101513 0.38206437 0.047641892 -0.59190804 0.7239751 -0.37933117 0.45506728 -0.4318663 0.09438415 -0.4147028 0.29629484 -0.007931292 0.4077749 0.57579124 -0.18658037 -0.115354784 0.21835332 -0.5871329 0.9436213 0.86111456 0.103285775 0.01150401 0.24274822 -0.26001963 0.2392405 0.8783685 -0.19038573 0.054148857 -0.4038405 0.6244953
kamu 0.0014261181 0.066333406 -0.3753831 0.42792234 -0.36973792 -0.4638526 0.33071303 -0.29000625 -0.20731993 0.06533429 -0.6442891 -0.4161653 -0.27270457 0.20219114 0.3125383 0.10715487 0.24834132 0.060731 0.013318321 -0.0986615 -0.021708656 0.19370593 0.041333105 0.28476277 -0.10186105 0.223796 0.12695217 -0.29099885 -0.4601501 0.6252319 0.27836576 0.20415625 0.9103739 0.24699771 -0.32904088 0.071142524 -0.14490376 -0.040281363 0.45303002 0.16515112 0.56837326 -0.15402369 -0.1567296 -0.36764064 0.14431116 0.28214964 0.11646736 -0.5016433 0.38585404 0.66384715
- -0.17775163 0.31669238 -0.014707338 0.22798914 -0.14328735 -0.4827137 0.026681434 -0.4251246 -0.28869528 0.03588683 -0.53573066 -0.14775454 -0.6874024 0.29360148 0.505083 0.16399157 0.19909291 -0.276429 0.048461426 0.09932831 0.09726261 0.2552784 0.03335311 -0.017626692 -0.1468909 0.23392542 0.20034999 -0.21904916 -0.13086939 0.11029499 0.04552752 0.12925756 0.90156 0.41304442 -0.106142454 0.21081346 -0.14769423 -0.35764062 0.39954233 0.27919742 0.25077134 -0.25251967 0.08033331 -0.12501454 0.054115936 0.7232736 -0.052220013 -0.21372826 0.2099548 0.50417435
cuma 0.050900638 0.19541566 -0.51962674 0.33506942 -0.5129603 -0.5019927 0.123579666 -0.15496436 -0.18074101 0.047491264 -0.4527739 -0.22789046 -0.1587181 0.04409702 0.13740319 0.10259304 0.426423 0.15628545 0.10181952 -0.051684245 0.06514469 0.34580824 0.046948515 0.17502403 0.055989143 -0.014698367 0.018324489 -0.18333463 -0.6305601 0.48570868 0.38778892 -0.073501274 0.7570488 0.25819853 -0.27169555 -0.16942066 -0.042495713 -0.11319962 0.43591636 0.34711733 0.57180357 0.05334333 -0.14902756 -0.48660767 0.22716677 0.3457037 0.15795724 -0.5219153 0.18870795 0.76209116
the -0.0717875 0.8248358 0.3815462 0.38796 0.40904996 -0.8419372 0.29869238 -1.0590767 -0.5590244 -0.022789784 -1.0436357 -0.7344036 -1.3588423 0.5566791 1.0552331 0.5930269 0.06568983 -1.1041058 0.008682551 -0.05712516 0.20276019 0.24959113 -0.02423005 0.09807583 -0.46996406 0.7667067 0.37983212 -0.6487413 0.13188677 0.009602602 -0.46325266 0.6068107 1.5195547 0.69974154 -0.060185682 1.1261126 -0.66784275 -0.7173145 0.6804673 -0.064008445 0.33176777 -0.7881039 0.3075421 0.46766448 0.02000582 1.2885554 -0.6034234 -0.2614843 0.6064881 0.26073322
semua 0.0314038 0.06721411 -0.34284288 0.36964467 -0.3976615 -0.53266585 0.2660149 -0.31028783 -0.21389465 0.121701464 -0.6730087 -0.34491804 -0.2761496 0.25993496 0.3436342 0.12963687 0.2676792 0.016450567 0.019858826 -0.09853196 0.036328766 0.2277966 0.08154952 0.22471993 -0.124659315 0.22924885 0.09629522 -0.21000718 -0.42460096 0.555008 0.36573905 0.18778268 0.84553677 0.26915148 -0.29130182 0.027100246 -0.16197121 -0.055859666 0.38328758 0.22293344 0.49832025 -0.18013164 -0.16814847 -0.3800816 0.13139571 0.32176554 0.0064395964 -0.4529425 0.41318476 0.6116124
sampe 0.073412076 0.11180122 -0.44087672 0.33853984 -0.53215754 -0.47158876 0.13113183 -0.14994833 -0.16245493 -0.006328619 -0.51447284 -0.15450677 -0.20729327 0.041547447 0.16786802 0.12798049 0.39940834 0.17123127 0.11937705 -0.087170966 -0.022618718 0.42502204 0.06563118 0.15323901 0.028972208 -0.058829088 0.016233355 -0.12363744 -0.62018543 0.50748646 0.4065239 -0.058085244 0.78309155 0.3255234 -0.22720988 -0.24227162 -0.009102409 -0.10317663 0.38945898 0.32603964 0.64786476 0.14167137 -0.11315388 -0.6073085 0.14581405 0.38793108 0.16759607 -0.4502428 0.1753153 0.6737186
lebih 0.013814361 0.06665668 -0.51795506 0.39715594 -0.6006821 -0.5682732 0.21229543 -0.14792417 -0.16949071 0.08452909 -0.5366673 -0.30123788 -0.0055028764 0.11491614 0.13111912 0.08563562 0.42748043 0.2694529 0.04238125 -0.1306813 0.007401916 0.3568321 -0.04858977 0.3003897 0.0047094156 0.047966223 0.049201857 -0.13261916 -0.7302319 0.5749168 0.51698136 -0.023342965 0.7386622 0.20149834 -0.37984705 -0.16232201 -0.0046599484 -0.029400676 0.45711356 0.30102614 0.6973498 0.046415452 -0.15036295 -0.6031395 0.21101756 0.24427174 0.18328689 -0.59750634 0.34400418 0.8061679
emang 0.041706823 0.21122088 -0.44253087 0.3307713 -0.45256403 -0.5476814 0.21502617 -0.13988203 -0.24410632 0.095446885 -0.48376036 -0.2737509 -0.1675633 0.051049512 0.121761866 0.11082039 0.32134905 0.10881847 0.0348315 -0.13129032 0.14830007 0.3070725 0.06351576 0.2518338 0.0597551 0.055917352 0.037643626 -0.14753859 -0.5817885 0.4623544 0.42830476 0.038516127 0.6690963 0.24018104 -0.31150797 -0.09550166 -0.07113558 -0.10370041 0.4199823 0.30146885 0.5888891 -0.04852225 -0.13208374 -0.40144742 0.1284839 0.4614068 0.003419665 -0.5381651 0.25338316 0.67855644
tak -0.15126072 0.56682765 -0.42825922 -0.22182408 -0.38281384 -0.5163451 -0.2621842 0.027771756 -0.0059114066 0.23328868 0.213265 0.7427846 -0.7615237 0.08860482 -0.15158129 0.09486021 0.52141136 0.09367817 0.4699503 0.27668554 0.509921 0.33067656 0.030292097 -0.55920696 0.58870083 -0.4391036 0.5404269 -0.37220067 -0.0007791604 -0.3099498 0.48492968 -0.18202806 0.5836246 0.57848895 -0.03576484 -0.35366207 0.14040005 -0.43541947 1.0592865 0.7471733 0.13421361 0.054474525 0.30140632 -0.2677906 0.29273322 0.77312917 -0.19357322 0.15047936 -0.43564555 0.73555297
gua 0.08285338 0.0880645 -0.4672039 0.43311456 -0.5316942 -0.49689743 0.34957397 -0.13017933 -0.18720882 0.036287244 -0.5605401 -0.4234979 -0.06420482 0.089947626 0.15887634 0.16848052 0.36456895 0.17483914 -0.010829893 -0.25136733 -0.03319878 0.34558725 0.05197919 0.3497475 -0.03944078 0.08284142 -0.012639915 -0.20020397 -0.8135209 0.63407016 0.38471732 -0.03262771 0.772814 0.25100175 -0.3072787 -0.1808808 -0.0031278883 -0.12138573 0.36271143 0.2719916 0.69855595 0.0026810511 -0.21173248 -0.5286574 0.2461313 0.28245974 0.17865849 -0.60782534 0.30423197 0.8536924
wae -0.3030113 0.8141947 -0.38179764 -0.23971598 -0.2838483 -0.5055164 -0.41507626 0.15935259 -0.04046236 0.13879868 0.17800932 0.8115218 -0.73395354 0.13504274 -0.10183026 0.13210677 0.4769583 -0.06149428 0.7189635 0.19440018 0.7315421 0.3477023 -0.0047288337 -0.607218 0.8597142 -0.6143391 0.5584394 -0.42228568 0.056505673 -0.4434348 0.38314933 -0.07960412 0.5525948 0.6030452 -0.13640037 -0.39939374 0.24369976 -0.5747295 1.0162803 1.0240244 0.059193037 0.098526806 0.22128613 -0.27161378 0.24257465 0.76810974 -0.25268662 0.09525096 -0.43573803 0.714537
my -0.105848126 0.8138244 0.335122 0.3057573 0.42045203 -0.65103525 0.2848631 -0.88146967 -0.53809255 0.094681114 -0.99987274 -0.6137807 -1.2117872 0.5067431 0.9247505 0.5073084 0.105271004 -0.98105526 0.0960734 -0.11830658 0.21832004 0.16362628 -0.0042973314 0.032567583 -0.36820233 0.54806733 0.41853818 -0.7223589 0.08829998 0.013637865 -0.3920939 0.59022886 1.3946398 0.7360355 -0.06639381 1.0648791 -0.5452077 -0.80593014 0.64535666 0.15006 0.3197649 -0.7294221 0.21443799 0.5194845 0.08839691 1.2958883 -0.57939255 -0.25581193 0.47650054 0.41879955
nek -0.32672212 0.9454922 -0.28930226 -0.12874481 -0.36199442 -0.49781168 -0.45811287 0.22287457 -0.075575426 0.19647661 0.19164279 0.98393977 -0.66791105 -0.012723303 -0.14969788 0.062059592 0.5502369 -0.049724318 0.7764421 0.18293828 0.7667263 0.5199888 0.018708264 -0.54814845 0.9627636 -0.6765261 0.55218816 -0.37578142 0.015630826 -0.53553855 0.39413953 -0.09023331 0.47642228 0.6873264 -0.12842791 -0.40626487 0.264686 -0.5620102 1.1586397 1.0138965 0.012302902 0.04547422 0.28660747 -0.2826389 0.23323287 0.8869539 -0.28352594 0.07569989 -0.48905426 0.7166754
mereka 0.04606048 0.07381324 -0.43417975 0.3647782 -0.4806091 -0.5589082 0.20380495 -0.20097622 -0.16792203 0.08925535 -0.527112 -0.39047292 -0.08888672 0.11737096 0.19544473 0.14398736 0.36805668 0.11812529 0.063692704 -0.11116435 0.050066013 0.29698217 0.06868814 0.30578783 -0.07013053 0.1614496 0.020770682 -0.28292525 -0.64365065 0.562089 0.44000995 -0.019823015 0.833635 0.2521141 -0.27863675 -0.10537962 -0.081626646 -0.13104372 0.37344787 0.20138131 0.6436145 -0.010631283 -0.13678563 -0.4087092 0.22631696 0.31874368 0.07523961 -0.52402973 0.30167413 0.70533586
ora -0.24022259 0.9116766 -0.27878615 -0.17849463 -0.2758716 -0.508456 -0.4374598 0.24363849 -0.0732034 0.19339861 0.12766546 0.85515916 -0.5658922 0.038921457 -0.030724525 -0.02802539 0.49818254 -0.077219374 0.6582207 0.19658992 0.7289064 0.47057515 0.009068292 -0.440804 0.8509654 -0.6732681 0.5154782 -0.29858506 -0.06058947 -0.43512005 0.42662328 -0.17437302 0.54604197 0.6650356 -0.14069672 -0.37255374 0.24623741 -0.46720186 0.95768714 1.033148 0.003596636 0.11350742 0.31634828 -0.27900746 0.16070609 0.8859815 -0.25889644 0.06916143 -0.45977256 0.66828257
bener 0.09934485 0.0918128 -0.43856013 0.23900947 -0.4601389 -0.5279187 0.2529544 -0.098678224 -0.19011274 -0.021709515 -0.4095302 -0.25265065 -0.20693734 0.19574127 0.12132531 0.15943256 0.41506875 0.18301202 0.098974794 -0.08923549 0.12349411 0.42604095 0.07445699 0.16918094 0.098539166 -0.047992405 0.12443882 -0.2590624 -0.5818053 0.42437497 0.4030586 0.04372371 0.6169996 0.37118244 -0.24942845 -0.09820813 -0.12503663 -0.095943995 0.4630359 0.28943598 0.71005267 -0.0032788168 -0.18346284 -0.51384616 0.13579014 0.34211734 0.1131232 -0.40488258 0.23104732 0.73541474
pernah 0.003644882 0.12917618 -0.5418886 0.3366761 -0.5634685 -0.48019394 0.17727119 -0.019111987 -0.15285867 0.109620005 -0.42686775 -0.1291148 -0.04583317 0.032440882 0.10082117 0.0734062 0.4706785 0.20120531 0.14221166 -0.12016303 0.02581658 0.3236131 0.0034179369 0.18690778 0.11052785 -0.120541126 0.027236296 -0.19352299 -0.69350743 0.5058834 0.55077904 -0.07150425 0.64002067 0.25063038 -0.24806352 -0.29266423 0.06462018 -0.049971815 0.46422005 0.37426698 0.6303791 0.06860122 -0.18527518 -0.57848436 0.22386692 0.31348225 0.20550053 -0.5279823 0.21445066 0.85640025
a -0.13999686 0.77599806 0.34353888 0.2783692 0.45616716 -0.75324786 0.22432551 -0.8301193 -0.6206962 0.028706038 -1.1783999 -0.68328655 -1.4098992 0.64333665 1.0820696 0.5539798 0.09673286 -1.1047497 0.073433556 -0.275284 0.25946805 0.33266768 0.080473155 0.0288108 -0.35033172 0.64775395 0.43477234 -0.7615235 0.23599958 0.0024634618 -0.43171048 0.7520879 1.485127 0.6792778 -0.06957832 1.1251636 -0.6590828 -0.8429694 0.7950299 0.059272762 0.2549099 -0.7548885 0.39999846 0.64017045 -0.024072561 1.3200083 -0.6594671 -0.114737906 0.5695632 0.29870826
and -0.17652065 0.8074876 0.32142624 0.27741063 0.43105027 -0.7137019 0.33493322 -0.8758392 -0.55937076 -0.008662188 -1.1076156 -0.7439338 -1.3110648 0.4259689 1.0018041 0.5916099 0.09755972 -1.1370595 0.081072144 -0.20749035 0.12867878 0.25829637 -0.027401196 0.1627574 -0.3418768 0.6720081 0.3685233 -0.761825 0.044226903 0.039475434 -0.5485125 0.6398208 1.532491 0.7262744 -0.10567998 1.1659913 -0.6462611 -0.8011588 0.68872 -0.052376803 0.41417632 -0.7637571 0.38348278 0.53647983 0.00732146 1.2346247 -0.62916446 -0.262227 0.49619576 0.3436922
hari 0.10570282 -0.011424824 -0.49924287 0.4568275 -0.52918345 -0.5443208 0.18315361 -0.26184586 -0.23403639 0.14318363 -0.5588417 -0.26567522 -0.22162168 0.21019036 0.2334066 0.08001807 0.38561764 0.14801687 -0.019125624 -0.057849534 -0.04982999 0.29319695 0.023650223 0.29476288 -0.10100404 0.060290042 0.121257834 -0.18808675 -0.55097127 0.5998738 0.45841625 -0.01044426 0.85250235 0.24534062 -0.34914032 -0.22482494 0.012319013 -0.050368547 0.3027217 0.31448987 0.5819894 0.042385068 -0.23464432 -0.5004237 0.15558906 0.40119243 0.13766032 -0.4179494 0.37694573 0.6672259
wes -0.34458232 0.9168882 -0.21527603 -0.15902604 -0.30590385 -0.41822183 -0.4458961 0.13661215 -0.09176547 0.19568236 0.13802096 0.8450136 -0.67558676 0.12988085 -0.023503473 0.07927927 0.45594174 -0.024879554 0.6972192 0.14999503 0.7825688 0.36825606 0.020931672 -0.47469154 0.8087035 -0.59168124 0.49991038 -0.33840886 -0.0035803695 -0.54779136 0.37972045 -0.096641205 0.5717258 0.64419264 -0.1001085 -0.33177355 0.26755401 -0.47984418 1.0257281 1.0282423 0.02894611 0.07023341 0.2621878 -0.20864008 0.24553047 0.8947546 -0.24423483 0.10711596 -0.5769702 0.71629244
tuh 0.041235007 0.09110439 -0.48149207 0.35715747 -0.46118456 -0.5305491 0.2757947 -0.10663261 -0.18863125 0.04252216 -0.5062741 -0.31755036 -0.075052336 0.084244266 0.18550785 0.120708205 0.4140042 0.19413555 0.050241888 -0.19158866 -0.012380227 0.318406 0.018932102 0.32483163 0.02247626 0.057556193 0.0013104563 -0.21624957 -0.7229373 0.55771 0.48858148 -0.021530477 0.71537715 0.3085459 -0.33633253 -0.15300031 -0.032438017 -0.095483914 0.38800552 0.28348365 0.7499608 -0.045827877 -0.18810892 -0.5123487 0.18474433 0.33659166 0.13696402 -0.541587 0.2824445 0.79280585
Aku -0.11593767 0.3842212 -0.34724462 0.13954577 -0.39914852 -0.46850702 -0.034393456 -0.038516223 -0.098994315 0.056978457 -0.22944634 0.26109335 -0.44007167 0.05819464 0.12913449 0.124748304 0.37389484 0.054578107 0.23882711 0.004108943 0.26489556 0.33797193 0.05243216 -0.13356465 0.3075323 -0.23162398 0.18228832 -0.24854094 -0.2719367 0.11478565 0.39288247 0.029527007 0.5123088 0.40757486 -0.2042328 -0.22778685 0.06999292 -0.22645664 0.57952327 0.53592694 0.29911917 -0.014202953 0.05143877 -0.41280353 0.21535459 0.5338278 0.028108737 -0.25541282 -0.082459845 0.6931346
iso -0.2727923 0.8616673 -0.2774613 -0.1788088 -0.35854867 -0.5286104 -0.4391983 0.15552287 -0.06509645 0.1602651 0.2909504 0.90400827 -0.59045976 -0.034680363 -0.06840978 0.01957331 0.5001449 0.00024326576 0.6670269 0.17026763 0.71426445 0.35924974 -0.045946877 -0.51993716 0.85254496 -0.65282273 0.55997556 -0.3913182 0.010348966 -0.4736424 0.4360583 -0.054450877 0.4415616 0.67939943 -0.066700116 -0.4062238 0.3527599 -0.46623173 1.031952 1.0744581 0.067239426 0.01020525 0.22033937 -0.33507293 0.2793401 0.87833375 -0.27601802 0.086735055 -0.49616113 0.7398741
; 0.26705393 -0.3961597 -0.75500864 0.41962335 -0.5719232 -0.65513825 -0.60706335 -0.8197785 -0.48768473 1.3321565 -0.18498594 0.082117684 -1.3121542 1.445912 0.33625466 -0.25500682 0.2807118 -0.666112 -0.57234514 0.06834797 0.5676962 -0.2688777 0.44577244 0.7378473 -0.38697037 0.3351161 1.2309206 -0.2148091 0.28768504 0.3837904 1.0446912 0.76493645 1.6025792 0.1998457 -0.47291958 -0.3943411 0.040330477 -0.47078905 -0.20116307 -0.027341222 0.6239293 -0.6955433 0.070602454 0.17656207 -0.8695957 0.74876887 -1.1811881 -0.05460716 1.6367997 -0.07784525
gimana -0.073237166 0.052083764 -0.33469543 0.24258754 -0.38546994 -0.4817022 0.098720595 0.009942404 -0.23148605 0.11608174 -0.4307662 -0.45040324 -0.20492636 0.11017591 0.07866739 -0.04359896 0.5140037 0.29029083 0.010491664 -0.26008573 0.09694341 0.19190289 0.0043664104 0.19111285 -0.025926473 0.0072338795 0.028321572 -0.26279137 -0.6325464 0.68413335 0.52050865 0.05040604 0.75161994 0.42310363 -0.433596 -0.22588743 -0.062460005 -0.046620842 0.25742808 0.40547296 0.68769556 -0.12738898 -0.15906562 -0.46131936 0.27672312 0.48728362 0.30772096 -0.45131677 0.30222362 0.72174793
ï¸ -0.085644536 0.7424174 -0.019506024 0.4734879 -0.17365146 -0.6435163 0.36005092 -1.5617665 -0.18771514 -0.1479854 -0.4612948 1.1966939 -1.7955917 0.4466081 1.8383945 0.4666657 0.13136014 0.2426033 -0.28785798 0.067870684 -0.038564708 0.45965886 0.19094008 -0.96669906 -0.80641115 -0.023801202 0.050267007 0.3423183 1.1681012 0.73672324 0.4185984 1.099001 0.74679154 0.9951572 0.16029525 0.34999144 -0.45074895 0.50241387 0.43605214 0.6202336 -0.5562026 -1.4152137 -0.12721676 -0.60523224 0.30197576 1.0132635 0.2952146 -0.8795533 -0.21691966 0.5745737
lama 0.07199536 0.07555444 -0.5365505 0.4728972 -0.7492209 -0.4983246 0.23879834 -0.032726325 -0.14235245 0.06824951 -0.42499065 -0.15292445 0.006778812 0.018209096 -0.026747657 0.17554963 0.48365095 0.34654158 0.040647827 -0.06872602 -0.057492737 0.33124927 -0.030746168 0.38157943 0.07153845 -0.071993336 0.0161509 -0.10767172 -0.71766317 0.72611266 0.5396205 -0.15863389 0.59145993 0.24540468 -0.31336236 -0.19014943 0.008243569 -0.036466062 0.42570043 0.44773504 0.6888304 0.041261993 -0.2514043 -0.76288337 0.2861104 0.3347224 0.23099114 -0.6540253 0.15346026 0.8836519
ra -0.23657522 0.9217342 -0.31189033 -0.17398 -0.34081545 -0.4891397 -0.45182285 0.23788433 -0.11538662 0.21840999 0.17373286 0.9381829 -0.6730344 -0.0013116371 -0.12938902 0.0073714238 0.5040565 -0.041938104 0.700936 0.16052258 0.8275456 0.4885361 0.04609552 -0.4998962 0.85943377 -0.6551925 0.58403194 -0.36425784 0.05354251 -0.50422376 0.3880095 -0.1319828 0.5296615 0.6191168 -0.08363068 -0.41601372 0.28319207 -0.5841095 1.0682932 0.97494286 -0.06122341 0.03235296 0.29737017 -0.25098 0.23018895 0.9083238 -0.34058326 0.07603759 -0.4736512 0.6638547
me -0.10950086 0.652494 0.22411549 0.2177357 0.35185823 -0.67756844 0.12883252 -0.81873274 -0.51570946 0.05662517 -0.8504343 -0.63990057 -1.2572167 0.478684 0.8433475 0.5717019 0.050125085 -0.9958663 -0.01385888 -0.03591936 0.10306775 0.20668745 -0.015042191 0.046481878 -0.34922704 0.63907146 0.4035991 -0.66175014 0.010060392 0.037192527 -0.39911407 0.612719 1.2476441 0.6311653 -0.22453119 0.9049667 -0.65794677 -0.8091544 0.54313534 0.03352406 0.299287 -0.7614774 0.35115018 0.43247885 0.09962882 1.109118 -0.5079054 -0.19125472 0.40147933 0.31820995
udh 0.09258371 0.05059101 -0.45486745 0.39987057 -0.5215063 -0.55381465 0.2699299 -0.12786472 -0.16027638 0.018664554 -0.52986497 -0.35667694 -0.089965135 0.048246678 0.18861826 0.16490626 0.37092453 0.2150035 0.056628406 -0.13067155 -0.001799609 0.35491505 0.024064621 0.2795364 -0.009882023 0.060313046 -0.011679453 -0.1986357 -0.7136672 0.588292 0.45040694 -0.0048166197 0.8058363 0.2714971 -0.2672063 -0.16028069 -0.027981594 -0.035321455 0.42187536 0.2711505 0.7189255 0.02729278 -0.2061541 -0.5962107 0.21157168 0.29714096 0.15495999 -0.5415253 0.2960731 0.7901814
& 0.22423954 -0.40387112 -0.74280626 0.5225063 -0.60665953 -0.58840376 -0.59722424 -0.90370375 -0.41576132 1.3839046 -0.20797947 0.10151498 -1.2965366 1.3641107 0.33727416 -0.33715963 0.25913182 -0.60837716 -0.5823686 -0.018864792 0.56848085 -0.20818363 0.504355 0.78848326 -0.27530256 0.32297003 1.2621479 -0.13483387 0.24075232 0.39012307 1.1322583 0.7379724 1.5655591 0.25271547 -0.5730696 -0.4562342 0.097246125 -0.50136024 -0.22792126 0.009074557 0.5794786 -0.68957716 0.053993072 0.17539097 -0.9193735 0.7747116 -1.2447283 -0.09943485 1.729258 -0.08103966
harus 0.0542169 0.0066570356 -0.4440742 0.37608728 -0.5488613 -0.5055146 0.18970557 -0.16366474 -0.15599264 0.10830583 -0.5434403 -0.29438445 -0.12751405 0.1199242 0.16330233 0.087806374 0.3892215 0.14101717 0.04304695 -0.11963115 0.015028119 0.3313297 0.04000874 0.28026986 -0.021672402 0.043986693 0.12802763 -0.19067438 -0.6122688 0.55034226 0.4034789 -0.013627394 0.835597 0.26768428 -0.32633722 -0.15275508 -0.041464686 -0.08190485 0.35247326 0.3438941 0.6770506 0.014352953 -0.19906007 -0.5360301 0.1823721 0.3446994 0.17393482 -0.54583746 0.31392404 0.69111633
dah 0.08915229 0.060053725 -0.44337645 0.37671354 -0.56129867 -0.47818708 0.171777 -0.13665894 -0.14319341 0.08815991 -0.45038193 -0.16386764 -0.15574086 0.054776 0.123215005 0.12857613 0.40579963 0.22288162 0.070960216 -0.083039545 0.026293749 0.33540195 0.04347003 0.19288424 0.10577355 -0.02312192 0.05783033 -0.1782617 -0.6535759 0.49286065 0.41980106 -0.0666103 0.74457973 0.29728296 -0.2611534 -0.20418537 -0.02783938 -0.089877374 0.43451667 0.38364202 0.6560087 0.026860856 -0.16230695 -0.5415511 0.21375066 0.36142814 0.17764503 -0.47150043 0.13264698 0.83686817
lain 0.0774377 0.034297243 -0.52650505 0.3890499 -0.5987334 -0.5309031 0.21250308 -0.10487982 -0.21356168 0.08809465 -0.52564174 -0.34516674 -0.065372296 0.1140426 0.1180264 0.03250888 0.447686 0.2744725 0.06172842 -0.1842742 0.024698488 0.30382407 0.0671601 0.20376945 -0.039616734 0.048552543 0.061537173 -0.1754265 -0.7265607 0.6740902 0.5439555 -0.048316542 0.8097766 0.2923442 -0.3265002 -0.29253614 -0.009276803 0.024716588 0.36326885 0.28271112 0.76742357 0.048150335 -0.19316448 -0.58242947 0.21160027 0.27632198 0.18814927 -0.60287917 0.36804193 0.70720154
wis -0.3543552 0.83109516 -0.26078093 -0.15223204 -0.28901836 -0.5057706 -0.32111305 0.18724942 -0.08868102 0.16906467 0.13570248 0.73715943 -0.61058456 0.14136165 -0.09203824 0.14241743 0.42770454 -0.06608926 0.6768428 0.18726104 0.6909822 0.4318195 0.005493002 -0.36003208 0.82323724 -0.53519005 0.48763424 -0.32846928 -0.02724563 -0.46827623 0.44404975 -0.079441495 0.5469297 0.5650033 -0.22269724 -0.39388475 0.28841284 -0.474125 0.99109656 1.006577 0.11576632 0.11811782 0.164703 -0.2993287 0.3048279 0.72837484 -0.20625405 0.044383645 -0.37677124 0.70037156
ki -0.3038265 1.0138011 -0.2728398 -0.1975202 -0.30865118 -0.5159652 -0.4369848 0.24136674 -0.09469371 0.14359652 0.14650734 0.9853022 -0.72478557 0.045965258 -0.09023334 0.061158177 0.45948294 -0.13405438 0.755693 0.2212112 0.8378145 0.4579353 -0.0057481765 -0.5607584 0.8608781 -0.63637495 0.5962414 -0.39328188 0.08521801 -0.5733407 0.37862322 -0.118014 0.47700405 0.68938875 -0.09519988 -0.27867848 0.24402826 -0.58097297 1.0922946 1.0462736 -0.08442073 0.043767747 0.3295997 -0.20797825 0.22879726 0.9192933 -0.40628466 0.119869806 -0.4897624 0.6612668
akun 0.054358874 0.09759221 -0.46979395 0.27888808 -0.5034886 -0.4995153 0.12601079 -0.039971422 -0.17103375 0.14992842 -0.38742673 -0.13223884 -0.14830267 0.060780305 0.052327733 -0.011502376 0.5244214 0.21207659 0.07769381 -0.16664027 0.08784844 0.2918502 0.0070209396 0.17430362 0.091890305 -0.0666216 0.14233252 -0.13398872 -0.67046714 0.5246562 0.4637057 -0.03789733 0.70547676 0.33049008 -0.32428506 -0.2612275 0.04762245 -0.12041492 0.37546396 0.37502423 0.63340235 0.011222009 -0.17732978 -0.5670085 0.26074055 0.33889213 0.12306987 -0.47922444 0.19256116 0.82574046
punya -0.08547917 0.2599545 -0.5502195 0.4831293 -0.35177654 -0.54102695 0.28712866 -0.07345125 -0.30057383 0.1313534 -0.6640711 -0.41117775 -0.12174922 -0.050887816 0.028786026 0.15299664 0.2853703 0.17274429 0.038385008 -0.13383687 0.17981488 0.24329314 0.07310496 0.35055643 0.007660202 0.12991025 0.050968483 -0.048663113 -0.4926899 0.6769991 0.4631161 0.0043964097 0.64633065 -0.006251817 -0.41020095 -0.21627712 0.032454334 -0.19791476 0.5226416 0.24435823 0.5370469 -0.1359062 -0.2270306 -0.2890495 0.22422016 0.5103469 -0.14957516 -0.632352 0.27731147 0.7101896
jg 0.05585554 0.07525626 -0.45566133 0.34826624 -0.47995296 -0.53891826 0.100017406 -0.18515347 -0.19033045 0.09184251 -0.47888187 -0.2492307 -0.18860029 0.14347087 0.1950782 0.15197626 0.42083192 0.13120286 0.062639266 -0.08456107 0.032277554 0.30577603 0.08360379 0.26142797 0.018465992 0.12845191 0.12292339 -0.18639247 -0.5734149 0.53760934 0.4605852 0.007818308 0.7908646 0.3312063 -0.24483515 -0.13668703 -0.06675869 -0.09574548 0.3251973 0.29117164 0.6294407 -0.05820042 -0.18806872 -0.48182857 0.13792765 0.34430483 0.07031691 -0.5369543 0.3504705 0.7028941
nonton 0.06637363 0.18560328 -0.44180176 0.39931396 -0.40038493 -0.5429033 0.12544098 -0.20425454 -0.2052504 0.03912225 -0.48362914 -0.17996538 -0.2668886 0.14013661 0.27487102 0.08615254 0.35914877 0.13437946 0.022567859 -0.048438773 0.014376359 0.21944968 0.042492256 0.14142814 0.037109755 0.018352479 0.11574 -0.26741025 -0.507363 0.473889 0.3666939 -0.028512584 0.7139153 0.2924746 -0.26766735 -0.11693106 -0.08400661 -0.116424 0.4032215 0.31763017 0.5420909 -0.016284987 -0.11169799 -0.39603746 0.15373999 0.45797417 0.083569705 -0.46715215 0.2668691 0.71257526
wkwk -0.034431607 0.30493882 -0.3308645 0.18435876 -0.371951 -0.46539247 0.060498692 -0.036509085 -0.16148363 0.08189472 -0.3156774 0.014582275 -0.29758796 0.09399994 0.12751134 0.0944627 0.36813188 0.062696695 0.2526575 -0.07055964 0.18428764 0.32726595 0.06120642 0.0014340773 0.22837025 -0.14653696 0.14886162 -0.2424046 -0.39899832 0.20033973 0.34304982 -0.06464971 0.64972144 0.39597258 -0.1997708 -0.12188679 0.038603067 -0.22572856 0.58824927 0.5009934 0.4596955 0.016239896 0.025278943 -0.36418253 0.220828 0.48327455 0.016271798 -0.30335933 0.03541702 0.66442114
lah -0.042476606 0.26940647 -0.3382945 0.22482006 -0.3684684 -0.4395244 0.1396387 -0.12817301 -0.13975185 0.037319973 -0.36816415 -0.032787304 -0.27746633 0.035417404 0.15545 0.13526992 0.30808792 0.03599813 0.20631708 -0.076564044 0.17054868 0.34147176 -0.011392909 0.09833612 0.1907241 -0.109116636 0.15840465 -0.26295194 -0.45925224 0.21219343 0.36259723 0.02337353 0.67140454 0.3529123 -0.24845862 -0.10745138 -0.016690841 -0.18073553 0.5338705 0.45623773 0.48323885 -0.03565024 -0.0037350082 -0.38735864 0.16864865 0.43566263 0.039934516 -0.33550936 0.02631569 0.73007965
suka -0.0020407387 0.12791663 -0.3522945 0.32955608 -0.42727798 -0.5401179 0.24941644 -0.1511461 -0.18705353 0.06581137 -0.53500265 -0.28895482 -0.18076272 0.0671476 0.20516782 0.14384359 0.4201014 0.11273215 0.028007098 -0.15992464 -0.020422671 0.32019964 0.024216088 0.19749662 -0.0321573 0.030448034 0.029367669 -0.24913979 -0.6299984 0.50686663 0.36428708 0.03566567 0.7175307 0.32967716 -0.26151395 -0.041914914 -0.12841511 -0.08585664 0.45556256 0.20910294 0.64092827 -0.042463485 -0.08045054 -0.4026686 0.19763732 0.35565343 0.116453744 -0.49656639 0.2426406 0.69559634
kalian 0.054685194 0.04871765 -0.32918167 0.44707656 -0.36037502 -0.48987633 0.18396538 -0.4108881 -0.27737048 0.16743922 -0.62731296 -0.30272108 -0.32389173 0.35861945 0.4476262 0.1441609 0.2042486 -0.058856186 -0.022404063 -0.06714024 0.07571075 0.22048074 0.057926003 0.22775088 -0.23076366 0.2745048 0.1248897 -0.198465 -0.30468035 0.56301534 0.3760491 0.28179255 0.8683491 0.26075178 -0.31343934 0.053981844 -0.17801452 -0.14389926 0.31558624 0.1768318 0.394377 -0.29015374 -0.1521636 -0.23754007 0.14735422 0.43738762 -0.005857683 -0.39455345 0.38314858 0.571006
mana 0.031100757 0.17673896 -0.50214905 0.31418353 -0.47977042 -0.4658708 0.19716358 -0.11186381 -0.15600115 0.124952696 -0.3591976 -0.06875783 -0.20510028 0.073229514 0.07369775 0.14460556 0.44040152 0.24619561 0.1434947 -0.036875017 0.07798986 0.29554373 0.0690265 0.16720526 0.13902381 -0.051446952 0.03141205 -0.13077179 -0.5813925 0.41448528 0.49175373 -0.015949445 0.5971285 0.3289181 -0.22283028 -0.22491595 0.05306936 -0.038871903 0.477628 0.39036378 0.5972065 0.032149855 -0.1742803 -0.53816026 0.17140658 0.40638903 0.20550597 -0.4796034 0.06876522 0.8242673
si 0.0026916212 0.21829817 -0.45775712 0.2893131 -0.54450643 -0.5063484 0.14720699 -0.078748584 -0.14510933 0.09553012 -0.4239624 -0.109613985 -0.15510273 0.04031217 0.09181568 0.047346722 0.38992578 0.14521068 0.13944963 -0.1441194 0.15405564 0.33594117 -0.002738831 0.16878922 0.14695354 -0.050711825 0.06372695 -0.19837493 -0.56532973 0.45443672 0.46102595 -0.00888986 0.70472616 0.2921789 -0.22097543 -0.18021338 0.062066257 -0.108897634 0.4263352 0.4367613 0.50647557 0.0017837288 -0.15637073 -0.47213927 0.22143756 0.3443324 0.09967822 -0.41743505 0.14420788 0.81693894
untuk 0.022565778 0.08259005 -0.5089168 0.33667323 -0.5487259 -0.51139873 0.26626983 -0.18009642 -0.19651017 0.14382936 -0.6420979 -0.35386422 -0.098989934 0.17757092 0.16587323 0.05608024 0.37256804 0.25315788 0.06519593 -0.08444184 0.07169227 0.2890394 0.0092399325 0.22249001 -0.0514269 0.08522642 -0.0059854835 -0.19746065 -0.57220805 0.64655566 0.509934 -7.072957e-05 0.7776718 0.16030742 -0.36956698 -0.18704371 -0.024183135 -0.05719021 0.5015253 0.36335218 0.60172504 0.0034276177 -0.21820326 -0.5428994 0.19176693 0.33283922 0.09663881 -0.5467964 0.34146783 0.6967841
biar 0.06221098 0.05639238 -0.48691583 0.34194332 -0.53156245 -0.54710996 0.19455229 -0.1090584 -0.15865812 0.038571097 -0.51987886 -0.26948982 -0.14259942 0.14276214 0.13534307 0.051169276 0.38229787 0.18632525 0.090714745 -0.10251537 0.021391017 0.34164572 0.05372564 0.25080946 -0.020703927 0.046829756 0.079818375 -0.13620429 -0.5582869 0.55392563 0.48844248 -0.009735519 0.7922631 0.30068362 -0.36877874 -0.27560785 0.00970302 -0.004647292 0.4207817 0.36325783 0.6698053 0.021590393 -0.17393704 -0.5264743 0.18154506 0.3688108 0.23554996 -0.55445325 0.19810489 0.76198435
saya 0.010368373 0.090784185 -0.36917856 0.28051853 -0.52734894 -0.46622193 0.1955478 -0.26091307 -0.16536865 0.06503291 -0.5243216 -0.10103447 -0.28872702 0.100770324 0.27338678 0.043010388 0.46205178 0.184222 0.04919198 -0.11683741 -0.027512832 0.34746417 -0.014800513 0.1379437 -0.07760238 0.055021677 0.000492628 -0.1475451 -0.5000698 0.4618129 0.42501575 -0.0063806144 0.73866004 0.3371814 -0.23849314 -0.13780758 -0.005846825 -0.06560348 0.40747795 0.32902086 0.543469 -0.016272606 -0.1448975 -0.5334105 0.22490306 0.3377272 0.17519133 -0.4885879 0.18281052 0.6668907
liat 0.051262796 0.18314752 -0.50496817 0.3864757 -0.51281565 -0.50200886 0.16799453 -0.09069973 -0.1751145 0.06600501 -0.41733113 -0.2182162 -0.11663641 0.013897943 0.09611519 0.059532516 0.39830965 0.20563522 0.12418577 -0.13110909 0.05671857 0.25844574 0.07461773 0.23771788 0.0358712 -0.030352378 0.052841574 -0.21212016 -0.6590629 0.5524201 0.4569606 -0.10087299 0.7165416 0.23515198 -0.29026803 -0.293772 -0.0013218165 -0.11945864 0.43949917 0.3762631 0.6462858 -0.027822085 -0.19281049 -0.52431715 0.2333649 0.333122 0.13898842 -0.5618772 0.20439361 0.80216366
ðŸ» -0.4744722 0.42399195 -0.44046265 0.5296434 -0.46697155 -0.53016424 -0.015412696 -1.8820856 -0.005259283 0.2531916 -0.3685259 0.8708455 -1.8124974 -0.038759775 1.5284125 0.1879271 0.33819792 0.14355537 -0.29704607 0.5802494 -0.086280614 0.30059636 -0.032488193 -0.81553835 -0.66923106 0.071049936 -0.026601965 0.7036915 0.71217895 0.4042185 0.6994216 0.84825134 0.6058007 0.9601499 -0.5437188 -0.07316958 -0.51002365 0.18650378 0.3437403 0.44780764 -0.46032014 -1.2187871 -0.4233861 -1.1393843 -0.18510954 1.1254028 0.46808442 -0.6501873 -0.17829603 0.24345589
please -0.23161508 0.24857639 -0.12510777 0.30005476 0.055830244 -0.5830572 -0.12998672 -0.43276402 -0.34969053 -0.073793985 -0.38964543 -0.19462176 -0.83629435 0.45396146 0.46919128 0.32702038 0.032505184 -0.4567977 -0.0129646165 0.14194083 0.12547071 0.22709987 0.011102421 -0.15363681 -0.09382565 0.27860114 0.24802369 -0.41902527 -0.20044835 0.0060362928 -0.13506098 0.31638026 0.81869346 0.40964952 -0.3985509 0.39472845 -0.5289852 -0.63562995 0.3735083 0.22347413 0.25806105 -0.3819143 0.24004719 0.025173357 0.071753204 0.9510902 -0.0698168 -0.1744845 0.0805254 0.47735298
ðŸ™ -0.14019436 0.11921228 -0.17678441 0.14840797 -0.44926655 -0.5273416 0.06696129 -0.706299 -0.09218066 0.09049917 -0.3404843 0.16485086 -0.84115195 0.105449475 0.6103646 0.21458252 0.16691339 0.065078795 0.030161364 0.18604538 0.043802615 0.15597513 -0.06780127 -0.2915959 -0.1395993 0.017754566 -0.038625557 0.028896017 -0.0030788467 0.13481511 0.27379885 0.3836955 0.6202131 0.502927 -0.3795281 0.034250543 -0.29995075 -0.10642359 0.40901947 0.2898799 0.21715854 -0.59237653 -0.18008378 -0.4482697 0.12805766 0.7246614 0.21567906 -0.40185875 0.11922472 0.4949636
so -0.23985279 0.790315 0.3451088 0.35767826 0.26336423 -0.7576306 0.24615784 -0.8506527 -0.5091527 -0.13142262 -0.9910381 -0.6741222 -1.3302166 0.45613965 0.99480355 0.55702907 0.14606963 -1.1863508 0.08524518 -0.21059136 0.0501093 0.1835257 -0.038713068 0.1982741 -0.26286605 0.7093837 0.3254229 -0.6322775 0.014289952 0.004376194 -0.51408786 0.667815 1.4766773 0.7217741 -0.056778 1.133983 -0.6187129 -0.7779154 0.67976147 -0.027034054 0.30068314 -0.73779017 0.37214926 0.39439794 0.035724297 1.0921402 -0.5914036 -0.11428382 0.50594145 0.5002836
jam 0.039443925 0.14068718 -0.51897264 0.24267468 -0.5835457 -0.4714545 0.00031239382 -0.12292231 -0.14405468 0.02849218 -0.44379398 0.05371491 -0.15342255 0.15704677 -0.017065845 0.017647626 0.51251626 0.2761287 0.23331049 0.038976546 0.16162588 0.34705606 0.06138368 0.09719914 0.18222095 -0.12605777 0.00039996722 -0.15888543 -0.51333135 0.35201466 0.4517478 -0.15612409 0.8655746 0.3019097 -0.16488183 -0.48240322 0.15620433 -0.10046663 0.4520809 0.56304073 0.5631156 0.3054419 -0.10360773 -0.5517116 0.14340663 0.44897366 0.13499527 -0.33235145 -0.029633049 0.7290992
bagus -0.028083054 0.119406514 -0.54404473 0.40741706 -0.547188 -0.6138671 0.10743168 -0.12326698 -0.25372994 0.08089199 -0.48559785 -0.29372683 -0.09877528 0.029202245 0.18520793 0.16498454 0.4154075 0.12100229 0.1019019 -0.1416895 0.020213304 0.39903104 0.023703165 0.3658797 -0.041433413 0.14398205 0.072543725 -0.08199297 -0.63793236 0.545138 0.4398711 0.019945791 0.7076032 0.13711877 -0.29001826 -0.09356899 -0.10213034 -0.14456688 0.39938203 0.22858243 0.6152276 0.04754089 -0.17841987 -0.58315974 0.22479095 0.32241705 0.057434812 -0.6108324 0.2520413 0.7433265
opo -0.36512458 1.0685124 -0.23545077 -0.19203731 -0.25512195 -0.5474107 -0.52214056 0.22010216 -0.10456812 0.18634553 0.20186771 0.9727012 -0.7681126 0.07813194 -0.07543008 0.07799522 0.53873414 -0.11257466 0.75214887 0.18851198 0.8332942 0.49749392 -0.03130318 -0.6100504 0.895127 -0.67037624 0.58601177 -0.4439516 0.12522915 -0.6228052 0.34138325 -0.057450738 0.46056786 0.7648763 -0.08180143 -0.34587243 0.26167092 -0.57889783 1.1503161 1.083825 -0.08321704 0.002509541 0.41460708 -0.20182502 0.2569594 0.9538508 -0.3587371 0.19147536 -0.45933855 0.7348456
is -0.025204973 0.60126835 0.15923685 0.392665 0.35705414 -0.68900555 0.34691122 -0.75974953 -0.56426996 0.04865127 -0.88199455 -0.77620625 -1.0162847 0.37296015 0.87027925 0.58127075 0.1335372 -0.8173436 -0.049357258 -0.2485763 0.10649191 0.34311917 -0.06552623 0.15178762 -0.32746056 0.66871595 0.2968093 -0.57424706 -0.076008126 0.18545112 -0.22467773 0.44800204 1.289082 0.50874966 -0.095998794 1.0528611 -0.5266282 -0.6039175 0.63579667 -0.12072832 0.46822837 -0.59738666 0.19340706 0.47828454 -0.0035655855 1.1151364 -0.55703217 -0.29799575 0.5454922 0.2247555
belum 0.08940055 0.07827754 -0.4222015 0.4021299 -0.5890998 -0.42472416 0.16311477 -0.1475574 -0.19887759 -0.0047523947 -0.5761014 -0.10445767 -0.21114825 0.13507809 0.2213918 0.083729856 0.44736627 0.17328317 0.10820182 -0.046098255 -0.022770278 0.2715219 -0.046011087 0.22459368 -0.015200038 -0.04604899 0.035321243 -0.1594431 -0.52418333 0.52388364 0.43034256 -0.05296497 0.7569608 0.29255837 -0.29621595 -0.14509407 -0.013248271 -0.056927916 0.4205928 0.41490892 0.555449 0.02899026 -0.23830172 -0.5369803 0.17443311 0.30441502 0.13964984 -0.57553077 0.26857173 0.81451225
kayak 0.0055558244 0.1524099 -0.34500644 0.3317789 -0.3791641 -0.50903964 0.23702298 -0.12887488 -0.19661571 0.06032334 -0.5074169 -0.32701904 -0.17900993 0.07046359 0.22737758 0.10165804 0.3569594 0.060187776 0.060400397 -0.17740658 0.030142944 0.34426904 -0.0065401956 0.24061507 -0.043584093 0.03317056 0.09395664 -0.24422175 -0.62034506 0.46242616 0.38871947 0.005950439 0.7150028 0.2949491 -0.28825942 -0.045329574 -0.06299297 -0.08779187 0.42311564 0.2678663 0.6156333 -0.070085414 -0.11094436 -0.38510263 0.19583584 0.35118726 0.109109 -0.47751918 0.2388478 0.75590515
gini 0.04676614 0.07632967 -0.4430979 0.28678215 -0.5194671 -0.4744571 0.16776673 -0.12186866 -0.1607276 0.058317795 -0.5270265 -0.22683772 -0.10429031 0.033331845 0.14045338 0.10227426 0.45403677 0.24236852 0.061897464 -0.15838116 0.059667215 0.32529494 0.023836 0.21465848 0.036009576 0.010852677 -0.0006156347 -0.17131661 -0.6361978 0.5091496 0.46534234 -0.076471865 0.6745306 0.32105944 -0.28861672 -0.1813113 -0.05049437 -0.10778895 0.4336897 0.4159288 0.6386659 0.013594614 -0.12555175 -0.5531051 0.2440256 0.31145948 0.13466029 -0.5145899 0.24083607 0.7676318
soalnya 0.06247134 0.091947846 -0.44976768 0.3403679 -0.5448298 -0.49484083 0.17660712 -0.17640702 -0.16344655 0.035910953 -0.51585895 -0.21228056 -0.14575139 0.0456945 0.18006413 0.14033893 0.38092273 0.16017307 0.016071234 -0.15417024 -0.0066291676 0.35435516 -0.0070595406 0.21577431 0.006667866 0.018767979 -0.00035503347 -0.14587152 -0.638919 0.5202951 0.40981033 -0.032064404 0.67624456 0.25555503 -0.28180614 -0.19920865 -0.010442328 -0.10232186 0.40430906 0.33312717 0.6110188 0.01642178 -0.13042352 -0.52979857 0.21466282 0.41557142 0.16535749 -0.505561 0.17957966 0.7821271
beli 0.053904597 0.14529435 -0.47272202 0.33373535 -0.60715306 -0.5043489 0.15494484 -0.18168859 -0.14816985 0.09698836 -0.40751213 -0.07292928 -0.13197358 0.03171034 0.1715228 0.08523807 0.44346318 0.26562375 0.17607541 -0.049894404 0.07752221 0.3096219 -0.049977995 0.19855864 0.16421331 -0.091420196 0.051250454 -0.098760456 -0.50854504 0.38371772 0.5073004 -0.04295964 0.6754976 0.287277 -0.25912473 -0.2815398 0.09797995 -0.0665436 0.47702318 0.40669265 0.61422974 0.06432705 -0.10222962 -0.5575907 0.15084668 0.36920866 0.23401417 -0.5145405 0.07786242 0.8118501
ono -0.25819254 0.95676446 -0.27591804 -0.10728183 -0.2728349 -0.4699488 -0.4644841 0.23707768 -0.13018133 0.320837 0.20208031 1.013531 -0.7896363 0.020308582 -0.03502969 0.008189143 0.5125988 0.0051063322 0.8199283 0.16277136 0.74329686 0.5320214 -0.062264357 -0.44565386 0.95290756 -0.68651325 0.592841 -0.3628552 0.022224933 -0.5170484 0.35050562 -0.15546663 0.57431614 0.5753728 -0.06926446 -0.40360972 0.23832458 -0.5919774 1.180407 0.96921474 0.05869733 0.052307546 0.33798435 -0.18622892 0.25458962 0.8571408 -0.3904018 0.20283937 -0.4511193 0.72523373
ku 0.028195921 0.36543772 -0.44286922 0.2251104 -0.4079135 -0.45147452 0.03357501 -0.026901329 -0.11965295 0.008912201 -0.3380747 0.15885964 -0.33561113 0.017005617 0.13330816 0.07825122 0.4237703 0.08172304 0.18938313 -0.07956013 0.21865079 0.2967205 0.015226134 0.048015453 0.31580782 -0.20865567 0.20700613 -0.25424263 -0.465175 0.21281163 0.37540102 0.008729074 0.6382362 0.3112452 -0.21037337 -0.18821451 -0.0067215073 -0.17261095 0.5323553 0.4751975 0.4142268 -0.0032045061 -0.08559294 -0.38806427 0.21916166 0.4626727 0.116860524 -0.30095965 0.03876159 0.6781048
2 0.032052293 0.17687935 -0.42174453 0.27874804 -0.4771945 -0.45963725 0.055485032 -0.055717386 -0.14387727 0.0977328 -0.3733679 -0.018193653 -0.30821055 0.09279628 0.1337312 0.09494344 0.4232096 0.15189463 0.16550398 -0.077750035 0.1693257 0.32954133 0.052531842 0.055412594 0.1225645 -0.03038004 0.16635391 -0.13908139 -0.495614 0.33687228 0.45359212 -0.12720312 0.7498759 0.32852927 -0.28569725 -0.24646609 0.032288138 -0.13107339 0.46267146 0.38900694 0.45074362 0.09431448 -0.10840297 -0.44669876 0.19887437 0.47102377 0.14785257 -0.40717435 0.16476747 0.6273898
sendiri 0.021946363 0.13311276 -0.50195557 0.41655463 -0.55168504 -0.5614506 0.29362273 -0.04498796 -0.10291782 0.08742897 -0.52449375 -0.2782429 -0.09587172 0.10767304 0.10929413 0.11498538 0.39331102 0.19812451 0.1056819 -0.15598418 -0.03245461 0.28128347 -0.010999605 0.28246033 0.0066023283 0.03600608 -0.019634342 -0.24092028 -0.6904459 0.59393877 0.4859898 -0.027015446 0.7829478 0.24145643 -0.2802996 -0.13830224 -0.026060808 -0.044321056 0.41303766 0.3086519 0.6843286 -0.014356529 -0.1834096 -0.5855192 0.26692596 0.2668388 0.25040713 -0.5992422 0.27349624 0.7870176
konco -0.36691898 0.920397 -0.26144338 -0.19719885 -0.29914504 -0.456824 -0.36392352 0.15811087 -0.08031009 0.10361709 0.106539406 0.9217388 -0.7179237 0.04364645 -0.04149697 0.05985938 0.54256445 -0.1571425 0.77149916 0.17581293 0.714999 0.3891734 0.049629014 -0.46669137 0.8426994 -0.6803017 0.51197535 -0.45609373 0.04561546 -0.4652638 0.2796566 -0.02112725 0.5257731 0.6120268 -0.13033149 -0.2652167 0.2614348 -0.56843925 1.0169795 0.9244817 -0.058639523 -0.005455226 0.35733083 -0.26197186 0.23376265 0.89388186 -0.3000495 0.13577268 -0.32503042 0.68110234
deh -0.013148764 0.1736915 -0.53285384 0.3942904 -0.4742022 -0.50824255 0.24100511 -0.09655558 -0.20401141 0.086174265 -0.49194232 -0.2677959 -0.085408926 0.022672737 0.04089144 0.113205835 0.40638196 0.2548443 0.06516176 -0.14900392 0.07509977 0.2884679 0.031440195 0.26023087 0.07733751 -0.0013561514 0.004933805 -0.16924378 -0.66618776 0.5963557 0.47555816 -0.023648819 0.6758264 0.23601925 -0.31775758 -0.18178724 0.017769495 -0.11019982 0.40469334 0.35332742 0.6270646 0.00362774 -0.22701266 -0.46593997 0.2326812 0.4082411 0.11660424 -0.5815025 0.24381778 0.74208975
susah -0.02864606 0.20103912 -0.26880655 0.31914502 -0.2675001 -0.56657034 0.27317637 -0.19023375 -0.29635048 0.09881695 -0.57430685 -0.520293 -0.30106667 0.10739794 0.37580648 0.31436965 0.2676514 -0.054442003 -0.006871953 -0.2155931 -0.025119878 0.39261767 0.0432147 0.3409566 -0.16158575 0.27400175 0.13639209 -0.32897425 -0.51888853 0.52185875 0.22765104 0.10883332 0.82320404 0.27404428 -0.23931123 0.29855922 -0.16835232 -0.16095355 0.3914167 0.07974598 0.6519222 -0.15532468 -0.060071792 -0.2757715 0.114592075 0.475156 -0.1359738 -0.5384978 0.3629969 0.52269626
Tapi -0.003165299 0.21340038 -0.39378318 0.27235374 -0.46416223 -0.4799839 0.11269165 -0.073069654 -0.15452643 0.0860338 -0.3924106 -0.05184192 -0.2576014 0.073333755 0.1591123 0.12680028 0.42667437 0.09304908 0.10630581 -0.09017335 0.09334305 0.37763387 -0.00712386 0.19582956 0.114105545 -0.0396617 0.12431717 -0.20351522 -0.5140039 0.30638716 0.4000569 -0.07318494 0.6535968 0.33471304 -0.30109912 -0.12323604 0.030771064 -0.18005317 0.4564118 0.36981824 0.5356924 0.031067094 -0.07401586 -0.4490241 0.24069133 0.36161688 0.12735203 -0.4418717 0.13411933 0.7502967
bikin -0.017153274 0.211512 -0.47853565 0.3948734 -0.3650368 -0.5194886 0.19995283 -0.15393336 -0.17932048 0.10318592 -0.5709039 -0.29583377 -0.16806765 -0.006256329 0.08613796 0.11455724 0.31710166 0.14142041 0.028017992 -0.124819726 0.12923008 0.34172413 0.07540531 0.29374498 -0.015724087 0.09092131 0.015044915 -0.12641616 -0.58800507 0.56378365 0.388225 0.007498053 0.7433099 0.14739984 -0.38784254 -0.12491979 -0.022654144 -0.16996014 0.41775802 0.31292346 0.58054596 -0.03729083 -0.19260782 -0.41829127 0.21709871 0.40653688 0.065599486 -0.6101221 0.24793419 0.72448164
yaa -0.045849912 0.18596281 -0.21392477 0.27533215 -0.1797694 -0.4791407 0.156239 -0.3977983 -0.25696114 0.08260384 -0.5418732 -0.20412815 -0.55715317 0.32783997 0.3725093 0.17962876 0.2126133 -0.23906752 0.07745478 -0.001297523 0.06973689 0.16628283 -0.033055983 0.17360659 -0.078011125 0.20007108 0.2343116 -0.32037836 -0.19581865 0.26447603 0.20230588 0.2677828 0.847728 0.36132053 -0.2711552 0.162124 -0.19819915 -0.21172589 0.40334588 0.26558 0.31893423 -0.31326866 0.0017857641 -0.18045259 0.07625127 0.5816951 -0.11812385 -0.25732818 0.27750772 0.4922608
dicopy -0.2761484 0.5828917 -0.35404035 0.053404137 -0.32959908 -0.5386957 -0.1729786 0.09143817 -0.06524024 0.10101242 -0.05978799 0.39967477 -0.30208176 0.08012941 0.020228425 0.04670544 0.37993246 -0.018992923 0.4100073 0.013024649 0.45494652 0.31188166 -0.0411271 -0.19912337 0.5355908 -0.30725855 0.3968538 -0.19634964 -0.2255547 -0.11810673 0.3821888 -0.17089981 0.4828927 0.5385117 -0.1712741 -0.2843139 0.17169923 -0.3560726 0.74196136 0.6628134 0.2449047 0.035681374 0.04905676 -0.46435812 0.2477182 0.5344335 0.0021809062 -0.21906993 -0.29823565 0.80530053
ternyata 0.0036555622 0.18665403 -0.4667367 0.3132843 -0.47944376 -0.47985166 0.15545405 -0.037640594 -0.1882393 0.07685538 -0.4134913 -0.13607936 -0.21892484 0.055227906 0.093251504 0.11603719 0.37325022 0.1062977 0.13341628 -0.08268763 0.14185807 0.30137047 0.049753383 0.20555052 0.1086963 -0.052649125 0.13317169 -0.2656932 -0.581778 0.4638367 0.42339972 -0.0025470424 0.71267873 0.2700172 -0.25070742 -0.15834484 -0.0036349506 -0.14031802 0.46355414 0.35530996 0.55260366 -0.0035117501 -0.09251445 -0.46885628 0.16445205 0.34384757 0.1382047 -0.45400468 0.13603576 0.7838434
kek -0.024593491 0.2204954 -0.42839873 0.26183605 -0.5061135 -0.49886686 0.10366351 -0.04475725 -0.12535879 0.09421201 -0.4045761 -0.10122409 -0.20629576 0.08235413 0.11311532 0.13877155 0.41598162 0.2114716 0.14703546 -0.11612838 0.09486434 0.30489168 0.03264987 0.18620026 0.10303889 -0.071585014 0.10393443 -0.20139751 -0.58848274 0.41152623 0.47571373 -0.07332884 0.648065 0.32954332 -0.2573031 -0.28046992 0.022388201 -0.12299323 0.47651142 0.3785465 0.5837313 0.053024523 -0.11733772 -0.57270294 0.19381906 0.36730933 0.0668099 -0.45094675 0.17529787 0.7927582
lg -0.018841296 0.16733979 -0.4712513 0.27531114 -0.48803264 -0.49253905 0.1446727 -0.10932531 -0.12368119 0.057635732 -0.42187858 -0.09203599 -0.19389635 0.03772352 0.10564428 0.07079363 0.40252525 0.20852177 0.16426773 -0.012920332 0.10462066 0.24698395 -0.051498845 0.1329195 0.09192115 -0.047230642 0.1096016 -0.18713182 -0.5685022 0.4302514 0.42910197 -0.05525479 0.7440474 0.34273443 -0.31925586 -0.25005 0.017210348 -0.11041532 0.4391398 0.40505803 0.5354666 0.02289864 -0.13912226 -0.52872473 0.17515081 0.4047131 0.15620397 -0.40399328 0.1287236 0.82955545
padahal 0.04820863 0.23369424 -0.49080613 0.32335195 -0.5415765 -0.5237543 0.12555338 -0.030255524 -0.1251623 0.056846797 -0.36688688 -0.08337702 -0.171839 0.047227133 0.082795136 0.10565614 0.4520655 0.20168002 0.09254882 -0.113836855 0.052530847 0.3517235 0.005875144 0.16671003 0.10652184 -0.08822824 0.08428408 -0.19195804 -0.57744735 0.47177994 0.46329665 -0.105837226 0.6986831 0.3129321 -0.2718547 -0.27663717 0.06529735 -0.12185505 0.454883 0.39304328 0.5741619 0.056731846 -0.10832634 -0.5545513 0.20814048 0.36303464 0.08037068 -0.4401041 0.10060301 0.7908992
lu -0.04360084 0.14314818 -0.3817424 0.3569265 -0.39234716 -0.51006365 0.24846038 -0.10105181 -0.20135947 0.04696509 -0.4724081 -0.4598312 -0.12438647 0.10258285 0.18480125 0.18328875 0.36395988 0.087212645 0.052332114 -0.12814888 -0.012369432 0.33569214 -0.006846982 0.22778547 -0.054104213 0.15317275 0.0030181247 -0.23755899 -0.74311346 0.57505083 0.35612318 0.03336147 0.7868835 0.3052814 -0.2527203 -0.024144102 -0.14795111 -0.03144035 0.42387444 0.23733716 0.7316774 -0.031144626 -0.13771881 -0.4801267 0.20677818 0.29343364 0.0959291 -0.51323336 0.21687172 0.7525818
nanti 0.071758926 0.1318157 -0.4359973 0.24320312 -0.43500572 -0.51399386 0.17642438 -0.12528852 -0.097823955 0.027683629 -0.4302067 -0.19389275 -0.2094523 0.13901523 0.07961969 0.12689663 0.3935196 0.15623902 0.07775302 -0.07187696 0.035842244 0.24064665 -0.0057634525 0.17287238 0.006141086 0.02295653 0.105801255 -0.28704077 -0.5448881 0.464677 0.42165732 -0.05335605 0.7673775 0.31722993 -0.22095118 -0.14958179 0.0062506334 -0.10939617 0.49364948 0.37965894 0.60045224 0.015760742 -0.18586177 -0.5035051 0.25179592 0.33890963 0.24325658 -0.45555678 0.19933584 0.7784102
dong -0.019643039 0.18757576 -0.37268654 0.2974954 -0.42832005 -0.4812727 0.026638845 -0.18434264 -0.15611625 0.07531462 -0.29012343 -0.055947922 -0.31214488 0.17910782 0.19470406 0.09429126 0.38538077 0.08801001 0.12758133 -0.06862916 0.1809223 0.2817818 0.05928474 0.0656568 0.11408626 -0.054987583 0.10986581 -0.25984007 -0.4185373 0.3047815 0.38750947 0.04226667 0.6393182 0.37158152 -0.2816993 -0.18598352 0.038880672 -0.17327683 0.5173243 0.45806125 0.50175864 0.0017787943 -0.04561484 -0.40015152 0.2272108 0.45634097 0.10688366 -0.38116837 0.1326555 0.666708
jangan 0.008264907 0.111671716 -0.38042933 0.34066 -0.35072154 -0.48861322 0.2249065 -0.28814548 -0.15901126 0.033715602 -0.5452433 -0.24985333 -0.2040242 0.20033741 0.19558631 0.16098362 0.2546242 0.025771301 0.07131957 -0.017391207 -0.010559807 0.2621063 0.07082753 0.14215115 -0.07657942 0.08506844 0.06793476 -0.30259153 -0.43520695 0.4197752 0.25676838 0.10671701 0.8087273 0.2875925 -0.35979596 0.025739541 -0.15344709 -0.16784453 0.44516656 0.29820532 0.55515563 -0.14935799 -0.119055435 -0.42346486 0.15393165 0.4227987 0.10013918 -0.4247254 0.1758444 0.67588186
kak 0.0004127816 0.19886194 -0.28132695 0.29443282 -0.33547336 -0.47794172 0.16206783 -0.2969591 -0.22028233 0.12572205 -0.41878873 -0.013448248 -0.41461703 0.22687213 0.28240976 0.10269628 0.31676185 -0.025506686 0.048854213 0.01517467 0.14400314 0.20026737 -0.08424162 0.13244548 0.041920144 0.05954243 0.13327728 -0.25844 -0.23216236 0.31950027 0.3084867 0.10865483 0.7682229 0.3714486 -0.31531873 -0.086624175 -0.07338212 -0.22793962 0.45183134 0.28937316 0.4027528 -0.14789684 -0.07709584 -0.3933276 0.114475064 0.43747225 0.050591372 -0.38450676 0.19561106 0.66471833
langsung 0.049220692 0.14869548 -0.4546518 0.25769138 -0.475994 -0.45459485 0.022215625 -0.113518536 -0.115890846 0.10329816 -0.43128473 -0.13467573 -0.19455892 0.11603582 0.11988721 -0.009521804 0.43095517 0.16480453 0.1709046 -0.03473868 0.08870752 0.2823614 0.076417275 0.100852974 0.08237215 -0.0914752 0.1760036 -0.13092557 -0.561218 0.43630403 0.452409 -0.07239027 0.7523817 0.386635 -0.25791392 -0.33555153 0.08691516 -0.12737468 0.46838427 0.4785277 0.5124396 0.061006855 -0.12034087 -0.5204316 0.14775743 0.38928306 0.1755824 -0.35829213 0.12098204 0.72781694
dengan -0.025981648 0.23002025 -0.5181286 0.3353968 -0.4290239 -0.5224793 0.1707463 -0.16842489 -0.19263321 0.13205966 -0.5270907 -0.20255798 -0.1672143 0.037626132 0.081363946 0.027379375 0.3254233 0.19881587 0.094956376 -0.0035737818 0.18888986 0.25639525 0.049234588 0.15963116 0.015375884 0.030721253 0.071151376 -0.09814032 -0.4708955 0.49080512 0.49307978 0.00029416976 0.69327915 0.1575819 -0.39968976 -0.22433303 0.020445231 -0.19884919 0.5557674 0.37421113 0.4656504 -0.045654677 -0.17029357 -0.3678484 0.21682239 0.45503932 -0.050779853 -0.54710287 0.23841359 0.7049842
jd -0.024596026 0.17829168 -0.52009046 0.37632117 -0.5313521 -0.54613817 0.2391018 -0.19213003 -0.1433813 0.18388028 -0.4498099 -0.15671264 -0.107268445 0.06276373 0.14501634 0.030779874 0.39162523 0.16674691 0.14721383 -0.1417167 0.13184288 0.30417052 0.02366489 0.30343208 0.061624587 0.0721561 0.06720608 -0.15011007 -0.5386892 0.5045895 0.44799522 -0.02050424 0.6835651 0.23139952 -0.29679227 -0.23231679 0.016864795 -0.15999562 0.44528705 0.38777453 0.5339077 -0.0150370095 -0.17229283 -0.4362237 0.14229545 0.42764378 0.042790174 -0.52756 0.29594737 0.79452455
lo -0.01781469 0.25162336 -0.32612234 0.25717828 -0.42333078 -0.46998152 0.15684727 -0.053210936 -0.1374552 0.09015586 -0.42420533 -0.12122466 -0.26909775 0.060819652 0.06897916 0.10720359 0.38227972 0.09246536 0.11316796 -0.120266065 0.07835624 0.37041044 0.07520058 0.13555084 0.08537283 -0.04997488 0.09604744 -0.23744094 -0.5624864 0.39855874 0.40325263 0.049015913 0.7824922 0.35744485 -0.16027874 -0.15017664 -0.01970355 -0.15745036 0.49306193 0.39565504 0.56344867 -0.007140018 -0.04182814 -0.41264203 0.1789501 0.43653917 0.04631144 -0.37282357 0.12952605 0.6577131
of -0.0890701 0.8159709 0.3564321 0.291001 0.4272917 -0.7558846 0.31045455 -0.8779752 -0.56783855 -0.1292126 -1.108228 -0.70527756 -1.3042679 0.5110069 1.0028653 0.5808917 0.1349231 -1.1151026 0.11288824 -0.19999312 0.19426373 0.26193857 -0.08873188 0.15181702 -0.3188289 0.6196597 0.37384072 -0.7467336 0.04600005 -0.00064122985 -0.52465546 0.59318113 1.502452 0.6869502 -0.051010385 1.1815267 -0.64581007 -0.7663853 0.69102985 -0.056773607 0.36708906 -0.72568834 0.33807656 0.47414154 0.074261926 1.2355992 -0.62546116 -0.16820155 0.53692925 0.34094054
bilang 0.02886157 0.14708643 -0.40700582 0.31302455 -0.43457386 -0.50353384 0.20410396 -0.15407212 -0.19568194 0.100774676 -0.51712906 -0.20675859 -0.18698058 0.099780105 0.15298738 0.12304518 0.33644342 0.12830809 0.09771151 -0.10382977 0.049748044 0.32073364 0.040969875 0.1302391 0.0050637717 0.043763198 0.08263808 -0.25578797 -0.5053328 0.5013904 0.38919264 0.024892455 0.7381867 0.27182263 -0.21048653 -0.13932616 -0.046345547 -0.055055004 0.44777077 0.33856443 0.5511139 -0.03912415 -0.14325818 -0.42660844 0.16689263 0.32571688 0.08704951 -0.45195666 0.25490105 0.711062
wong -0.31956887 0.99737763 -0.29669407 -0.2617825 -0.2561369 -0.4982444 -0.45926148 0.24556765 -0.053605087 0.18799749 0.16197018 0.9329013 -0.7428693 0.060870096 -0.104626104 0.013152435 0.5225986 -0.118750215 0.73853725 0.20334387 0.8197673 0.49600983 -0.0034485 -0.5722734 0.9198554 -0.7320972 0.60496545 -0.39793348 0.009382221 -0.60397905 0.39960736 -0.09691852 0.5011576 0.66387516 -0.13101372 -0.41512814 0.22328968 -0.5509917 1.1470852 0.990885 -0.09068788 0.11156859 0.3878475 -0.22108969 0.19050671 0.86931276 -0.37559298 0.1677467 -0.41354692 0.6811058
3 0.119182795 0.02583321 -0.3716153 0.24558587 -0.49798384 -0.42337444 -0.26549727 -0.3471668 -0.23913006 0.31472507 -0.36338982 0.029054252 -0.6139333 0.44968843 0.23104389 -0.038556013 0.35594368 -0.13093653 0.018660834 -0.035091333 0.26734617 0.280457 0.14639601 0.09153717 -0.024523953 0.05368166 0.3967797 -0.046589904 -0.16734423 0.24229164 0.49054047 0.09619128 1.0072329 0.3466084 -0.26534033 -0.35214663 0.11521185 -0.23299724 0.27406827 0.32622424 0.42963013 -0.07207919 -0.045896444 -0.33117774 -0.15472545 0.57924086 -0.22813228 -0.12892354 0.4449756 0.30732638
amp 0.33219826 -0.43171102 -0.62435186 0.46170422 -0.5478907 -0.6431314 -0.7028015 -0.8331299 -0.5635333 1.2998284 -0.29541454 -0.10169937 -0.9579421 1.3935856 0.46666306 -0.3681285 0.3171666 -0.49327692 -0.40642443 -0.08896251 0.47071683 -0.2525399 0.4960584 0.84889245 -0.4003401 0.43692762 1.1550859 -0.01465628 0.14074577 0.38838622 1.0441068 0.5126543 1.3591615 0.14010529 -0.45328686 -0.72192836 0.17972855 -0.5770312 -0.16611826 0.17896678 0.50365263 -0.7498857 -0.11558278 -0.121495105 -0.69690233 0.48825923 -1.1714163 -0.29563868 1.6256956 -0.08166079
pasti 0.0679309 0.16219595 -0.36213773 0.42828262 -0.41567174 -0.5811362 0.28228316 -0.3487132 -0.15734926 0.106660664 -0.6048753 -0.34855813 -0.2314472 0.19085945 0.25370285 0.21894416 0.31534994 0.04515391 -0.02917739 -0.018863969 0.0062200376 0.25796652 0.03005015 0.19770016 -0.17454703 0.22277685 0.035546403 -0.1561782 -0.426312 0.55044633 0.30422345 0.09505525 0.8214972 0.24379948 -0.23065062 -0.024185427 -0.16287234 -0.02966335 0.41800836 0.18827868 0.5286516 -0.17684539 -0.12831594 -0.45692423 0.16914394 0.38375446 0.073172286 -0.5346301 0.31126767 0.6587379
satu 0.09635698 0.11226168 -0.5112549 0.31502545 -0.48926735 -0.5099421 0.15992838 -0.06592972 -0.1533142 0.15175812 -0.46011382 -0.11043703 -0.15852344 0.03432664 0.020351749 0.036473982 0.39618835 0.30686292 0.2098712 -0.12990814 0.10218751 0.29947928 0.059248146 0.20357545 0.029247468 -0.057229225 0.1255199 -0.08958209 -0.61132103 0.52190775 0.5048338 -0.08700623 0.8001403 0.23423147 -0.27824962 -0.33786738 0.03439469 -0.19689535 0.46170887 0.37890396 0.64611036 0.14240462 -0.1098523 -0.5917954 0.19985707 0.31519133 0.07312129 -0.49882022 0.21449934 0.7173887
:( -0.09515728 0.33801752 -0.31273785 0.16501841 -0.3003408 -0.46802303 0.025134696 -0.054808866 -0.10079365 0.038499173 -0.27378762 0.070784725 -0.34346217 0.050992936 0.1540675 0.14019682 0.4292592 0.026252868 0.22119509 -0.06243501 0.1683118 0.2923572 0.02365246 0.020736257 0.2076055 -0.114447765 0.16115785 -0.25565752 -0.36618224 0.2333323 0.35049576 0.025090218 0.6209812 0.3985002 -0.18892832 -0.09308773 0.037642453 -0.26001477 0.5452824 0.43441767 0.3987143 -0.019617898 -0.018186212 -0.34004998 0.208988 0.48934165 -0.0006792176 -0.31177837 0.055519775 0.69607615
pengen -0.09637686 0.39208385 -0.4119849 0.2199611 -0.37951955 -0.5005366 0.033203546 -0.1150526 -0.11969618 0.11736137 -0.37217158 0.042256482 -0.33162263 -0.017128985 0.078999616 0.07451139 0.36033213 0.11064205 0.19524743 -0.0072996444 0.25821492 0.34469745 0.044001676 -0.04669769 0.13124125 -0.09283597 0.116375685 -0.123259135 -0.31857377 0.28748593 0.42064047 0.02873213 0.59389925 0.26176444 -0.27525666 -0.2570764 0.06956627 -0.22385526 0.61145586 0.41896123 0.3458962 -0.098862365 -0.055152874 -0.36379325 0.22289163 0.57956505 -0.0017791663 -0.3430603 0.0277976 0.6123535
trus -0.016077789 0.19595985 -0.41284037 0.17816794 -0.45148668 -0.47920778 0.08761706 -0.072081126 -0.11487165 0.094913855 -0.28904375 0.0036892171 -0.2166766 0.05935821 0.0979096 0.07561776 0.4229839 0.112042 0.28590903 -0.024965843 0.17666507 0.24854776 0.016987938 0.08408715 0.19182563 -0.14044195 0.20217443 -0.2654287 -0.5179119 0.22384891 0.40033218 -0.024184752 0.66290027 0.44945997 -0.16229098 -0.30374736 0.11761262 -0.16815864 0.55560905 0.5359317 0.49756163 0.005179441 0.0009962965 -0.46591938 0.22342514 0.43180868 0.02140053 -0.3260591 0.022321338 0.7442162
it -0.16005482 0.62121093 0.21429673 0.28069705 0.3554412 -0.6179667 0.29353404 -0.65064216 -0.45356795 -0.02654725 -0.97655994 -0.7613417 -1.0740124 0.36539596 0.8733092 0.53621686 0.16811025 -0.89016914 -0.02076622 -0.20176359 0.101968415 0.21236724 -0.043589007 0.080195725 -0.34023875 0.6894242 0.29291204 -0.57050496 -0.09668747 0.20269892 -0.3353804 0.55410373 1.2485936 0.579237 -0.16810423 0.9368272 -0.5851237 -0.64974624 0.70163566 -0.069859385 0.40331843 -0.6437427 0.3348647 0.4560125 0.059240285 0.9995018 -0.47777632 -0.2974759 0.5116574 0.34734535
