3321 50
, -0.2334496 0.2782436 -0.42031386 0.37165985 -0.29347995 -0.3812415 0.18433417 -0.061047837 0.023928413 0.0013936575 -0.3786335 0.005293417 -0.16238226 0.20069121 -0.049085874 0.19880065 0.24943602 -0.18363613 0.085131906 0.12740587 0.17907669 0.15423492 0.02944403 -0.1118015 -0.0084575415 -0.025757028 0.01637234 -0.22337976 0.039713543 0.34498498 -0.013781892 0.060883928 0.66189724 0.13449745 -0.19333504 -0.2002741 -0.03709402 -0.41790926 0.8116039 0.056849167 -0.14991562 0.0489682 0.047565464 -0.13593236 -0.098561734 0.409955 -0.28709164 -0.0266638 -0.032764506 0.45317826
. -0.13600025 0.4625747 -0.5331432 0.3136225 0.007344477 -0.32243708 0.11655738 -0.22812824 -0.03062108 0.14676979 -0.62761444 0.045009546 -0.32042128 0.10019247 0.13972424 -0.0013884653 0.2706791 -0.13311397 0.2388992 0.30497783 0.20440601 0.36189464 -0.23394355 0.054433197 -0.16702968 -0.019191101 0.17330918 -0.24158946 0.12180815 -0.021491567 0.23370461 0.100440815 0.52452165 0.30065343 -0.26390463 0.016143018 -0.06613666 -0.19314378 0.47026744 0.022426685 0.15822251 0.19681975 -0.014355372 -0.091552414 0.15097483 0.13046493 -0.31029865 -0.23793276 0.054398533 0.56029224
? -0.032680262 0.5141542 -0.043037377 0.11925246 0.058250494 -0.6452791 0.18869086 -0.018695561 -0.24013329 0.012529052 -0.12884569 0.13801067 -0.5548149 0.3897168 0.04701183 0.03639325 0.39602637 0.10793977 0.028276261 -0.12910414 0.15028192 -0.37167853 -0.08698724 -0.0404979 0.2536635 0.1060863 0.15953168 -0.17815028 0.071437046 0.103539735 0.74725294 0.2145215 0.22852233 0.28350344 -0.33721393 0.29657683 0.09202431 -0.19549963 0.9130552 0.56242853 0.109366976 -0.1409686 -0.17739198 -0.23898333 -0.063369416 0.9108256 0.38396972 -0.15928525 0.022904525 0.24020496
di 0.23512238 0.13592191 -0.27071851 0.45605108 -0.52372676 -0.5891961 0.22424258 -0.11927081 -0.11286315 0.2784506 -0.38834584 -0.01873878 0.14847746 -0.15375076 0.32960322 0.050805926 0.4650511 0.12983233 0.3180226 0.46620592 0.033758447 0.06288237 -0.059220448 0.030810054 0.03363205 0.018544609 0.074712686 -0.14730512 0.059160877 0.21285471 0.30406192 -0.021576265 0.30584162 0.012113694 -0.016235549 -0.102673076 0.07681369 -0.4468781 0.631454 0.31407622 0.43935832 -0.01619321 0.039309375 -0.45062304 0.175698 0.6483169 0.05516891 -0.32754818 0.16693306 0.45117757
aku -0.24784322 0.38739887 -0.26253298 0.3068686 -0.23006772 -0.40497193 0.13798958 0.045569245 -0.15033019 -0.011793321 -0.37308383 0.13164763 -0.12953927 0.16783606 0.111037135 0.17858821 0.16002625 0.06594386 -0.032893237 -0.17588758 0.32498926 0.13423459 0.06505487 -0.2067949 0.03564856 -0.27953035 0.055279795 -0.30715021 -0.22815022 0.4029965 0.40340617 0.062358905 0.1518694 0.22907493 -0.16305254 -0.24235356 -0.018114211 -0.4414931 0.59722304 0.1898766 0.013679996 -0.2188449 0.003748035 -0.12019473 0.25261185 0.54970384 -0.008790541 -0.081443936 0.34308013 0.6767458
yg -0.20242009 0.24408068 -0.43407393 0.22717436 -0.6374057 -0.8238845 0.2533667 -0.05275063 -0.23055229 -0.041799355 -0.47423723 -0.20638365 0.10508623 -0.24448112 0.3722501 0.050426323 0.37158468 0.1297635 0.2160878 0.08209322 0.06521319 0.15401857 0.05204257 0.22888848 -0.25942513 0.16155651 0.17834629 -0.14194289 -0.208014 0.476185 0.51820076 0.04059 0.35491008 0.21057189 -0.09985137 -0.22513884 -0.2734834 -0.32118005 0.51235193 0.1957537 0.45541793 -0.106364235 0.19970982 -0.520036 0.1376431 0.34014547 -0.20108534 -0.36520347 0.3783206 0.34980184
ya -0.07159116 0.016337033 -0.5227931 0.26685247 -0.23362124 -0.502002 0.46215215 -0.22799648 0.09576377 -0.24491584 -0.2512612 0.12555136 -0.026477773 0.039697766 0.15362918 0.036646508 0.13448393 -0.045175098 0.07825601 0.13957731 0.2813188 0.17658715 0.15937917 0.068368286 0.036328763 0.18517904 0.07492588 -0.3388716 0.048873153 0.43079877 0.453513 0.060278993 0.20591372 0.39873296 -0.38527274 0.03623925 0.019495495 -0.19430879 0.75809586 0.15014987 0.056284476 -0.35949546 -0.14207223 -0.34126526 0.026192917 0.4409246 0.122148536 -0.25410888 0.27948654 0.5147441
aja -0.07952122 0.043148033 -0.33562696 0.22183244 -0.2899996 -0.635554 0.3427583 -0.1722279 0.046045523 -0.09489144 -0.30218482 -0.19340965 -0.008987598 -0.15880278 0.21970627 0.10827253 0.28926858 -0.0055199102 -0.03391333 -0.0069110463 0.041383203 0.23931709 -0.047716137 0.046867438 -0.2165123 -0.10989913 0.1684176 -0.10529832 -0.2780725 0.5618197 0.4810615 -0.08801227 0.49367714 0.6175213 -0.15589003 -0.02070688 0.090095244 -0.100151666 0.6452435 0.2806728 0.47145852 -0.06917104 -0.06061504 -0.5888807 0.12384941 0.35381204 -0.008783732 -0.46592617 0.28195664 0.68531966
bisa -0.09016813 0.01813 -0.55444604 0.30947518 -0.43630463 -0.492045 0.14150672 -0.37252292 -0.011594401 -0.07156037 -0.68014926 -0.28459984 0.003649336 -0.046543647 0.1548702 -0.056372423 0.16336554 -0.05356592 0.15801826 0.09259541 0.11331564 0.09404292 0.01995174 0.16457613 -0.27241692 0.34252778 0.16725793 -0.0024135897 0.004683131 0.2894499 0.44984815 0.13137107 0.60363793 0.16317421 -0.16545276 -0.09316958 0.07202376 -0.064785324 0.6502927 0.2776016 0.18812348 0.061330043 -0.052053075 -0.2128185 0.07721633 0.56114686 -0.0059200507 -0.34352934 0.25546432 0.4744247
ðŸ˜­ 0.07549811 0.52791643 -0.1415611 -0.23891771 0.26735398 -0.42226753 -0.18213102 -0.373366 -0.30232397 -0.107867524 -0.43639493 -0.0065328837 -0.32114995 0.07233961 -0.066112675 -0.059379227 0.23634584 0.07026907 -0.011054307 0.8903819 -0.01966003 0.0040385635 0.26750913 0.26426002 0.12764512 0.24272066 0.047089275 0.39263165 -0.061010942 0.4777209 0.09073091 -0.08966162 0.05054633 0.76965404 0.28852358 -0.28028587 -0.017368529 -0.015474541 -0.06273694 0.041691326 0.077294976 -0.49877852 -0.16140571 -0.12494369 -0.37613538 1.1159037 0.044329755 -0.48817873 0.08521356 1.2091066
yang -0.23382661 0.27223656 -0.445822 0.2453319 -0.32179025 -0.5083548 0.1852977 -0.1420162 -0.024051066 0.01092229 -0.8600201 -0.43569106 -0.22686774 -0.02047073 0.12444159 -0.10727708 0.10508433 0.11771881 0.12571952 -0.034121327 0.03753105 0.28223643 0.14797217 0.077985816 -0.3921896 0.12191891 0.108260676 -0.24484028 -0.05862989 0.4511821 0.4706414 0.0050545745 0.465765 0.058377028 -0.33163115 -0.0024775178 -0.20914854 -0.21154135 0.65946054 -0.06984292 0.2980487 -0.033160187 -0.05883297 -0.32095876 0.13655889 0.39378178 -0.30259547 -0.2480852 0.28122178 0.45526817
ini -0.103470616 0.16608062 -0.24237026 0.40701643 -0.32123548 -0.38691285 -0.030022305 -0.46483862 -0.24596883 0.17353173 -0.5482063 -0.13631733 -0.24094257 0.062572286 0.20731045 -0.115522645 0.1410844 -0.019489715 -0.2423279 0.33971184 -0.10320785 0.07892461 0.13308956 0.17026143 -0.01915746 0.23153733 0.19478296 -0.15327118 -0.084399916 0.65808797 0.47328514 -0.037107628 0.47295243 0.11113631 -0.30760396 -0.13166457 -0.11539592 -0.07644012 0.42809123 0.16876118 0.37751845 0.05922142 -0.2263382 -0.31214342 0.092660464 0.75867206 -0.091893055 -0.3630835 0.3401049 0.4747334
dan 0.03159091 0.16385229 -0.6148674 0.40152043 -0.26222324 -0.4897836 0.15795897 -0.15337765 -0.009878692 -0.0013623046 -0.7458482 -0.0319666 0.30656552 -0.14290239 0.028041886 0.09940195 -0.13565694 0.04756137 0.17604138 0.3663442 0.25810307 0.1929942 -0.11540669 0.04036796 -0.28423008 0.2115789 0.040411357 -0.011379984 0.1738759 0.29259053 0.2564825 0.25866798 0.30333295 -0.07813925 -0.50799316 -0.29686204 -0.29720747 -0.42803028 0.68958735 0.011595819 -0.0477959 0.015543406 -0.2640339 -0.30214024 0.17269163 0.53483546 -0.4864765 -0.21820089 0.15273461 0.51110315
ga 0.023341695 0.26745796 -0.4683914 0.15244105 -0.30643484 -0.7841882 0.233588 -0.07921971 -0.092163615 -0.1757911 -0.3282436 -0.093806066 0.182941 -0.1332781 0.07608547 0.103573896 0.21736099 0.08898317 -0.028884133 -0.085797265 0.15546447 0.3199303 0.05105704 0.059003547 -0.011467678 0.04659036 0.07748536 -0.15879641 -0.34230682 0.25607896 0.4801598 0.029577926 0.28745398 0.31727904 0.11095425 0.0055034454 0.08516239 -0.35897183 0.5843646 0.10108139 0.30372036 -0.00055592845 0.089282185 -0.17488027 -0.030021429 0.43999597 -0.13610545 -0.33033353 0.29666102 0.7307991
ada -0.0009342356 0.1460371 -0.38411355 0.46095002 -0.31438786 -0.4923808 0.18275526 -0.3460687 -0.07941796 0.118040904 -0.5018445 -0.066651806 -0.08078355 -0.14944507 0.13090712 -0.08385452 0.37096277 0.20698732 -0.039164998 -0.07515451 0.063829325 -0.042691916 0.05573193 0.06612736 -0.17827184 0.21541777 -0.01528271 -0.07757648 -0.14608587 0.4571463 0.51737326 0.13092783 0.5361703 0.10969571 -0.2988452 -0.3173049 0.023917856 -0.32247537 0.5010511 0.08974771 0.4356893 -0.028310763 0.060154438 -0.40940055 0.039263338 0.53535014 -0.29713795 -0.33419654 0.4073544 0.48194298
.. 0.059886247 0.428201 -0.15391594 0.06697755 -0.42253575 -0.19604646 0.25924107 -0.17605656 -0.301133 -0.14548834 -0.35932678 0.34005406 -0.21532114 0.33985052 0.22216997 0.17956832 0.15350355 -0.08501691 0.29469636 -0.1061005 0.3625518 0.2738788 -0.029397253 -0.2585274 0.23961821 0.059770368 0.10320529 -0.10401396 0.18558371 -0.016129166 0.12566605 0.064806394 -0.08917316 0.33078122 -0.18672979 0.121346936 0.12615247 -0.2903815 0.7113404 0.27271304 0.10077791 0.050532747 -0.36999616 -0.35872424 -0.032393333 0.55298114 -0.04623014 -0.42312565 0.09854002 0.53682935
gue -0.098457225 0.569964 -0.1952689 0.46968293 -0.24056168 -0.6131972 0.3324527 -0.3454126 -0.3302636 -0.21538475 -0.5519015 -0.3046896 0.1713157 -0.22339468 0.2423534 0.1272808 0.15167022 -0.15116449 -0.010658948 0.17608151 0.023007229 0.22854201 0.35146567 0.17772277 -0.042157132 0.23099633 -0.054384552 -0.36739054 -0.46483913 0.695626 0.31139034 -0.07375211 0.37372747 0.36430544 0.34100792 0.17172307 -0.08648403 -0.25371617 0.26034126 -0.17273526 0.49145365 -0.29610932 -0.03021507 0.00942143 -0.05604944 0.5190645 -0.037371963 -0.5970613 0.24782476 0.7651295
tapi 0.065502405 0.3426554 -0.3031729 0.16265178 -0.35232702 -0.46906266 -0.04468455 -0.20790367 0.0093832305 -0.13988212 -0.38195327 0.01243994 -0.04569865 -0.12099804 0.09446854 0.115229435 0.32820877 -0.028196348 0.11986295 -0.035939515 0.04009396 0.38919908 0.1507719 -0.0663695 -0.031755365 -0.11819703 0.009559447 -0.051718365 -0.10943258 0.11604107 0.23635939 0.0584053 0.4727711 0.14546648 0.013842445 -0.14999229 0.14224453 -0.3154575 0.68297446 0.024455072 0.10325553 0.069255 0.15759873 -0.3038099 0.08546878 0.6367672 -0.23373091 0.017349407 0.25661212 0.5829681
" -0.061836664 0.5138951 -0.5017079 0.1406452 -0.29973102 -0.4391624 0.3242296 0.37696925 -0.43793646 -0.2035186 -0.26931125 -0.009872127 -0.62842554 0.4272766 0.085069224 0.30057824 -0.005245525 -0.4968595 0.22948067 -0.07535056 0.027940767 0.024100533 0.21632336 -0.11757176 0.3838649 -0.34241667 0.24231945 -0.34575668 -0.18472981 0.112897225 0.43779504 0.29063863 0.15165141 0.74184865 0.006247169 -0.072130404 0.00043617457 -0.443725 0.51650155 0.3325904 0.30027783 -0.2416407 -0.02148237 -0.2583587 -0.30486396 0.0016248361 0.049240906 -0.20580211 0.22732025 0.47311008
itu -0.092367366 0.37902465 -0.63950324 0.42618605 -0.29293793 -0.6863221 0.12939967 -0.043917887 -0.058190733 -0.21649693 -0.6138463 -0.29316244 0.06713187 -0.08677175 0.25998363 0.13607743 0.17199093 -0.103052855 0.042992275 -0.027042905 0.05654108 0.26428503 0.014574473 0.15729213 -0.011885488 0.086553395 0.086459614 -0.28275755 -0.27583686 0.42399088 0.39282778 0.093298644 0.4772175 0.24751696 -0.23913951 -0.015150111 -0.1746142 -0.26652336 0.62117845 -0.09363685 0.35260874 0.048055165 0.03295234 -0.2523362 0.08794373 0.26024118 -0.14317185 -0.27236572 0.3026337 0.47368866
sama -0.22021127 0.18258114 -0.1296217 0.18947217 -0.3779824 -0.7517327 0.33843705 -0.08618064 -0.05826248 -0.12621182 -0.35604575 -0.29125956 0.0009887646 -0.016597506 0.29994527 0.15094058 0.2946192 -0.2212809 0.045345355 0.23802184 0.17070328 0.26310688 0.27400154 0.11496307 -0.30578506 0.15473084 0.051614385 -0.19272676 -0.1463944 0.562445 0.5540041 0.11464593 0.58577526 0.3753079 0.08821412 -0.13951284 -0.11009724 -0.18798625 0.4690635 0.032096893 0.17676379 -0.15260303 -0.048582554 -0.14332435 0.064153045 0.30612272 -0.31220755 -0.35217687 0.20573394 0.5693201
kalo -0.08320809 0.015951294 -0.5051882 0.39771107 -0.37097818 -0.58608353 0.31836286 -0.18726175 -0.10194571 -0.114562474 -0.397488 -0.23758478 0.17667131 -0.01624132 0.15347125 0.32058537 0.31245357 -0.021629347 0.13591474 -0.07611718 0.07096243 0.32422593 0.07460473 0.10589623 -0.046718724 0.14575647 0.113017164 -0.3399736 -0.35955912 0.39332542 0.4416573 0.22668299 0.3743324 0.51518077 0.038227722 0.14702599 -0.028130008 -0.1455026 0.68493015 0.06994726 0.6067346 -0.043837372 0.04153127 -0.34771875 0.022185888 0.32719013 0.19532925 -0.43658802 0.13097067 0.73557806
udah 0.12968116 0.009620545 -0.22352593 0.44462046 -0.4912047 -0.71360606 0.13932578 -0.38982838 -0.2700279 -0.121486954 -0.5098032 -0.20417295 -0.3124789 -0.03056052 0.26436308 0.06379822 0.26607233 -0.23493676 -0.23244107 -0.093194894 -0.09199202 0.1340012 0.08237249 0.0076010707 -0.09014273 0.049868297 -0.059335515 -0.056720328 -0.21401446 0.662891 0.33315474 -0.15147549 0.5979193 0.42135248 0.009538781 -0.066129886 0.18477185 -0.18185718 0.43346065 0.15348828 0.28376493 0.20696627 -0.025241014 -0.34991348 -0.02100581 0.54683363 -0.00066802866 -0.21445966 0.1062535 0.6357005
banget -0.3564131 0.46794987 -0.30164716 0.42920393 -0.3113617 -0.4975428 0.09334263 -0.3183352 -0.11894412 -0.0037613492 -0.65170896 -0.18443045 -0.14271441 -0.3465664 0.04672495 0.3286727 0.043589916 -0.09467885 0.012111731 0.171574 0.13566038 0.5528744 0.13137582 0.21863641 0.18030982 0.2525273 0.02195659 0.22290011 -0.021872187 0.22835657 0.32679266 0.28907165 0.13378696 -0.038299493 0.038640898 -0.012663496 -0.03169497 -0.3103622 0.35130996 0.020246116 -0.030025039 -0.12741202 -0.061898086 -0.0759915 0.10862331 0.49990195 -0.55481434 -0.51073164 0.11002515 0.5743751
gak -0.0694036 0.29264945 -0.41357973 0.11517341 -0.15034749 -0.5106571 0.3638483 -0.14056589 0.17319222 -0.11832105 -0.20514147 -0.13659056 -0.010841522 -0.09471334 0.25324202 0.058514252 0.3277377 0.19952044 0.06954612 -0.05483723 0.12308414 0.23114207 0.21471062 0.072387666 0.16993283 -0.0892658 -0.03024023 0.029565709 -0.21588466 0.21160111 0.55486584 0.30990237 0.32522756 0.49087864 0.1208031 -0.27561158 0.0414157 -0.13861157 0.60652745 0.17708129 0.114693426 -0.004337623 -0.03477562 -0.26085326 -0.04286385 0.46628484 -0.14144818 -0.35252088 0.1949505 0.7687916
mau -0.19046973 0.34057203 -0.1058839 0.32142988 -0.23713838 -0.5712502 0.24915853 -0.13576527 -0.15842095 0.091301166 -0.47433576 -0.13284966 -0.21333995 0.023151807 0.24883085 0.23659772 0.15044984 0.07246559 0.006275351 -0.27610058 0.081906065 0.25381148 0.036690254 0.0036397364 0.015442694 0.11547516 -0.10337595 -0.27911922 -0.22106026 0.49977443 0.24438584 0.17760423 0.38602442 0.30454385 -0.2881886 0.09773025 0.047527 -0.3612003 0.5238913 0.17348012 0.3144736 -0.11438797 -0.057590708 -0.22088166 0.021398893 0.50121754 0.052893784 -0.24850215 0.19145194 0.67420113
juga -0.18400522 0.26551738 -0.38136092 0.34684524 -0.3236513 -0.5616609 0.05167518 -0.29873344 -0.07522021 -0.22753558 -0.6083741 -0.16213177 -0.112928234 -0.17928001 0.20595509 0.18426745 0.2836293 -0.07887612 0.12895152 0.13510536 0.10412239 0.39858285 0.07825083 0.06538748 -0.19696413 0.4192889 -0.10160578 0.005742956 -0.03456389 0.5050507 0.3762122 0.04666581 0.33105466 0.09120927 -0.2776322 -0.13476843 -0.05724196 -0.25475115 0.44965452 0.13425031 0.22807807 -0.024949018 -0.057341035 -0.28399917 0.12766562 0.5352089 -0.16982576 -0.43823007 0.090850145 0.45943093
! -0.11782463 0.24082099 -0.5329647 0.2334924 -0.1966182 -0.48300514 0.0650999 -0.738714 -0.026793765 0.050126377 -0.7396842 0.14487422 -0.66265184 0.36537984 0.2668541 0.0318721 0.16374445 -0.25265318 0.17023587 0.36743113 -0.03863455 -0.038798217 0.08392313 -0.13950631 0.14556067 0.7088018 0.4127423 -0.13580818 0.35463867 -0.048445396 0.282005 0.59826195 0.5224998 -0.1175394 -0.050068107 -0.106402166 0.15503444 -0.25525594 0.46121618 -0.20505603 -0.39113432 0.009499281 0.03105525 0.014979395 -0.41665453 0.5200744 -0.15474996 0.06532509 -0.02925152 0.58026826
buat -0.067699686 0.27884153 -0.71823657 0.5311434 -0.22759384 -0.66380155 0.29320446 -0.321134 -0.012207979 0.05423648 -0.5910656 -0.33632773 -0.10987554 -0.15159391 0.054820187 0.1658445 0.05303009 0.057701185 0.012304659 0.051968157 0.1703807 0.23030725 0.020470787 0.17983468 -0.12878339 0.4882575 0.22169298 -0.17172992 0.10564403 0.5937107 0.4638397 0.020235324 0.45424387 -0.30414993 -0.52162105 -0.34093326 -0.049981236 -0.36294875 0.4202987 -0.03232848 0.23526762 -0.058718212 -0.0079713175 -0.13089195 -0.019022893 0.48724908 -0.41157722 -0.31997126 0.21581532 0.48223397
lagi 0.008322783 0.12693384 -0.2191849 0.36907384 -0.27342597 -0.44242916 0.24866621 -0.3270884 -0.21477883 -0.065550365 -0.44374657 -0.004933198 -0.006447848 0.119189456 0.32844427 0.24970514 0.19020765 0.2005415 0.14205715 0.30004787 -0.0518687 0.08397581 0.12100461 -0.0792904 -0.13871257 0.02452449 -0.07945192 -0.10631184 -0.03137157 0.5706373 0.19367401 -0.1748185 0.29140976 0.3859654 -0.16797473 -0.2316762 0.02782722 -0.18120241 0.5595865 0.13032156 0.42792633 0.035919026 -0.078533635 -0.36575067 -0.15206626 0.49283674 0.1454734 -0.3783069 -0.00920783 0.8705511
ke -0.0676946 0.14845793 -0.31359383 0.33073568 -0.50844765 -0.67590594 0.08089909 0.019877743 -0.120667495 0.12354577 -0.4431552 -0.07615252 -0.12789875 0.24893534 0.32679927 0.07400616 0.2510942 0.0118611455 0.20754433 0.05021325 -0.03242793 0.25288084 -0.10517191 -0.1287584 -0.09525489 -0.009951243 0.15043749 -0.0276085 -0.008468611 0.33889097 0.31687528 -0.22218831 0.55042857 0.34131712 -0.014533136 -0.16016838 0.1534054 -0.28679946 0.5136525 0.23995796 0.5776473 0.08030955 -0.037593883 -0.32937697 0.079675585 0.2987242 0.053598195 -0.25779688 0.19816704 0.570094
... -0.078747496 0.30935848 -0.38876674 0.18993391 -0.14039917 -0.23231457 0.029622883 -0.26609764 -0.14005068 -0.04229542 -0.24513085 0.15489915 -0.16648656 0.13277869 0.13811314 0.21330653 0.08593094 0.014876982 0.18714617 0.059825502 0.2767385 0.027029287 0.09401081 -0.21490985 0.20066762 -0.11033552 0.25771293 -0.13050465 0.1783492 0.020453975 -0.045301702 0.012673315 0.2618205 0.28585932 -0.10083145 -0.106584445 -0.118911065 -0.5006105 0.77108675 0.07336563 0.026797174 0.097537294 -0.027064541 -0.22250448 -0.14220706 0.4787428 -0.17608726 -0.05913634 0.3566025 0.7058093
jadi -0.11141193 0.058765702 -0.37681198 0.25261682 -0.2343233 -0.5632677 0.24013746 -0.19723552 -0.040842526 -0.02998976 -0.70733994 -0.38506144 -0.15707152 0.034304153 0.116377085 0.2802273 0.13648754 -0.014389802 0.14371559 0.121982604 0.1574684 0.19547592 0.051207606 0.16229309 -0.2882746 0.28949615 0.18832415 -0.27226663 -0.1828874 0.36663398 0.36918816 -0.009745498 0.4788081 0.1664656 -0.17838325 -0.048562758 -0.05676128 -0.40142998 0.46620533 -0.025254413 0.41728392 -0.053572267 -0.09106513 -0.3131788 -0.04028118 0.40471464 -0.19960298 -0.39271873 0.3325297 0.5770585
sih -0.0521764 0.4287184 -0.24381875 0.113176055 -0.26094732 -0.69191396 0.043016408 -0.13713312 -0.19706765 -0.31123945 -0.36908552 -0.36823586 -0.09037682 -0.07097759 0.07567716 0.13643827 0.25322038 0.026182517 0.048367377 -0.07945823 0.13403654 0.47274557 0.084805354 -0.042052627 0.0684319 0.0730129 0.12459372 -0.12599617 -0.28484932 0.14192156 0.3508552 -0.0155205885 0.22475359 0.39454016 0.05264457 0.10494159 -0.1569536 -0.24402359 0.5355284 -0.0048732976 0.37805724 0.008068239 0.1027021 -0.12817188 0.0926732 0.68556035 -0.22777665 -0.47088155 0.20131238 0.49569437
dia -0.07702198 0.5933272 -0.41927683 0.14695482 -0.26671505 -0.6748966 0.4030885 0.13567515 -0.06785936 -0.14464808 -0.5453177 -0.51609176 0.11039632 -0.21336532 0.31178316 0.15465176 0.3568501 -0.006818223 0.25599408 0.10003497 0.18790302 0.14849493 0.16554996 0.03050367 -0.3239959 0.09362511 -0.05663794 -0.31602764 -0.45029512 0.49174085 0.35602435 0.012588745 0.54914546 0.519075 0.13156275 -0.004264306 -0.1786201 -0.18140844 0.5241452 0.19344215 0.54701006 0.022712063 0.16254322 -0.28219417 0.18602385 0.12122229 -0.16476737 -0.35292113 0.2637435 0.7174744
bgt -0.17468403 0.4803206 -0.07146582 0.32090828 -0.42563072 -0.40875167 0.24349307 -0.35694227 -0.17248607 0.013647842 -0.49006566 -0.14088954 -0.15082777 -0.3766794 0.197637 0.21058221 0.1408861 -0.005835938 0.09042493 0.3068119 0.034496583 0.20798124 0.26916596 0.2504702 0.043707103 0.25546357 0.041772235 0.11807415 -0.20078222 0.43392155 0.25467038 0.0764205 -0.06832993 0.156129 0.2758585 -0.034355287 -0.07212276 -0.18332219 0.3094509 0.06345609 0.33941785 -0.23415928 -0.0076645487 -0.35772547 0.012690366 0.76592785 -0.35551098 -0.5643056 0.12306742 0.683426
dari -0.08197579 0.02630994 -0.5231827 0.4164193 -0.4613349 -0.47029027 0.17686597 -0.34529635 -0.21290538 0.19128631 -0.7899553 -0.05060908 -0.015514574 -0.11495472 0.32720408 0.018923974 0.18505432 0.31525487 0.09692743 -0.04961975 0.003559439 0.19363396 -0.12604564 -0.13089359 -0.07952208 0.0262942 -0.10639713 0.06955253 -0.008326842 0.50296265 0.6483605 0.11257487 0.37834376 0.12977222 -0.14873207 -0.15091084 -0.09472026 -0.05030284 0.51292616 -0.07364043 0.28891262 0.09967427 0.01775457 -0.21473059 0.14096496 0.42248777 -0.26747897 -0.48481876 0.42309517 0.5658731
e 0.04099885 0.7210654 -0.72942895 0.1573969 -0.3550682 -0.32875878 -0.0035404856 0.024508346 -0.05120994 0.15273578 -0.19366404 0.79150784 0.018097857 0.119256176 -0.051835842 0.07876493 0.28656685 0.09902948 0.4020638 0.12036596 0.37243572 0.33517292 -0.07958403 -0.16311003 0.4641453 -0.51559466 0.28628036 0.10544126 0.0997847 -0.1851417 0.15248017 0.15386191 0.09512385 0.32860485 0.21710461 -0.2646731 0.077374175 -0.32323202 0.8592665 0.19344231 -0.16609956 -0.03246912 0.04298296 -0.33322206 0.0014089297 0.6074161 -0.5595073 -0.0875474 0.4337947 0.6990789
to -0.13702722 0.88440895 -0.047958743 0.36505193 0.034718376 -0.33377254 0.30702287 -0.4198806 -0.3796485 0.083203346 -0.1580701 0.032787327 -0.54365075 0.30890006 0.5708918 0.21661603 0.3854715 -0.87463635 0.15550527 -0.19817081 0.34279338 0.14129269 0.0018721921 -0.040391643 0.31729952 0.15742007 0.358973 -0.48476884 0.26453036 -0.0800713 -0.26088092 0.24068551 0.28333968 0.45622757 -0.18322301 0.6500008 -0.21731077 -0.68661433 0.9443135 -0.12023636 -0.15860029 -0.27365658 0.2499975 0.38852862 -0.18011265 0.8306664 -0.47128797 -0.26991788 0.4320764 0.55648386
nya -0.117517166 0.09677588 -0.4077331 0.23249328 -0.052002776 -0.35880536 0.3537498 -0.4231399 -0.11978321 0.055685036 -0.4825213 -0.30113256 -0.052498266 -0.08996903 0.27670428 0.26088563 0.1750618 0.066215485 0.09797489 0.24089178 -0.11392469 0.024925599 0.110414624 0.123273216 -0.039022207 0.114280894 0.13453583 0.2512174 -0.24263948 0.30427653 0.25481674 -0.055534143 0.22637254 0.21902303 -0.13618223 -0.20852198 0.0723551 -0.20588581 0.5343399 0.073593095 0.3625932 -0.15654036 0.05649262 -0.32372624 -0.33791348 0.78558284 -0.26824248 -0.6043183 0.19631246 0.6088075
kok 0.14806215 0.4642581 -0.421758 0.162067 -0.24567895 -0.25496167 -0.005105643 -0.07315149 -0.117906176 -0.03823728 -0.22723071 0.4517642 0.025967736 0.22372968 0.10586401 -0.017021906 0.41500136 -0.048787434 0.23600568 -0.11668695 0.40893215 0.23256627 -0.16313091 -0.17867407 0.17315608 -0.1769847 0.035940878 -0.1205267 -0.003514177 0.10736919 0.36033863 0.055927232 0.17104459 0.48396757 0.14783801 -0.12365262 -0.10667584 -0.19230749 0.69015217 0.28806365 0.05894797 -0.114139766 -0.115041174 -0.3145386 -0.053149566 0.47956568 -0.21483488 0.015316919 0.33363682 0.66930467
malah 0.119691215 0.4870644 -0.4721692 0.13162741 -0.4411344 -0.43914598 0.08989017 -0.036841873 -0.20603217 -0.06499331 -0.37521273 0.32775757 -0.1406911 -0.20511152 -0.0557292 0.099658325 0.29523093 0.20364636 0.3469581 -0.107188426 0.15510352 0.220248 -0.15910637 -0.05892862 0.098744005 -0.23569758 0.37807608 0.0022426792 -0.23896393 0.35956943 0.27977163 -0.25990155 0.3033823 0.5663791 0.41189584 -0.17067583 0.11766574 -0.1693999 0.5345038 0.20511058 0.42958084 0.09453534 0.117488764 -0.37951678 0.16674411 0.25353238 -0.04693402 -0.042578675 0.21900128 0.889178
: -0.19522725 0.69634473 -0.031307273 0.45485017 -0.29428846 -0.27976978 -0.20458856 -0.3551241 -0.15368441 -0.24505816 -0.17807308 0.8578145 -0.7804663 0.43797067 0.3111279 -0.07836836 0.71225435 -0.09385278 0.14561032 -0.15673603 0.43393308 0.0064472957 -0.23954603 -0.5558563 -0.08691333 0.41084048 -0.50434834 0.086993486 0.67738235 0.107217215 0.18820007 0.04392602 0.20178773 0.31795987 0.030156657 -0.24549182 0.14321305 -0.25531703 0.40157118 0.6795511 -0.18731213 -0.32065117 -0.30643418 -0.2805361 -0.1902514 0.7873209 0.006135086 -0.25180286 0.14904693 0.4229451
temen -0.24522494 0.51023394 -0.13069582 0.5878129 -0.41627872 -0.63637424 0.38680264 -0.033710092 -0.34835312 -0.4170859 -0.6605513 0.015315741 -0.009028317 -0.05404656 0.43168086 0.0823355 0.29162037 -0.14443289 0.107723005 -0.08202723 0.16518557 0.041586287 0.2905856 0.29739317 -0.17121813 -0.012948807 -0.022180442 -0.2743783 -0.2319444 0.9397638 0.0344768 -0.22734055 0.27202508 0.39096382 0.20029531 -0.009224227 0.024325695 -0.2571851 -0.014345663 0.2040286 0.66454 -0.5707145 -0.16467205 -0.4182589 -0.042169772 0.24057008 0.03506633 -0.39562172 0.29330432 0.8842666
( -0.19409549 0.2968235 -0.093586564 0.15693204 -0.4167742 -0.24530222 -0.20490797 -0.043507494 -0.3620202 -0.27646852 -0.7662813 -0.07556008 -0.5125128 0.44359985 0.63447464 0.1783775 0.4735473 -0.24159499 0.6091426 0.08608566 0.15723264 0.51647055 -0.18588194 -0.18817395 -0.19153488 0.47105107 -0.2143983 0.07603202 0.3853524 -0.004727479 0.0353548 0.02091009 0.1311522 0.36041522 0.09245672 0.330458 0.073304966 -0.7148839 0.18951192 0.71323043 0.70459276 0.0660399 -0.07043226 -0.556882 -0.032365337 0.4629451 -0.06615787 -0.17962791 0.2065542 0.27757707
dulu -0.07348837 0.049267013 -0.4409858 0.2919268 -0.4015639 -0.302779 0.07256298 -0.41375762 -0.049649797 -0.13209468 -0.5728527 -0.08003984 -0.09514987 0.11298214 0.25632367 0.037626952 0.17324822 -0.075513266 0.08065872 0.07602763 0.054530803 0.31254208 0.09175266 -0.061348107 -0.12317121 0.15404926 0.13002639 -0.18704918 -0.15363955 0.586397 0.5865347 0.2430011 0.54636085 0.35499153 -0.10744049 -0.19376586 0.124292456 -0.13957694 0.49636295 0.16078557 0.53120226 -0.057580087 -0.22952105 -0.16501662 -0.019622413 0.27826485 0.2591048 -0.42365372 0.19033186 0.65254015
) -0.16314627 0.253079 -0.13237883 0.09999336 -0.46149847 -0.2302169 -0.27154496 -0.112215415 -0.3148265 -0.32049298 -0.87565064 0.035975724 -0.52087903 0.36984706 0.55505204 0.211204 0.6320673 -0.30262536 0.6400591 0.20023431 0.21790476 0.51356196 -0.124478504 -0.19343907 -0.28389257 0.5491521 -0.18365403 0.16040501 0.34920374 0.007359542 0.069876336 -0.025244959 -0.034481827 0.35165143 0.0639571 0.15685154 0.045800097 -0.59365696 0.21960026 0.66686153 0.66555345 0.12157028 0.0945174 -0.4847842 -0.05318021 0.4110764 0.029911797 -0.2225615 0.050670713 0.39396623
kan -0.0489842 0.20431647 -0.47844848 0.35282093 -0.24903002 -0.3982788 0.37426043 0.09931508 0.042746965 -0.27454606 -0.39470795 0.13206607 0.02394375 0.21664362 0.049336556 0.13626759 0.26244026 -0.037649963 0.29216594 -0.07019089 0.14534527 0.23326175 -0.016453272 -0.081620835 0.13169913 -0.1350745 0.08794593 -0.09413319 -0.14419293 0.40652633 0.45842007 -0.04150522 0.21574332 0.47993544 0.05726421 -0.09541672 -0.13271713 -0.22701214 0.5896347 0.23986204 0.46966818 -0.11406237 -0.11738293 -0.38731256 0.18934812 0.3923961 0.27147707 -0.3071753 0.30229336 0.6548258
yo -0.09190346 0.7866332 -0.45158708 0.1366769 -0.13266745 -0.28958347 -0.035211686 0.3337637 -0.15207894 -0.09979433 0.14730904 0.868865 -0.054654077 0.5974995 0.038089696 0.18586418 0.38292435 -0.21097218 0.34115687 0.014881205 0.5639044 0.30579415 0.04803788 -0.3278856 0.27759016 -0.5258075 0.2948441 -0.08147759 0.21181081 -0.046973974 0.43673515 0.19067597 0.07444028 0.49743256 0.02176667 -0.32007468 0.10780651 -0.5383443 0.83046126 0.38651392 -0.07956504 -0.17238209 0.14726621 -0.30935067 0.01893391 0.6684515 -0.36859974 -0.118783854 0.353812 0.67618597
ðŸ¤£ 0.14478326 0.82081836 -0.13784124 0.5820819 -0.56552595 -0.33980992 1.0214239 0.5407786 0.10835156 0.4814394 0.056605686 0.2226507 -0.014351791 -0.019776678 -0.14602159 0.121395186 0.07982357 -0.5963051 0.3258316 0.3212934 0.094674796 0.04321903 0.26077387 -0.068458684 0.100078896 0.018106798 0.03893885 0.13477795 -0.12885782 0.09346542 0.57813805 0.079671636 -0.042602632 0.93186504 0.36688298 -0.4083701 -0.2507477 0.1991791 1.1386207 0.4946891 0.20312239 -0.36227384 -0.021283822 -0.123734936 0.36015278 0.22730562 0.013161589 -0.48115087 0.48757848 0.5612991
tp -0.059879616 0.5987017 -0.39209786 0.030426802 -0.21021171 -0.46728638 0.182036 0.018065391 -0.05730977 -0.0058866893 -0.29046115 -0.024966286 0.14465669 -0.088476785 0.082515895 0.14413811 0.27164876 -0.088543646 0.098203674 -0.07042236 0.15385513 0.37934908 0.13611525 -0.058308918 0.15407045 -0.2709153 0.01995457 -0.14714381 -0.21782732 0.43431157 0.24961083 0.09727134 0.36011904 0.27580282 -0.118475065 -0.102594115 -0.14199232 -0.33984149 0.5499368 0.11726281 0.27141255 -0.09116996 0.24113223 -0.28315353 0.06604122 0.31836408 -0.29432067 -0.4205926 0.41126537 0.64038503
apa -0.15241972 0.288489 -0.2712543 0.023654228 -0.16413598 -0.72860855 0.22042981 -0.18346778 -0.12207925 -0.17384785 -0.37288594 -0.034778386 -0.2288233 -0.22677025 0.39313257 0.024233578 0.5798316 0.21922499 -0.11120269 -0.40845618 0.1546166 0.099429764 -0.057273716 0.06694782 -0.07139126 0.008277571 -0.2308986 -0.11281761 -0.28162092 0.47093114 0.55190706 0.06559809 0.2383384 0.541467 -0.2188826 -0.05479049 0.0026401044 -0.07603358 0.61582696 0.33765417 0.34525177 -0.27016848 0.09295924 -0.41304284 0.10368279 0.61577135 0.088204026 -0.23097306 0.22313043 0.5859771
pas 0.023148404 0.37772414 -0.62208277 0.331205 -0.3566173 -0.3036488 0.1874096 -0.041209754 -0.14153202 -0.13920324 -0.40484217 0.1413939 0.09697453 -0.12692547 0.09369556 0.115116954 0.2755625 0.06437067 0.3545921 0.23400925 0.13630143 0.11871653 0.20977594 0.04624982 0.07369272 -0.2053603 0.042717908 -0.11117173 -0.39758635 0.32578465 0.18107128 -0.08888621 0.2917352 0.44756085 0.30280778 -0.18800884 -0.034974612 -0.34435704 0.43246523 0.28117493 0.5130336 0.047590427 0.046538137 -0.29533812 -0.13853095 0.43905348 0.048847232 -0.21233748 0.19455367 0.7481761
ðŸ˜‚ 0.25165457 0.12872794 -0.2103289 0.17699058 -0.34162262 0.11386253 0.200767 -0.3781469 -0.35594657 -0.09868825 -0.04776291 0.0938145 -0.54378927 -0.09023113 0.29288694 0.27191046 0.47062197 -0.03440074 0.26096833 0.08644544 0.37438923 -0.043613207 0.064748645 -0.21747133 0.18671125 -0.2782547 0.6690641 0.21758582 0.0044243145 0.023348328 0.37394866 0.53279907 -0.24957298 0.5266809 0.17223476 0.008666276 -0.07107149 0.111377046 0.7301093 0.40359402 0.5693386 -0.2494853 -0.13108982 -0.46376324 -0.10274707 0.76273394 0.17775635 -0.22506614 0.41548058 0.6493959
gitu -0.025673654 0.1885384 -0.3718372 0.2749692 -0.1449138 -0.68057394 0.35435563 -0.334217 -0.03361935 -0.0710766 -0.31236464 -0.3550153 0.06865845 -0.041693646 0.15218046 0.16000254 0.23324767 0.0064575034 -0.055537622 -0.15361796 0.13547014 0.27693802 -0.014252335 -0.040262423 0.05621451 -0.08386129 -0.0118868025 -0.23227558 -0.25997034 0.383414 0.57277185 -0.056640305 0.30108878 0.5149969 -0.045310073 0.09255754 -0.09444356 -0.25788698 0.7743621 0.1698793 0.42454812 -0.109630406 0.08886856 -0.29399145 0.017820783 0.33518884 -0.09085881 -0.3735643 0.23431422 0.58134264
karena -0.22107823 0.4197177 -0.42541307 0.521955 -0.03217258 -0.29408655 0.334291 -0.28004768 -0.14808002 0.1492127 -0.8929898 -0.6005432 -0.027369875 -0.16680323 0.1752306 0.25430968 -0.043945413 -0.13620079 0.13462588 -0.0062215906 0.27430606 0.3260287 0.18616942 0.1740227 -0.03491041 0.13780819 -0.038848758 -0.08608317 -0.055079542 0.40176928 0.28413445 0.027968837 0.47976 -0.068669505 -0.49534786 -0.05488206 -0.20399979 -0.52328444 0.619233 -0.13192712 0.37491322 0.012946975 0.0543809 -0.16747832 0.108829245 0.47740632 -0.23649609 -0.4199753 0.2561113 0.39975902
tau 0.01175555 0.3194465 -0.33520564 0.10578716 -0.18940124 -0.5363814 0.16859318 -0.026383376 -0.1342705 -0.066792086 -0.22900303 -0.22687757 -0.23085867 0.15823634 0.033974297 0.026690315 0.43805638 -0.03062904 0.058558784 -0.104497306 0.16470346 0.1586756 0.23114857 0.074048765 -0.10592206 -0.1420179 -0.06286568 -0.22934462 -0.21960701 0.4186101 0.57093006 0.12811339 0.5077098 0.5663069 -0.15704437 0.1769015 -0.111082695 -0.24786127 0.49573022 0.1766426 0.24964643 -0.08797149 0.1608219 -0.3795626 0.113666125 0.51058936 0.059762295 -0.21243067 0.3169383 0.5238958
terus -0.019726038 0.1288386 -0.31182384 0.3344902 -0.4372882 -0.36663893 0.024742933 -0.15956497 -0.16855606 0.18519829 -0.22616318 0.003921321 -0.12067646 0.10805336 0.017803153 0.034454845 0.10543186 -0.16792001 0.1894533 0.2104267 0.0514214 -0.027817052 0.037038058 0.005143863 -0.009193612 0.046474926 0.292413 -0.25181356 -0.006632802 0.4826916 0.2532745 0.079108514 0.35998255 0.3718021 0.05379956 -0.25019297 0.11770294 -0.19670294 0.50009847 0.20520832 0.20456709 -0.117537126 -0.09757992 -0.5875174 -0.15337063 0.21813762 -0.28047043 -0.2126292 0.32369885 0.83763963
you -0.30117393 0.22290851 -0.044462886 0.35742837 -0.16781147 -0.6480213 0.11995228 -0.92253053 -0.42849466 0.3873901 -0.73571295 -0.14788115 -0.9931118 0.4891248 0.6244495 0.4144077 0.1544655 -0.93434376 -0.00035918382 0.13617426 -0.009256962 0.080566384 -0.07915185 -0.11066728 -0.10430978 0.71123195 0.43847477 -0.41269845 0.68264735 0.43146652 -0.18039134 0.8528758 0.70579755 0.31554827 -0.11707569 0.25264347 -0.1972909 -0.57134706 0.8719709 -0.061913095 -0.58203673 -0.8456915 0.28411844 0.17708756 -0.48118854 0.90790904 -0.43305925 -0.15829644 0.2761536 0.5180758
/ -0.16554435 0.23118362 -0.3823991 0.18962395 -0.40991494 -0.52570134 0.03936757 -0.1314042 -0.13280219 -0.02777146 -0.48339778 -0.025948739 -0.09291346 0.14720038 0.18758315 0.08847236 0.17953469 -0.037016816 0.21114 0.36688405 -0.11561206 0.56498104 -0.06208689 -0.11612417 -0.2376444 0.029451584 0.3548925 0.0034839332 0.057596896 0.10518868 0.19754057 0.09021477 0.27603677 0.09699634 -0.022784835 0.16308905 0.052745864 -0.29688987 0.44102705 0.0995113 0.18584853 0.16826737 -0.106074266 -0.3172523 0.0091193635 0.62115026 -0.0764751 -0.45501947 -0.054346878 0.50024265
orang -0.3530047 0.38270536 -0.19938852 0.1311698 -0.24671511 -0.71889716 0.3320765 0.11881521 -0.21339262 0.13655303 -0.59591484 -0.7118766 -0.039279673 0.018124241 0.31233436 0.07451539 0.25180376 0.07087723 0.12882766 0.05995112 0.25324455 0.11583571 0.24083057 0.11588684 -0.42343754 0.036024854 0.08753001 -0.23967712 -0.35173807 0.63874906 0.66223043 0.14606309 0.6014117 0.44714105 -0.18580228 -0.083521456 -0.17525798 -0.06604627 0.56345665 0.037206344 0.25461838 -0.3275744 -0.07881573 -0.35473984 0.16103487 0.26855308 -0.05279311 -0.3948175 0.47268814 0.5208015
tokped 0.30749434 0.20533538 -0.4797011 0.6206505 -0.6533426 -0.5448567 0.141472 -0.96894234 -0.06617634 0.3037252 -0.32466394 0.23947513 0.1498598 -0.41554058 0.20963596 0.14416797 0.41377252 0.41128552 0.4981287 0.3120956 -0.06634848 -0.047786858 -0.5058315 0.09580014 0.40512663 0.10860173 0.0056916294 0.3237194 0.039662912 -0.19361158 0.30744514 0.23512493 0.09402666 0.083145246 -0.14831917 -0.049706854 0.23499459 -0.6998466 0.7088159 0.4440723 0.6026141 0.11491099 0.23831066 -0.55444956 -0.106326245 0.63464975 0.1658436 -0.00029108993 -0.08813297 0.67954034
banyak -0.089976974 0.09392567 -0.4303074 0.38500762 -0.48402447 -0.64397514 0.11593867 -0.41713485 -0.038111053 0.0010287577 -0.41934633 -0.12098771 -0.20280962 0.043979235 0.24993697 0.09139382 0.13376606 -0.026650645 0.1631199 0.33007088 0.056439836 0.0030552072 0.1432116 0.16032639 -0.21007943 0.2515025 0.14998986 -0.11395408 -0.07673972 0.47023138 0.58221155 0.2167288 0.4649223 -0.034845002 -0.26046014 -0.04028952 -0.011937852 -0.3609561 0.35524514 0.052575577 0.51782954 -0.17886142 0.0724704 -0.39924476 -0.00873842 0.31602412 -0.29520577 -0.29250824 0.47666615 0.48441932
masih -0.029739147 0.02997903 -0.3139624 0.27265176 -0.53902555 -0.47737586 0.052642375 -0.33416227 -0.10550495 -0.07890934 -0.59031785 -0.1577898 -0.17173262 -0.0813941 0.1576971 0.057543 0.39476016 0.117907554 0.07249513 0.24440852 -0.18213187 0.18412146 0.16294141 -0.043044984 -0.2458536 0.2569253 -0.055168178 -0.20777221 -0.25849965 0.5056776 0.49717683 -0.12415922 0.5727741 0.12250797 -0.048186176 -0.14310086 -0.065790765 -0.28092074 0.5702167 0.21750677 0.51055723 0.19938171 -0.13031211 -0.45250085 0.1290065 0.56698614 -0.13842127 -0.3033304 0.26299575 0.5016312
sing -0.088051625 0.59916645 -0.6415045 -0.019651588 -0.07479083 -0.28632033 -0.1241037 0.035111476 -0.090211794 0.20918381 -0.13641031 0.38754407 -0.26769525 0.10277277 0.067799754 0.13512863 0.17357716 -0.46796185 0.4913733 -0.15879348 0.36462542 0.38721138 -0.022083873 -0.20727804 0.46406215 -0.45273393 0.50986254 -0.05195909 0.16051365 -0.3421461 -0.087430544 0.21726075 0.43615496 0.20717345 0.019955866 -0.19265524 -0.07311858 -0.72318286 0.97266525 0.043312136 -0.18549076 -0.051544283 0.1242543 -0.15156673 -0.024674097 0.656889 -0.66337675 0.32563904 0.69425744 0.5314995
atau -0.09008122 0.236297 -0.23710006 0.366946 -0.18666784 -0.6364818 0.17417742 -0.2986454 -0.09043049 -0.05745849 -0.50603604 -0.23184231 0.02742812 0.06644049 0.20082356 -0.019925088 0.2975322 0.18817222 0.071050264 0.032142587 0.091511555 0.25102013 0.20640777 0.072712846 -0.16492523 0.099838324 0.21647532 -0.14684065 -0.038874336 0.31739932 0.59853345 -0.09173566 0.51857704 0.18216833 -0.14846921 -0.045624364 0.13491727 -0.18756333 0.54399675 0.31823906 0.35474497 -0.055496115 -0.020617412 -0.3542547 0.12728144 0.5142879 0.01900658 -0.38941947 0.32752812 0.45442447
pake 0.06355997 0.12149203 -0.7807765 0.5033169 -0.44166285 -0.7426613 0.41909036 -0.24003537 -0.1843884 -0.2675713 -0.37779012 0.043187257 -0.024591539 -0.4305789 -0.001405022 0.047140904 0.0880924 0.30624807 0.1367213 0.20814334 -0.045451898 0.27336928 -0.25288898 0.24148738 0.16808374 0.119564146 0.04766762 0.14171684 -0.11584411 0.2671389 0.6391869 -0.17166035 0.19405885 -0.094208665 -0.11777094 -0.08395321 -0.014486019 -0.25976244 0.61398596 0.3048179 0.51090425 0.08862928 -0.16433108 -0.44173235 0.17420457 0.5678581 -0.18362522 -0.5011557 -0.029622748 0.6743582
i -0.42599925 0.74248856 -0.09114812 0.010040913 0.028419377 -0.38029838 0.19809805 -0.2567978 -0.39871442 0.14350483 -0.618 -0.3548366 -0.6371767 0.23590775 0.40887856 0.45869517 0.25304857 -0.7480208 0.14270906 -0.25059375 0.24205768 0.3800149 0.0006210981 0.079923436 0.23750834 0.08901685 0.3443409 -0.3873247 0.1560878 0.046007022 -0.28629506 0.37685123 0.30415952 0.43828753 0.11974285 0.59994763 -0.11931439 -0.8024339 0.9710508 0.048786394 -0.04421936 -0.27547422 0.38180843 0.36171472 -0.13308214 0.6726035 -0.49308965 -0.19307902 0.3137962 0.54957193
kalau -0.111988775 0.15795155 -0.3926079 0.37161666 -0.34546286 -0.48438945 0.18837899 -0.09355788 -0.033496443 -0.031179685 -0.5640417 -0.32060182 -0.108942255 -0.0047341296 0.11552036 0.0044484683 0.20310329 -0.0050032665 0.030512681 0.04057121 0.19118229 0.18541196 -0.05317001 0.13132848 -0.21851169 0.16489741 0.06683989 -0.38211328 -0.14872815 0.44840437 0.42731708 0.063461095 0.50163984 0.21379039 -0.45309636 0.09178071 -0.07718758 -0.32581204 0.6063647 0.25707757 0.48304728 -0.050018176 -0.0044132024 -0.3014362 0.0731627 0.48344725 -0.047088236 -0.27360848 0.25146288 0.5276214
gw -0.22830637 0.12008525 -0.36811736 0.30730924 -0.029244866 -0.50593275 0.19403617 -0.078816324 -0.031218102 -0.22255094 -0.6392591 -0.20307113 0.11884555 -0.12958571 0.15890558 0.04959704 0.16557269 -0.06449301 0.033777703 -0.010509584 0.111012354 0.2912452 0.1701288 -0.038837906 -0.23520632 0.19989815 -0.004225604 -0.15311757 -0.6794649 0.73373395 0.19335012 -0.23515412 0.48830512 0.55626464 0.21226509 -0.094924144 -0.27034876 -0.31311053 0.34997064 0.19593082 0.47485715 -0.09064803 0.03724024 -0.24328159 -0.24712409 0.6490213 -0.1036939 -0.55178714 0.098871544 0.8173536
iki 0.14039417 0.6453289 -0.4862194 0.20756903 -0.20017156 -0.22527827 -0.07552906 -0.20067167 -0.19098257 0.041628733 0.024608707 0.8379971 -0.3042421 0.34949622 0.055056904 0.2369316 0.2806886 -0.09556106 0.3330245 0.11459722 0.57645494 0.21947642 -0.0037912382 -0.34047014 0.49296734 -0.48253068 0.23938127 0.08730403 0.085457675 -0.33029807 0.1613775 0.3319413 0.090277284 0.22462574 0.15321797 -0.27823824 0.067356504 -0.575631 0.938859 0.26773226 -0.31177405 -0.05082171 0.05325812 -0.31950027 -0.008211049 0.81255376 -0.3365819 0.031258438 0.375337 0.7303818
baru 0.08152132 0.2347495 -0.3438495 0.29503408 -0.4275082 -0.38337022 -0.010041147 -0.2401432 -0.17054112 -0.16818365 -0.64529616 0.033814225 -0.23945655 -0.081943385 0.124142595 0.077040896 0.28942376 -0.074920595 0.08498524 0.3497137 -0.055030502 0.15952082 0.050260384 0.06675188 -0.11573615 0.11682826 0.096002325 -0.0736969 -0.23054953 0.47711504 0.33760673 -0.19493422 0.47854948 0.36647782 -0.08069078 -0.29279676 0.08239863 -0.25545752 0.45751283 0.41838142 0.4311059 0.17052603 0.077746466 -0.3388534 0.011747307 0.5465369 0.09957136 -0.26631287 0.041927356 0.45272782
kita -0.35913566 0.032404605 -0.5100026 0.17319676 -0.45748946 -0.60028 0.3024627 -0.08064978 0.30355904 -0.03308213 -0.65998554 -0.3720566 -0.05745602 0.14260614 0.26638275 -0.0655735 0.30453676 0.041178606 -0.005217164 0.15561745 0.12907366 0.05267243 0.0630097 0.06126812 -0.38736945 0.14624986 0.18250398 -0.43566486 0.00048268752 0.23919451 0.5740297 0.30911073 0.76462483 0.24588849 -0.3684374 0.08928489 -0.1717751 -0.0011969956 0.7044974 0.27862397 0.17025878 -0.10017532 -0.047315978 -0.37343338 0.039588157 0.24954624 -0.053221986 0.015319491 0.31260553 0.63485694
I -0.35164666 0.5701362 -0.16570434 -0.17363067 0.17154464 -0.49830082 0.14863385 -0.31083378 -0.4292633 0.04890408 -0.7001965 -0.49802136 -1.1249475 0.3088552 0.6180572 0.45133638 0.30818838 -0.66758853 0.07647497 0.003689076 -0.015138337 0.2905853 0.014480659 0.19696973 0.00781279 0.29184884 0.56659925 -0.48951387 0.24837345 0.19551693 -0.34849626 0.4077988 0.49809432 0.71069646 0.20640194 0.43483105 -0.106066875 -0.80568063 0.86698085 -0.10123074 0.18262745 -0.31892005 0.3412862 0.51710045 -0.2919469 0.9032544 -0.34565803 -0.26988983 0.14748015 0.5906474
nggak -0.04407049 0.22839746 -0.24342202 0.0933898 -0.19713816 -0.6074052 0.12142427 -0.1681798 -0.16572584 -0.14386487 -0.5657757 -0.5428049 -0.3365883 0.016241869 0.32881692 0.19728382 0.15713716 -0.27113527 -0.11579365 -0.18797478 -0.032161325 0.29508522 0.106614165 -0.11516064 -0.20843661 0.40662345 -0.0028334477 -0.18947977 -0.38458788 0.4946067 0.3928823 0.17953895 0.5939939 0.34757292 -0.4879706 0.035169307 -0.23257983 -0.3873253 0.6563794 0.10510367 0.36861536 -0.12410961 0.10603344 -0.09705775 0.17968762 0.6081142 -0.031858243 -0.29741094 0.37745747 0.39031187
RT -0.07427809 0.46734875 -0.3664753 0.28064835 -0.20892061 -0.4080564 0.05983016 -0.3638011 -0.3803963 -0.33482903 0.3836104 0.8628576 -0.56163704 0.5581346 -0.059252564 0.51297724 -0.13485289 -0.51395375 0.2433996 -0.12542132 0.36709842 0.2267824 0.023697091 -0.73272383 0.91524684 0.18016379 -0.009224125 -0.19129443 0.40065584 -0.017463846 0.2816668 0.15223756 -0.23021977 0.19897467 -0.13368669 0.19947042 0.3261522 -0.738605 0.98439187 0.38308826 0.12161149 0.08998205 -0.11534192 -0.49921528 0.073726326 0.6518465 -0.05602955 -0.0895488 0.24187644 0.69141734
kamu -0.37575856 0.10656791 -0.4920852 0.34715357 -0.314911 -0.49815992 0.47549888 -0.19381244 0.00039707255 -0.016552776 -0.7046828 -0.28244105 -0.35840732 0.09374711 0.3095845 0.06647819 0.024568407 -0.05448153 0.09896686 0.20007579 0.15297198 -0.099539295 0.22389461 0.098438516 -0.27177393 0.3621764 0.31433544 -0.42127466 -0.043201882 0.5757898 0.51606745 0.52709675 0.8258868 0.178923 -0.5257813 -0.013633781 0.026110342 -0.12647636 0.81012005 -0.07286487 0.021418383 -0.2621983 -0.053635858 -0.31055343 -0.091749884 -0.0073956093 0.07074711 -0.22384511 0.31250972 0.41759494
- -0.11937915 0.32592946 -0.03663127 0.2832507 -0.38515106 -0.43058312 -0.10521655 -0.30982137 -0.46114603 -0.1641452 -0.4281407 0.21690471 -0.65723556 0.37929475 0.5940846 0.063021734 0.31241935 -0.3104875 0.16007748 0.25055346 0.20948182 0.18719853 0.17164014 -0.13542756 -0.083292514 0.30913436 0.01391441 -0.07709501 0.08623504 -0.023659278 -0.22765754 -0.30409816 0.60849667 0.14625873 0.12050132 0.054351266 0.067392364 -0.67008704 0.34519085 0.35756814 0.1984068 0.0063566808 0.076344386 -0.12042683 -0.041783515 0.79224145 0.092734285 -0.042174555 0.16311622 0.27271876
cuma -0.040335577 0.48150745 -0.5985705 0.2840328 -0.33411738 -0.5260301 0.0066862386 -0.35061517 -0.09929423 -0.18354288 -0.48754779 -0.1332167 -0.12269004 -0.23286447 0.17885864 0.069976516 0.18150604 0.052857567 0.101764925 0.23791522 -0.02925658 0.44777688 0.144541 0.0099164285 -0.026393173 0.09125559 -0.0012373915 -0.06270572 -0.26066208 0.43959522 0.31719247 -0.110913865 0.4307009 0.18891664 -0.2010637 -0.047244087 -0.18799207 -0.20944239 0.3688442 0.073467 0.20659477 0.052871596 -0.102239616 -0.26260382 0.1055744 0.43702108 -0.15216048 -0.4608712 0.2555185 0.46947327
the -0.0075423024 0.51375604 0.09067825 0.63984 0.014092651 -0.78322834 0.23819485 -0.9315166 -0.22393182 0.029167777 -0.60803187 -0.4031626 -0.63866717 0.2818913 0.44523552 0.3937287 0.17991999 -0.70892525 0.14388423 0.4050485 0.22517467 0.15560272 -0.1706526 -0.14939307 -0.11629668 0.6556654 0.27195296 -0.19568583 0.5844431 0.078679554 -0.3670884 0.23137149 0.5796556 0.34338433 0.06884508 0.30657047 -0.22498506 -0.46397853 0.8219186 -0.25287163 0.049082104 -0.25915694 0.10273047 0.15663563 -0.25076094 0.8542666 -0.30074596 -0.45551655 0.36752677 0.16985728
semua -0.28984836 -0.015612085 -0.25037092 0.37729526 -0.46664953 -0.660977 0.3015608 -0.2517589 -0.087119885 0.16583055 -0.8498832 -0.34926403 -0.15952292 0.28056613 0.4280219 0.1071078 0.15124637 -0.16920337 0.15057956 0.3990941 0.21609178 0.10015952 0.18706042 -0.035872575 -0.36578098 0.38798553 0.26831147 -0.30207953 0.045598153 0.54068744 0.5554895 0.327552 0.65737003 0.014725874 -0.2543416 -0.111609615 -0.13539118 -0.20797636 0.4665486 0.022076711 -0.02535678 -0.13716152 -0.12832178 -0.205914 -0.06297902 0.06598372 -0.19520956 0.04185177 0.46346268 0.55849653
sampe -0.045249715 0.19500756 -0.46237817 0.32767773 -0.29499567 -0.3274728 0.010517908 -0.30418307 -0.19796576 -0.18200843 -0.6016878 0.05285054 -0.37941667 -0.1614143 0.13925497 0.08964412 0.24172443 0.05927058 0.108868785 0.2812528 -0.12357399 0.45932576 0.0471353 0.029777395 -0.00069624156 -0.15397097 0.050416894 0.012371457 -0.13114084 0.37372923 0.23320009 -0.14981723 0.6234015 0.33456028 0.03738772 -0.24075791 -0.11263777 -0.2513358 0.44363007 0.06420454 0.38290542 0.42920932 -0.0053784475 -0.42552322 -0.11232121 0.6070903 0.03903998 -0.14779468 0.122235075 0.40804988
lebih -0.26300317 0.26381147 -0.47956786 0.23884015 -0.5174798 -0.7293149 -0.011016902 -0.3635958 0.052716956 -0.122076504 -0.63014406 -0.37809876 0.059269097 -0.13071674 0.33134648 0.08222314 0.13116342 0.12547198 -0.04501658 0.26581416 0.016615987 0.4836682 -0.17702113 0.13146558 -0.23833354 0.23425363 0.18926372 0.02297272 -0.23725209 0.30361447 0.53590107 0.13535726 0.36890954 -0.11919538 -0.6169299 0.035512526 -0.020385908 -0.3296855 0.5349197 0.17346908 0.3531898 0.043560527 0.063804604 -0.5017356 0.12527555 0.3285413 -0.20198986 -0.3396263 0.3534586 0.6175225
emang -0.0495996 0.4093185 -0.57716334 0.25492933 -0.26575056 -0.65954125 0.20678568 -0.18628147 -0.22106567 -0.11034888 -0.53781706 -0.33110029 -0.07578736 -0.27182356 -0.07701237 0.14460538 0.03171675 -0.04016794 -0.14007671 -0.05429725 0.40418008 0.43939897 0.17374831 0.18820906 0.064854205 0.057725437 -0.104030386 0.038768057 -0.08988728 0.20475242 0.43253762 0.12786138 0.06447411 0.039887074 -0.14976834 0.04128511 -0.20491835 -0.2795729 0.5630308 -0.034196902 0.26573187 0.008755189 0.0005420719 -0.101515315 -0.03054004 0.66122043 -0.54743683 -0.5398256 0.17198066 0.42070258
tak 0.104030594 0.06684065 -0.6745048 0.08155735 -0.47256535 -0.15660381 0.18259238 -0.04313025 0.041970424 0.435385 0.23434234 0.73844457 -0.55396605 0.24860805 -0.14865191 0.19044916 0.54745317 0.088322885 -0.00533749 0.1986963 0.3015194 0.23581855 0.09933134 -0.5547234 0.22856022 -0.34701976 0.4279753 -0.06287824 0.2795857 -0.024545107 0.31377298 -0.012604305 0.16217023 0.38516256 0.12231992 -0.42025417 0.21745749 -0.33016872 1.1932124 0.17783044 0.021628037 0.09687388 0.033625994 -0.23058532 0.21318154 0.61149466 -0.29239812 0.11696708 0.20085801 0.7490418
gua -0.10578483 0.19365804 -0.35647678 0.402557 -0.37668404 -0.6506914 0.3264591 -0.19441575 -0.21992925 -0.099203035 -0.5875079 -0.4346896 -0.08762284 -0.045699716 0.19118951 0.15377161 0.0811063 -0.111317165 -0.11455071 0.08518912 -0.07245175 0.19661641 0.265615 0.26955548 -0.23518248 0.14123565 -0.0036585885 -0.23883364 -0.5547365 0.7802864 0.34232914 -0.2112147 0.48844087 0.52311313 -0.07499429 -0.096165985 -0.09396222 -0.3488654 0.28194273 0.11499568 0.45356873 -0.07336206 -0.021431487 -0.3179462 -0.1310855 0.4068428 -0.046453726 -0.41486236 0.14653829 0.8389328
wae -0.08745729 0.5425228 -0.6338549 0.055587377 -0.12422926 -0.23126006 0.1830409 0.19157016 0.04443958 0.18187515 0.19938013 0.7125826 -0.35632893 0.41390628 0.054508302 0.35449716 0.31575242 -0.15287702 0.43678665 -0.012165772 0.62368536 0.21563812 -0.08490974 -0.6227528 0.5178912 -0.5773242 0.11963514 -0.12353151 0.27128038 0.010536751 0.2769806 0.15666303 0.2909754 0.32953882 -0.06711877 -0.4518512 0.030392746 -0.5656461 0.86719686 0.5265661 -0.042301107 -0.00945391 -0.32628867 -0.369651 0.16111986 0.44418702 -0.3196389 0.037480254 0.2996941 0.859317
my 0.026822597 0.5970099 0.21359318 0.46980348 0.13853358 -0.5264529 0.26108378 -0.7769338 -0.47157508 0.12588765 -0.775522 -0.42470706 -0.4009945 0.5350424 0.44930044 0.2804598 0.2754941 -0.67194 0.2586011 0.3107541 0.0988331 -0.2332023 0.049829673 -0.13393705 -0.08389369 0.25770253 0.28546172 -0.5168917 0.4171033 0.113642134 -0.41691795 0.2895961 0.46287403 0.6622577 -0.096509784 0.5882294 -0.15300211 -0.72450566 0.6137552 0.1631894 -0.05201329 -0.42580527 -0.08855613 0.5293599 -0.05454469 1.0580931 -0.16227408 -0.36394164 0.25721654 0.65613174
nek -0.016192986 0.76773554 -0.57525885 0.36037704 -0.12752256 -0.16742098 0.042646136 0.3046676 -0.11433928 0.24268699 -0.08237688 0.82850647 0.034319002 0.30428255 -0.06907051 0.17979382 0.4959713 0.040249065 0.48845714 0.01502557 0.5326377 0.45438674 -0.0046584206 -0.34825125 0.56050634 -0.5392051 0.27365664 0.0694305 0.1267751 -0.23659277 0.28773752 0.09665159 0.09669532 0.5488637 0.2045292 -0.31414717 0.124098785 -0.44977498 1.0018374 0.27353168 -0.07524601 -0.102307886 0.0029515363 -0.40072247 -0.030149432 0.688288 -0.4813146 -0.06430256 0.31290784 0.7257713
mereka -0.20729782 0.31440163 -0.33431244 0.33968967 -0.3464839 -0.6647206 0.23282397 -0.15883964 -0.038880024 -0.027426144 -0.45194292 -0.3716276 0.08211467 -0.09709697 0.39161178 0.2551064 0.17093053 -0.14163294 0.11139528 0.13527392 0.20733835 0.21295859 0.19136186 0.17322299 -0.32892334 0.25883508 0.052915495 -0.43607748 -0.3089427 0.4433654 0.5300032 0.12227056 0.50994104 0.20147912 -0.040152468 -0.045763463 -0.1835929 -0.34762844 0.52965105 -0.102087185 0.35084552 -0.0776035 0.11932733 -0.07944114 0.1809851 0.3489358 -0.17923944 -0.38520524 0.35668677 0.5421329
ora 0.24525021 0.8395421 -0.6514385 0.0873827 0.02936284 -0.3881894 -0.09387615 0.28646952 -0.19442248 0.16289344 -0.0040486683 0.5494362 0.3783741 0.25234848 0.06223772 -0.11407359 0.21366113 -0.06337737 0.3170073 -0.017696671 0.5087194 0.4507909 0.0046875007 -0.3391887 0.5408611 -0.61974674 0.42241102 0.065957434 -0.16917722 -0.1201373 0.45729953 -0.08578103 0.28550422 0.48695305 0.15247355 -0.27979285 -0.0036872805 -0.4677769 0.76423573 0.49809822 0.080268204 0.08753116 0.14029117 -0.43492103 -0.22384298 0.8479962 -0.5671679 -0.12946272 0.2731928 0.58443177
bener 0.086699195 -0.33310688 -0.4497361 0.046643592 -0.19402198 -0.6718777 0.36543882 -0.5346225 -0.23124865 -0.5549487 -0.4731636 -0.39553788 -0.1393158 0.20132507 -0.0017426785 0.17883573 0.26531106 -0.015347543 -0.14276429 0.28991863 0.3629119 0.69521326 0.054296415 0.15286358 0.04966558 -0.119498655 0.052586697 0.0018630691 0.03231483 0.2115415 0.3178704 0.25924364 -0.120090365 0.73078406 0.040040866 0.058978215 -0.57519734 0.073981635 0.811913 -0.21062212 0.64718956 -0.008315676 -0.31987584 -0.41507664 -0.21152408 0.49270937 -0.26220495 -0.03582692 0.2823342 0.5746902
pernah -0.1331876 0.3795007 -0.32131758 0.26257974 -0.26643112 -0.5096248 0.3270053 0.037657216 -0.14974733 -0.036107898 -0.45197695 0.026243431 0.034366947 -0.030285323 0.22817694 0.046977337 0.33704758 -0.051510528 0.066605076 0.03062007 -0.06017337 0.24856906 0.09450386 -0.07161755 -0.19421013 -0.107529834 -0.09340161 -0.13261436 -0.35950118 0.55125576 0.51065254 0.016009878 0.22119722 0.31945568 0.09714788 -0.10591163 -0.07446533 -0.17325054 0.454927 0.1391724 0.35077465 -0.12950394 -0.12588511 -0.2462633 0.06090916 0.3961282 -0.07273227 -0.42947263 0.3625989 0.7537581
a -0.057728596 0.24744853 -0.07334042 0.2189916 0.02634187 -0.5774292 0.17056538 -0.5347109 -0.35991964 0.03160676 -1.0805762 -0.35305813 -0.71228975 0.4260505 0.68259734 0.16649912 0.24570015 -0.5936529 0.3409732 -0.093183205 0.38415277 0.23384437 0.25965974 -0.26207197 -0.07697424 0.46620926 0.31525445 -0.5359242 0.54940027 0.029988363 -0.12980099 0.6422847 0.3591718 0.1496362 -0.06616097 0.3594673 -0.33798492 -0.74011964 0.9349727 0.09460804 -0.31342083 -0.12802155 0.07970858 0.59754086 -0.39604518 0.8495919 -0.246638 -0.017835082 0.27348667 0.5222381
and -0.14023274 0.56105727 -0.18499541 0.31978208 -0.06358985 -0.49740368 0.3432935 -0.7534327 -0.37482917 -0.054724425 -0.83233094 -0.3866025 -0.6677242 0.16127487 0.5878292 0.27165723 0.23373762 -0.8372421 0.16886252 0.03865281 0.14194302 0.109698504 0.02648978 0.07625948 -0.011118751 0.41479704 0.26442134 -0.55228245 0.33825678 0.3122053 -0.4281941 0.3803153 0.6904868 0.5165333 -0.19232607 0.4120025 -0.2597838 -0.58729744 0.69556236 -0.26332167 0.19576305 -0.39161846 0.21565579 0.28638518 -0.12224999 0.7784365 -0.346678 -0.39975423 0.1381989 0.3461481
hari -0.1711932 -0.09828117 -0.37291327 0.65078294 -0.50595057 -0.50658786 -0.16993818 -0.5048866 -0.13746233 0.19730586 -0.63169014 -0.019289073 -0.45558625 0.1135811 0.21968229 -0.0316277 0.16389339 0.031172443 -0.0013909151 0.6864472 -0.3325644 0.15191783 0.023805924 0.0039148647 -0.16810355 0.28183132 0.3820035 -0.18269159 0.13153674 0.60033214 0.45831078 -0.11791813 0.8139155 -0.006726941 -0.38631612 -0.39762956 0.17850953 -0.16767856 0.21321943 0.1344007 0.16450828 0.365188 -0.2878618 -0.52341294 -0.1676717 0.74216443 0.01233073 0.017541066 0.20134532 0.43576717
wes -0.15036346 0.7148946 -0.5254092 0.2867199 -0.23237538 -0.030426191 -0.038349334 0.11751765 -0.272981 0.2500201 0.010213335 0.77399826 -0.1812045 0.4601503 0.032988723 0.13758679 0.35341397 0.09010997 0.39375067 0.014014958 0.6836791 0.15630825 -0.043455254 -0.21303107 0.50932324 -0.58523977 0.22501954 0.13534072 0.09679786 -0.3107485 0.30640337 0.10921976 0.39963356 0.36710206 0.25210533 -0.2254819 0.24836081 -0.42217547 0.8489014 0.4803131 -0.10152806 0.12636489 -0.19830957 -0.31371027 0.12455522 0.8399452 -0.3874604 0.029162167 0.06796662 0.9384584
tuh -0.21051522 0.25806755 -0.40342435 0.25129625 -0.14618945 -0.79001343 0.3463261 -0.21120271 -0.08030166 -0.1680351 -0.51284343 -0.23821571 0.008538306 -0.17249437 0.2797389 0.17197853 0.28827247 0.08829755 -0.016923774 0.01594768 -0.060199495 0.27881524 0.090689346 0.29925984 -0.0025669301 0.098611906 -0.048993807 -0.06422829 -0.34632972 0.3309344 0.59756553 0.0026062543 0.21453084 0.38910362 -0.09711971 -0.042195264 -0.12473724 -0.19806817 0.45297077 0.004367344 0.6861035 -0.1517714 0.00929062 -0.2835667 -0.028409958 0.45916298 -0.12248063 -0.48883426 0.2663631 0.68980324
Aku -0.099476136 0.3982381 -0.33631378 0.071249716 -0.20307748 -0.43881455 0.088139705 0.028987736 -0.14114177 -0.15063281 -0.27954608 0.37151745 -0.44160128 0.2125147 0.17289478 0.25760993 0.25648645 -0.034901008 0.11450937 -0.085475154 0.18708554 0.1745717 0.1921196 -0.26552206 0.14960766 -0.22548959 -0.0026040631 -0.19659647 -0.001987426 0.11500661 0.48242018 0.22068006 0.15206012 0.36165157 -0.022586606 -0.09377624 0.08624973 -0.35891283 0.5259617 0.1157152 0.045380943 -0.073947 0.10131956 -0.33924723 0.075384915 0.48557034 0.07444073 -0.23366247 0.15386468 0.57086426
iso 0.20573296 0.66803277 -0.66594726 0.09077895 -0.20365761 -0.4035457 0.0030638834 0.122344755 -0.13488398 0.18959539 0.36672497 0.6711676 0.14823635 0.26609954 -0.02684591 -0.0023902215 0.24898255 -0.023333533 0.2519256 -0.09155732 0.4471393 0.11558901 -0.14635992 -0.28507677 0.56159735 -0.66755575 0.5128612 -0.15005079 -0.103811204 -0.16522706 0.5231517 0.23588085 0.096508294 0.5262765 0.40291134 -0.34417614 0.33670056 -0.4424317 0.8687729 0.5460368 0.14981179 -0.22180459 -0.1986594 -0.61037034 0.0018610032 0.77625823 -0.5055485 0.058151394 0.36692378 0.890967
; 0.0011813227 0.13247646 -0.5967171 0.16938135 -0.48036513 -0.6873141 -0.09500709 -0.17924301 -0.41608417 0.82216924 -0.035777256 -0.042165004 -1.0264257 0.6075402 0.229843 -0.09330884 0.22462216 -0.3607354 -0.14703949 0.10821821 0.04938574 -0.19792023 0.50291157 0.19828579 -0.46317926 0.06816672 0.848664 -0.46660382 0.08594451 0.39789176 0.6419118 0.4502495 0.67888206 -0.32811904 -0.047682323 -0.30316466 0.19894771 -0.7559249 0.003113218 -0.27721414 0.5158897 -0.21810356 0.2782095 -0.21255477 -0.72367823 0.9558656 -0.7912727 -0.13455474 0.6950891 0.14482354
gimana -0.26281705 0.35280988 -0.0363273 -0.113670975 -0.1052797 -0.70228815 -0.028263068 -0.02429229 -0.40113544 0.062169958 -0.50786155 -0.5138047 -0.21259083 0.038352713 0.2032457 -0.10136606 0.53633136 0.16678403 -0.17417662 -0.32612106 0.3428543 -0.15215455 -0.014189318 -0.19555973 -0.15206698 0.16526127 -0.21319562 -0.25415924 -0.36497644 0.68993807 0.68847346 0.15187767 0.2681695 0.6686121 -0.32825983 -0.13765094 -0.079700604 -0.20777671 0.6369782 0.5832255 0.50494003 -0.46097183 0.09109065 -0.22132635 0.1543637 1.0276724 0.51501024 -0.26448995 0.41309547 0.33673036
ï¸ -0.048001707 0.40481803 0.31159604 0.41617924 -0.11143372 -0.9826188 0.31016073 -0.78012675 -0.14839965 -0.55991143 -0.53789407 0.75046486 -1.0119042 0.45513132 0.93700576 0.3033899 0.21613716 0.17169893 0.14753942 -0.027504725 -0.048709486 0.24870312 0.28324604 -0.5030529 -0.543211 0.093485765 -0.14659765 -0.2260171 1.247677 1.0660169 0.1751454 0.74627614 0.4652658 0.30893543 0.5077849 -0.19798562 -0.12934205 0.46345866 0.4431146 0.32712623 -0.46783796 -0.8557312 -0.452203 0.18470608 0.18052247 0.61799926 -0.093758315 -0.9124359 0.0670792 1.0473439
lama 0.0007325937 0.12710255 -0.37715828 0.62459546 -0.76120466 -0.4634676 0.25042525 -0.2686088 -0.24197099 -0.09169757 -0.50311905 -0.01582312 0.10970088 -0.353534 -0.30184615 0.36809582 0.23734313 0.2670114 -0.02625612 0.37074238 -0.32705513 0.124818005 -0.26512325 0.31205788 0.057761587 0.0124310395 0.055178043 0.21905647 -0.2089651 0.9035271 0.5503678 -0.36987144 -0.07936046 0.32534897 0.07522487 0.1465253 -0.09872183 -0.15201774 0.6172965 0.37407508 0.36370376 -0.0115368115 -0.15909792 -0.853827 0.29377857 0.84612167 -0.16171624 -0.77398396 -0.14895321 0.679754
ra 0.17934011 0.778235 -0.5613784 0.09356821 -0.12556894 -0.32680392 0.022916604 0.40473282 -0.1356001 0.2327732 -0.023737267 0.70927036 -0.03733018 0.18841094 -0.00869677 0.069076285 0.4704275 0.05287661 0.4190074 -0.064989775 0.62973154 0.42908606 0.05126357 -0.18957527 0.32182437 -0.57994825 0.3243324 -0.076326154 -0.00794527 -0.1669557 0.15169367 -0.07468772 0.20413238 0.40497005 0.37407443 -0.29918432 0.088000424 -0.56723475 0.9083597 0.21617511 -0.19291407 -0.15283972 -0.023121595 -0.37917104 0.023817815 0.8424756 -0.5222097 -0.046975303 0.42801902 0.7179237
me 0.05460191 0.63670397 -0.20018966 0.20433894 -0.057839688 -0.4956 -0.14671917 -0.48885885 -0.55601424 0.30207798 -0.26655883 -0.17883465 -0.6733297 0.4544173 0.43812442 0.3496301 0.2592692 -0.96597725 -0.076892145 -0.06681555 0.23398156 0.051755205 0.059952248 -0.13994543 -0.08294281 0.5017306 0.28123078 -0.43431386 -0.047029756 0.3377549 -0.17185684 0.43073437 0.27047524 0.4798916 -0.40883487 0.15438715 -0.54827267 -0.7359732 0.6980181 0.026809225 0.008611722 -0.646668 0.29965577 0.28957123 0.019392664 0.9553846 -0.1729084 -0.3304819 0.4173977 0.32144096
udh 0.06569573 0.17995338 -0.21339929 0.4513204 -0.57303154 -0.5929301 0.27781332 -0.29590365 -0.1964469 -0.12969545 -0.59889776 -0.29046717 -0.10270624 -0.19434835 0.26824766 0.196627 0.19262412 -0.01794673 -0.011457963 0.18885276 -0.046039212 0.22140694 0.113432296 0.22585587 -0.055957165 0.21690811 -0.10380903 -0.033209503 -0.21622516 0.52066493 0.45650107 0.035206314 0.5030952 0.32328075 0.03811773 -0.05815111 -0.041456636 -0.12133362 0.491392 0.05427641 0.6049795 0.077446155 -0.08000585 -0.47746336 -0.11895736 0.47959304 -0.11373959 -0.40869603 0.11849523 0.5690499
& -0.124549076 0.1363756 -0.4987558 0.28580648 -0.5473463 -0.5784993 -0.06865939 -0.22302371 -0.3101516 0.776535 -0.06019536 0.04634702 -0.80834657 0.39138567 0.26897767 -0.1550283 0.16749685 -0.40004846 -0.36652422 0.16478074 0.023451464 -0.13611774 0.5948608 0.20962164 -0.28948525 0.06749479 0.8569861 -0.59808666 0.06717776 0.36845207 0.7308861 0.5581332 0.5913558 -0.20512477 -0.1343187 -0.23477823 0.16693525 -0.64945745 0.049045455 -0.29904604 0.43120092 -0.3856635 0.15155743 -0.15483578 -0.7415706 0.8737881 -0.8628159 -0.11361183 0.8306437 0.23180197
harus -0.12933058 0.046996873 -0.42486143 0.2895468 -0.48048747 -0.6597138 0.17186667 -0.16160306 0.041344706 -0.04294212 -0.62141705 -0.27607563 -0.077138565 -0.091859676 0.12691668 0.027043145 0.17055292 -0.0013718402 0.11837708 0.24562888 0.018633444 0.321285 0.060304083 0.10404742 -0.22132169 0.0792414 0.25212172 -0.12515356 -0.1039023 0.4264111 0.31420016 -0.06408854 0.7090199 0.15560795 -0.34128404 -0.0624088 0.025608134 -0.17989187 0.51035255 0.25080365 0.35298464 0.15379871 -0.08402238 -0.50224876 -0.021927414 0.5289438 -0.07618031 -0.3427656 0.20709708 0.39594916
dah -0.05176589 0.06491455 -0.2477474 0.3684743 -0.49685448 -0.56632704 0.18041052 -0.31296748 -0.14839809 -0.100541115 -0.46206874 -0.15120302 -0.1210891 -0.22823797 0.09857818 0.1735157 0.33189395 0.1702759 -0.10449886 0.10742047 -0.05673821 0.22164518 -0.021897761 0.051951285 0.10676276 0.04390814 -0.040383033 -0.0061684796 -0.3116053 0.41859606 0.4733171 -0.1901163 0.449646 0.39363515 0.12173592 0.027932368 0.021449314 -0.25964975 0.5317314 0.25684825 0.6123421 0.07718608 -0.060531028 -0.39129975 0.027787527 0.6408953 -0.032373343 -0.33538058 -0.044333152 0.677826
lain -0.061306793 0.39378732 -0.37033075 0.13504444 -0.3156891 -0.6978077 0.108159296 -0.0071157087 -0.2535841 -0.024411984 -0.6637444 -0.38874128 -0.02300312 0.045683227 0.2921096 -0.04817561 0.20997529 0.11455243 0.065208465 0.12473865 0.09219785 0.27876073 0.25904426 -0.10696106 -0.28886285 0.09681546 0.2454143 -0.23009153 -0.36500815 0.5880856 0.49049723 -0.009324151 0.6337297 0.2861265 -0.1189976 -0.19427781 -0.048639596 -0.10031972 0.38289243 0.017562777 0.5505247 -0.043442618 0.009180828 -0.4180382 0.16191031 0.37150857 -0.10791653 -0.36215726 0.49634 0.37571433
wis -0.13880162 0.7958583 -0.55050033 0.12287675 -0.110088006 -0.21180756 0.08464439 0.23089364 -0.063945375 0.10882739 0.002870755 0.6331077 -0.19487496 0.5215118 -0.1663666 0.21957272 0.22796264 -0.20102866 0.5155934 0.16849968 0.686647 0.42018586 0.0012380306 -0.12777908 0.665597 -0.40484512 0.22816302 0.0925816 0.15618192 -0.23780704 0.29577848 0.0654966 0.3115987 0.27054775 -0.07791526 -0.32800886 0.22024009 -0.5496333 0.831178 0.57888955 0.045841325 0.29195264 -0.36089003 -0.3616617 0.1416955 0.55456895 -0.41861856 0.0946426 0.44781703 0.6824621
ki 0.03188424 0.9572852 -0.6657825 0.18520866 -0.13465184 -0.2736655 0.056935754 0.33197242 -0.18095496 0.06848448 -0.08781575 0.88595074 0.040378734 0.33385697 -0.003873143 0.1598069 0.29465088 -0.10024552 0.3746292 -0.013094706 0.7168091 0.48135158 -0.07716213 -0.23874973 0.49848914 -0.49311176 0.36337364 0.060940433 0.19937564 -0.35402873 0.2952759 0.05949206 0.0321449 0.3954371 0.10615602 -0.024708001 0.014662722 -0.6054823 0.9289913 0.29377443 -0.2068122 -0.04578255 0.02067011 -0.26591495 0.0033205333 0.71323484 -0.7133301 -0.05285281 0.36549792 0.6709449
akun -0.08421439 0.25936216 -0.31058082 0.2948769 -0.27173477 -0.60806507 0.110623166 0.17267363 -0.18204436 0.11330966 -0.372634 -0.08787448 0.14579713 -0.0767283 0.06520705 -0.27227533 0.48238528 0.12188368 -0.08544777 0.01682449 0.16060601 0.033769693 0.010428174 0.1331979 -0.1320486 -0.18924765 0.24468648 -0.041952662 -0.539218 0.64293253 0.5531245 -0.09162842 0.29616904 0.555264 -0.09252863 -0.07231265 0.06125987 -0.32734513 0.39539018 0.37255785 0.4286878 -0.16177908 -0.09985765 -0.44777146 0.32079455 0.61739886 -0.17726249 -0.30322185 0.34943944 0.6743483
punya -0.3601595 0.4891689 -0.39843085 0.40896428 -0.121558785 -0.45900798 0.433687 0.07586936 -0.31420454 0.014135595 -0.7157767 -0.44567677 -0.09889154 -0.23770621 -0.055075694 0.16795711 0.01854242 0.062424485 0.011278148 -0.27493668 0.31643838 0.16707121 0.24011385 0.41093898 -0.060041774 0.2347078 0.06388689 -0.022373997 0.09598299 0.5005655 0.4576117 0.040468514 0.21214788 -0.16580243 -0.11759126 -0.092777565 0.11466014 -0.45526555 0.49121687 -0.06502783 0.3354187 -0.28647518 -0.111912295 -0.0953281 0.06666939 0.65814453 -0.6317032 -0.4952867 0.35999608 0.48481023
jg -0.0863266 0.22305973 -0.49809518 0.25395846 -0.3860931 -0.67512363 -0.04389377 -0.2577773 -0.26402617 -0.05917422 -0.38333377 -0.24105124 -0.03673416 -0.15240306 0.23187637 0.10483915 0.25816262 -0.015065794 0.14335719 0.26022205 0.01565395 0.23850848 0.16358334 0.17848518 -0.048132844 0.362361 0.26042533 -0.14722264 -0.22794701 0.49656734 0.44778237 -0.013533313 0.43131098 0.14109147 0.13909023 -0.050900787 -0.05667884 -0.26451156 0.24950819 0.01745435 0.62113094 -0.09346041 -0.07482664 -0.36684033 -0.020619014 0.5332943 -0.35345605 -0.49043542 0.4048831 0.35339352
nonton 0.046275806 0.22091976 -0.42089847 0.61301464 -0.30072665 -0.62751985 -0.13393645 -0.3585558 -0.1285457 -0.1636972 -0.44599724 -0.0076687066 -0.19461639 -0.023189044 0.41080582 0.031324085 0.14681154 0.11246321 -0.13518043 0.2746606 -0.17068854 0.12810105 0.1017793 -0.091348544 0.15501487 0.2774073 0.221539 -0.3339836 -0.13014647 0.41820344 0.37226993 -0.06613335 0.3272338 0.09790773 -0.10386268 -0.12401199 -0.15401112 -0.095273145 0.2869744 -0.001627337 0.30684042 0.05200313 -0.1574525 -0.13977855 0.030281696 0.7518808 -0.034602653 -0.49391988 0.3350794 0.49894664
wkwk -0.012295039 0.35594434 -0.47359502 0.19975498 -0.1843383 -0.38141078 0.21216194 -0.031022428 -0.123761915 0.014526662 -0.35077873 0.015994316 0.03460603 0.10392749 0.1232877 0.100884795 0.2626248 -0.06706174 0.29032406 0.011768644 0.24316366 0.33322313 0.19506642 -0.022155777 0.17360914 -0.2537935 0.13447797 -0.10226712 -0.1256383 0.08522573 0.25491354 -0.082806125 0.1934208 0.33393395 -0.019871682 -0.055646036 -0.01928068 -0.3872605 0.69505507 0.26225522 0.2501608 0.0522166 0.12486806 -0.25945085 0.13976681 0.48224846 -0.18189785 -0.23897097 0.24872088 0.5007353
lah -0.1231269 0.3290177 -0.44428334 0.10346943 -0.2640471 -0.37812564 0.27017403 -0.21249308 0.03617032 -0.23530677 -0.48154587 0.08629718 -0.087118685 -0.20322987 0.29560542 0.34973213 0.066348925 -0.009634426 0.20933926 -0.02293834 0.22781944 0.29497725 -0.11321105 0.04546979 0.13065073 -0.049509518 -0.0031818314 -0.14725153 -0.10446458 0.07090987 0.35989398 0.17185293 0.1944164 0.42749843 -0.04488015 0.045653395 -0.03795788 -0.22769573 0.6722208 0.24316387 0.3059641 -0.06924977 0.03658663 -0.42921332 -0.036255054 0.34475774 -0.17657483 -0.14891703 0.024131818 0.61770594
suka -0.2251648 0.29422888 -0.16289306 0.16366947 -0.26154166 -0.8371777 0.31686786 -0.09994257 -0.05759864 -0.10388909 -0.48074454 -0.21003172 -0.16389292 -0.13384849 0.25865147 0.30402845 0.38824543 -0.048151117 0.01521907 0.10189536 -0.07201459 0.31876767 0.06879859 0.07747678 -0.16443034 -0.03317803 0.12148995 -0.27612597 -0.36934713 0.46540156 0.24507044 -0.058725756 0.3202195 0.50023276 0.024468426 0.15375139 -0.32589456 -0.34669194 0.6487755 -0.055265944 0.3993383 0.07924505 0.22003983 -0.13261311 0.12464842 0.435762 -0.023893155 -0.3472376 0.14651217 0.5530417
kalian -0.26755026 -0.068685085 -0.27094123 0.5415545 -0.490541 -0.64062506 0.10761298 -0.41671357 -0.19167835 0.20059559 -0.8105733 -0.33608338 -0.14783488 0.38391995 0.50369835 0.1302685 -0.01344472 -0.16859984 0.2622139 0.30126387 0.21226744 0.11572159 0.2520571 -0.071904376 -0.45833138 0.6456963 0.17561871 -0.36944467 0.15479574 0.68420905 0.6746414 0.56152356 0.6013964 -0.18831456 -0.40702292 -0.14090696 -0.14711994 -0.39965063 0.27574754 0.056208134 -0.19666383 -0.33546314 -0.20814703 -0.067709774 -0.12506656 0.34876475 -0.17277767 -0.04104914 0.3031829 0.54525214
mana 0.0391162 0.3539954 -0.42026812 0.30050445 -0.3095352 -0.42886338 0.38317233 -0.09483989 -0.2635603 0.16879617 -0.28977847 0.0001706387 -0.050630786 0.08165345 -0.00031319918 0.2134431 0.31892088 0.14976051 0.11294937 0.26809782 0.16456039 0.084666334 0.22495502 0.13157359 0.108981594 0.038660116 -0.07216412 0.04209418 -0.25851026 0.38494396 0.50341886 0.088762045 0.16936271 0.35227636 0.15614869 -0.13513371 -0.022492625 -0.15596822 0.50565994 0.08715663 0.5312666 -0.012624 -0.10714623 -0.46858293 -0.093105935 0.53288466 0.17098083 -0.44510737 0.057790454 0.624702
si -0.049941987 0.39213386 -0.5564198 0.23277226 -0.49684563 -0.6454516 0.16664219 -0.0076077874 -0.17544538 -0.017507598 -0.40173838 -0.109088294 -0.026487077 -0.20722201 0.11509547 0.07007741 0.26818272 -0.035530847 -0.045776073 -0.06214567 0.17634554 0.29695117 -0.022189222 0.13432957 0.035378404 0.012690113 0.05073271 -0.093986586 -0.2722131 0.29944804 0.44655672 0.033021588 0.39114532 0.32523903 0.16653499 0.04288758 -0.0019234273 -0.32092497 0.37699884 0.19982485 0.33275014 0.033547632 -0.079923525 -0.27046925 0.060923316 0.32058838 -0.39171976 -0.2247043 0.22672111 0.58080304
untuk -0.30151019 0.064109914 -0.5630667 0.18380639 -0.4965184 -0.32634053 0.17360048 -0.32703483 0.030494934 0.3175154 -1.0242425 -0.40348566 -0.2429269 0.3145072 0.17897812 -0.09263839 -0.036884956 0.23096965 0.030760162 0.25802052 0.06232389 0.20059022 -0.019093322 -0.061827008 -0.3951602 0.30372244 0.109874 -0.17446767 0.22287263 0.6689726 0.7439347 0.11618635 0.60920197 -0.17761184 -0.49287057 -0.22438572 -0.029692238 -0.0858306 0.680748 0.22815225 0.05904699 0.15228316 -0.19117019 -0.61664855 0.014742781 0.3392443 -0.23276643 -0.11246681 0.46761653 0.35689625
biar 0.05354532 0.053242058 -0.39083952 0.2523472 -0.46662897 -0.6180088 0.16454434 -0.11912078 0.014182514 -0.224033 -0.5362294 -0.1702962 -0.16927831 0.10376343 0.1583883 -0.084487244 0.14893739 0.051703483 0.105120055 0.27513295 -0.014641056 0.289208 0.15686631 0.02378128 -0.35770187 0.28329137 0.1904268 0.06970473 -0.05293304 0.4951258 0.536305 0.019684928 0.59126925 0.34248707 -0.30239338 -0.41444525 0.060303025 -0.037971187 0.52405703 0.29286867 0.43601444 0.03395447 -0.034601457 -0.42399704 -0.004675574 0.56881684 0.13493311 -0.34194586 0.10966121 0.47348958
saya -0.10964502 0.21096426 -0.2619498 0.2522717 -0.52507263 -0.27895817 0.157525 -0.45124033 -0.081768155 0.19189888 -0.75705355 0.16080542 -0.5446627 0.08227489 0.35899705 -0.20107143 0.3411052 0.19688988 0.035360426 0.0623748 -0.08797282 0.34522358 -0.12700507 -0.12728962 -0.33227178 0.2721442 -0.03492931 -0.20939615 0.123598054 0.5275114 0.4385175 -0.13572408 0.6268589 0.33077645 -0.2871415 -0.116631195 0.18562694 0.007947995 0.66686213 0.23832789 0.21557666 0.19844519 -0.24413322 -0.4644045 0.15524319 0.29042265 0.009576498 -0.22723964 0.14128405 0.35407364
liat -0.011886551 0.57366157 -0.3934963 0.46418154 -0.3972745 -0.5906424 0.1425891 -0.07031241 -0.13925214 -0.14471664 -0.3968575 -0.18202835 0.09035977 -0.29716098 0.15471257 -0.029274767 0.22310592 -0.0769357 0.15163808 0.10741615 0.12937562 -0.027806327 0.30461964 0.093720496 -0.11727675 0.024019606 -0.003085945 -0.31084338 -0.37646517 0.5771176 0.35131562 -0.123551145 0.35429016 0.2728009 -0.077489756 -0.23354352 -0.12791894 -0.4058585 0.39988285 0.17181766 0.4088568 -0.3202216 -0.08753767 -0.27314934 0.19942692 0.39064556 -0.06859334 -0.48485142 0.15719871 0.66006666
ðŸ» -0.42576647 0.21572438 -0.098777115 0.43461376 -0.18073067 -0.46839598 -0.05804817 -1.4472673 0.15030281 0.10091209 -0.2969985 0.45256215 -1.1298721 -0.26119685 0.6940708 -0.083966866 0.2908411 -0.009140696 -0.0069541046 0.5594229 0.033879228 0.25313738 0.020802908 -0.34529322 -0.34555095 0.15700796 -0.33576065 0.5699009 0.83120614 0.65644413 0.5999727 0.36373493 0.10252139 0.6645984 -0.25011203 -0.33085155 -0.19958562 0.395851 0.3926849 0.14546524 -0.37945247 -0.6301183 -0.83849746 -0.67974883 -0.19026582 1.285833 0.0795118 -0.7441622 0.36670294 0.44501495
please -0.17056786 0.034708202 -0.37378934 0.17324129 0.09435099 -0.2808543 -0.50171614 -0.42088813 -0.7680891 0.005798356 0.3027408 0.26415643 -0.31656784 0.77714545 0.309771 0.25482124 -0.30881658 -0.51865625 0.033053532 0.12435041 0.12974295 0.088359065 0.3080709 -0.5985663 0.1250763 0.3316733 0.09334936 -0.17248088 -0.37060708 0.2294505 -0.18192776 0.14135289 -0.039064102 0.2820157 -0.45844197 -0.123914145 -0.50594926 -0.7858855 0.5826006 0.17403243 0.05492272 -0.3770701 0.21116823 -0.093510725 -0.28672817 1.5111079 0.085522465 -0.4666297 0.16498217 0.7146166
ðŸ™ 0.038101204 0.035067085 0.13397633 0.1865572 -0.49053925 -0.37096485 0.066738136 -0.7887335 -0.07844355 0.30044365 -0.18323414 0.37571543 -0.56467545 0.31272024 0.4122912 0.035010125 -0.06821317 0.090726785 0.06869069 0.5936385 0.22924198 -0.23570053 0.0599635 -0.42539886 -0.14145339 0.3021614 -0.3343935 0.26722786 0.22188503 0.38731235 0.13353321 0.31262043 -0.033300024 0.7760107 -0.35165313 -0.1837633 -0.33450484 0.04021118 0.49873263 0.29963782 0.0110546425 -0.73528254 -0.4735709 -0.30853543 -0.12474486 1.0266191 0.31229848 -0.47372007 0.5836545 0.6746759
so -0.44686595 0.5210794 -0.28086507 0.4893983 -0.36463413 -0.5411141 0.18735066 -0.7048223 -0.29929554 -0.26967362 -0.6590116 -0.3106857 -0.58691996 -0.083573595 0.6511995 0.20254096 0.47657073 -1.0375907 0.16028519 0.0077518756 -0.2366429 -0.23647967 0.1586363 0.3626622 0.054565426 0.6019679 0.25630245 -0.2228697 -0.0066652345 0.05411699 -0.19496034 0.58066106 0.55691046 0.5517538 -0.044262324 0.64264417 -0.26341265 -0.6066907 0.77910507 -0.3842426 -0.14317733 -0.41895294 0.35456678 0.032745656 -0.4281498 0.39056066 -0.4830323 -0.060581148 0.3371505 0.765422
jam 0.01142783 0.1483063 -0.67621 0.6026991 -0.51846373 -0.121237464 -0.10224791 -0.20533645 -0.36642772 -0.06141799 -0.707606 0.5271463 -0.35315427 0.44539607 -0.18551923 -0.057901133 0.3553676 0.35375366 0.26801842 0.5084609 0.21900149 0.23820299 -0.0040622535 0.08941267 0.22142512 -0.063914336 -0.09192755 0.014039833 -0.13613279 0.49708843 0.37262145 -0.62199146 1.1847932 0.24987906 0.081937596 -0.8525788 0.32458085 -0.11845409 0.3206382 0.43602937 0.560091 0.9405921 -0.32525682 -0.45194522 -0.14511137 0.6919405 0.28414157 0.039537862 -0.031315144 0.47636575
bagus -0.33230636 0.39362353 -0.77620363 0.23692314 -0.66653574 -0.92929435 -0.086766444 -0.04614477 -0.31238893 -0.39510953 -0.48486304 -0.36939687 -0.18186176 -0.4535965 0.25236696 0.2627501 0.20088997 -0.11502592 0.18473683 0.23696944 0.019255726 0.7961303 -0.071563475 0.48333806 -0.36175495 0.4474604 0.15045804 0.101408035 -0.3625599 0.2836955 0.57499355 0.095956534 0.23321034 -0.18876003 -0.24700661 0.22146747 -0.331646 -0.39220786 0.36204705 -0.073443286 0.28701535 0.20085584 -0.08976082 -0.6585293 0.11497344 0.34036806 -0.4311688 -0.5368278 0.12647556 0.42121458
opo 0.011643802 0.95453405 -0.49450955 0.17705357 -0.10278481 -0.40416896 0.05048407 0.30416948 -0.16185698 0.17575844 0.048765287 0.83104986 -0.15084764 0.41158572 0.002320801 0.1506886 0.47686017 0.028666403 0.35666594 -0.0840842 0.58889955 0.3205631 -0.06975288 -0.34963888 0.48761195 -0.5675637 0.39637616 -0.06922129 0.19166231 -0.28178594 0.29091668 0.20698841 -0.07003615 0.52308637 0.2117704 -0.19847542 0.09021014 -0.52068156 1.0544086 0.39280733 -0.2243516 -0.10639669 0.064245835 -0.40137088 0.022205682 0.7635418 -0.5196173 -0.04041706 0.43254346 0.736682
is -0.030415993 0.4777717 -0.34110582 0.5272111 0.17006435 -0.65317404 0.15519615 -0.5798522 -0.55601174 -0.12914681 -0.70882577 -0.7019267 -0.48338172 -0.08880393 0.60165125 0.5062602 0.34815925 -0.5168757 -0.09877322 -0.13392809 0.25937366 0.6317103 -0.11999025 0.07369088 0.058419257 0.5971082 0.096377835 -0.17928305 0.41628945 0.2828181 0.14355327 0.24773857 0.4322239 0.22988568 -0.03502153 0.5929945 -0.3412031 -0.44298995 0.7758244 -0.36158893 0.38206428 0.06664419 0.09985526 0.38442975 -0.3225439 0.9596856 -0.36074805 -0.4608134 0.22732827 0.20624965
belum -0.009678016 -0.04396779 -0.2183579 0.33532754 -0.5613138 -0.26692495 -0.06538874 -0.27839926 -0.09153398 -0.3544482 -0.8112164 0.06651746 -0.24623458 -0.010257448 0.23571075 -0.02005546 0.3615846 0.072062135 0.040763978 0.36756492 -0.10771798 0.09803043 -0.01471516 0.14730707 -0.2303315 0.07932666 -0.0069565945 -0.16596192 0.0142915975 0.5741727 0.4174222 -0.16074577 0.4949513 0.3299232 -0.04373965 0.04747222 0.05902884 -0.068637796 0.43163946 0.40324694 0.3971046 0.015429234 -0.3351741 -0.36352748 -0.08510446 0.45207965 -0.07620863 -0.5675103 0.2859899 0.680489
kayak -0.19401556 0.2685385 -0.21156272 0.2232051 -0.17144525 -0.67070264 0.33036974 -0.26660037 -0.11882846 -0.17030914 -0.5156832 -0.3423825 -0.10167763 -0.15405239 0.37317598 0.17016026 0.29458073 -0.16001116 0.048703603 -0.0601467 -0.013841069 0.42972365 -0.0051815175 0.100225136 -0.20329 -0.00269741 0.22040808 -0.2991048 -0.31589392 0.3191895 0.34421635 -0.05629555 0.39354017 0.4056979 -0.13597973 0.14566238 -0.12545203 -0.29725048 0.6359237 0.012808095 0.46526828 -0.077467605 0.13533035 -0.14894633 -0.012707934 0.3729522 0.0027299626 -0.3995706 0.15380917 0.59312403
gini -0.12941237 0.13488065 -0.30645087 0.11546951 -0.28950068 -0.44991893 0.1612577 -0.22754197 -0.09088307 -0.18071243 -0.6151868 -0.20935895 -0.0596118 -0.080675535 0.16326928 0.12489398 0.35046074 0.18640526 -0.03026643 -0.03304358 0.18672578 0.33162615 -0.033262163 0.14629659 0.04273975 0.034754474 -0.08762289 -0.045455866 -0.25350663 0.41389397 0.51249564 -0.20402001 0.31179172 0.46269158 0.085506886 0.042935003 -0.13942689 -0.20705959 0.5742162 0.42195806 0.38842818 0.010959129 0.038515866 -0.3956127 0.025263514 0.43394256 -0.15109766 -0.35209033 0.25089267 0.64275026
soalnya 0.08500065 0.1481536 -0.30187112 0.30303556 -0.41113052 -0.54912615 0.1485893 -0.3672358 -0.10748463 -0.14921118 -0.5741648 -0.090416685 -0.21349491 -0.16428205 0.1851833 0.14512208 0.24011095 -0.007840148 -0.10802333 0.022391753 -0.071476504 0.23177692 -0.054904323 0.01790516 -0.07228718 0.1471303 -0.049606934 -0.034716126 -0.34750342 0.427775 0.3572091 -0.06004194 0.18708138 0.30109623 -0.020358674 -0.0971791 -0.04987968 -0.30353156 0.47689056 0.18221337 0.4140521 0.023787776 0.058687758 -0.30238134 0.14575504 0.7112535 0.07391718 -0.42109013 0.033080466 0.6832729
beli 0.079232976 0.22841105 -0.5869587 0.56405085 -0.64856243 -0.512481 0.2971731 -0.5747793 0.031720757 0.022138124 -0.5111827 0.16525055 -0.031178076 -0.3507337 0.25163227 0.20548217 0.2818544 0.40592897 0.2685927 0.11236337 -0.0064993827 0.22763132 -0.31852525 0.03246155 0.20266697 0.044819564 -0.08917183 0.24446253 0.19867416 0.11091774 0.46561456 0.1871 0.32010928 -0.025176805 -0.20938095 -0.2904906 0.3120617 -0.28886566 0.5258523 0.374586 0.5993087 0.0840773 0.00024979736 -0.5818456 -0.057071608 0.5288771 0.25496775 -0.3001036 -0.042090714 0.56157184
ono 0.35449424 0.8780685 -0.5681919 0.34589264 -0.041061 -0.3447628 0.08408517 0.33321205 -0.22764112 0.44680175 0.10995791 0.8592277 -0.18732259 0.1876971 0.14939328 0.018947022 0.3430889 0.29549718 0.6431773 0.03542284 0.39685538 0.45286065 -0.17021592 -0.17715228 0.6239245 -0.72559637 0.4427568 0.09714894 -0.110506296 -0.28088385 0.20179722 -0.08104442 0.29437375 0.13104789 0.20804134 -0.34288257 -0.087529115 -0.71981645 1.2092203 0.189675 0.14938839 -0.031476814 -0.00071053347 -0.40311635 0.22344129 0.61884385 -0.41759542 0.15369412 0.48419827 0.8373377
ku 0.12110199 0.51582813 -0.45775458 0.3729557 -0.276719 -0.37459338 -0.008465974 -0.11297117 -0.19443405 -0.22777952 -0.53016734 0.45275283 -0.12739863 -0.06708466 0.37112454 0.00035213624 0.40075728 -0.013109256 0.040333826 -0.09924462 0.24172866 -0.031322666 -0.05709033 -0.059206344 0.38289487 -0.2435541 0.12313845 -0.17161563 -0.27301952 0.21099335 0.27220654 0.018187376 0.15427996 0.20829612 0.039710127 0.16320339 -0.17912397 -0.2321044 0.5585548 0.2054292 0.15333283 -0.02228037 -0.30209172 -0.29973444 0.035114944 0.57372516 0.13073413 -0.17913932 0.23113684 0.49756116
2 0.00085284706 0.22491792 -0.41416907 0.3071599 -0.3003867 -0.28040665 -0.070027515 -0.066144675 -0.1351297 0.12526329 -0.3486751 0.25814363 -0.34674656 0.13793992 0.18586737 0.041630767 0.4365237 0.16087855 0.0726166 0.15881233 0.17771219 0.21313225 0.07534768 -0.16426428 -0.046460997 0.039104227 0.22992548 0.06390534 -0.08022336 0.2835184 0.38985616 -0.2709109 0.6879611 0.22354814 -0.21656895 -0.34898946 -0.0021535114 -0.20070945 0.41751567 0.07794104 0.29759425 0.28265294 -0.14174438 -0.42930233 -0.05703219 0.7841503 0.04415526 -0.21109468 0.37654036 0.25998506
sendiri -0.30989552 0.4674372 -0.6252408 0.44387302 -0.47306296 -0.6461059 0.45813805 0.09722055 0.0833142 0.02127864 -0.6078032 -0.19615397 0.1437336 -0.03764216 0.15252626 0.13139558 -0.053398877 -0.07625994 0.15770864 -0.041822147 -0.040603865 0.16886888 0.021458207 0.19934484 -0.21434131 0.2615336 0.04797261 -0.31277293 -0.27970165 0.5228325 0.5760478 0.007431669 0.51880664 0.2422028 -0.25623396 -0.04563328 -0.16590822 -0.16785502 0.6691531 0.16125906 0.39955705 -0.10132307 -0.121414244 -0.5227657 0.26146832 0.1290032 0.1314603 -0.33991674 0.38049513 0.58172417
konco -0.22080925 0.7341766 -0.59583354 -0.060317732 -0.1488505 -0.08861114 0.2286479 0.00090392504 -0.07515972 -0.06360573 -0.16708091 0.93557096 -0.015801543 0.45241153 0.04386361 0.16973677 0.4122856 -0.23473392 0.752364 0.18686138 0.52785397 0.22717988 0.07791595 -0.23929235 0.31202495 -0.8113934 0.41919884 -0.38822886 0.1176435 -0.07551988 0.03192544 0.48636702 0.07656859 0.501259 0.13306764 -0.20363833 0.018992776 -0.61368513 0.8145989 0.23586737 -0.2647855 -0.31110784 0.20631671 -0.40509042 -0.032413702 0.51808774 -0.46368882 0.096140794 0.6056193 0.7720122
deh -0.20776692 0.28024524 -0.4630267 0.37006336 -0.34453928 -0.5287467 0.29652846 -0.29471204 -0.22900435 -0.0031162794 -0.5487937 -0.2221937 0.00079842185 -0.21721305 -0.02113766 0.15785062 0.120482564 0.17661941 -0.07150351 0.069799274 0.1786635 0.19058134 0.12239907 0.088192575 0.057553653 0.19916238 -0.07796083 -0.02083383 -0.25976545 0.5776127 0.52002954 -0.0014325369 0.24941733 0.18597732 -0.14125888 -0.17912096 0.031169742 -0.16758439 0.4950861 0.1502749 0.47535384 0.01089893 -0.2172536 -0.20172498 0.11164748 0.6856067 -0.123616494 -0.4811156 0.1495583 0.5202277
susah -0.323184 0.28544012 -0.37403935 0.12823683 -0.20637757 -0.77059644 0.21943967 -0.13552369 -0.3356537 -0.057890996 -0.5654421 -0.70855 -0.29950327 -0.34209123 0.48403493 0.5087143 0.22460599 -0.032824855 -0.08043257 -0.06405636 -0.0032150594 0.6827524 -0.064306654 0.43501008 -0.13953662 0.3020857 0.235083 -0.115722805 -0.039668024 0.4810713 0.35426837 0.11217952 0.28606865 0.3175036 -0.1773557 0.50096667 -0.09769559 -0.29240164 0.5207971 -0.124217555 0.5139422 0.04321255 0.17399615 -0.20298989 -0.013550278 0.56647706 -0.36538652 -0.6367718 0.16114585 0.43745545
Tapi -0.09571055 0.30662793 -0.43435156 0.29518703 -0.20842466 -0.39055026 0.19801652 -0.1305091 -0.10070018 -0.1407366 -0.456617 0.09525355 -0.1761889 -0.034112137 0.22447346 0.14475733 0.30149013 -0.08341208 -0.018290773 0.16702299 0.1597384 0.56861436 0.0015682091 0.15433192 -0.0516586 0.05438666 0.17335424 -0.18844847 -0.1327948 0.19275971 0.3552898 -0.018971344 0.266004 0.36786768 -0.12727599 0.10727778 0.02592454 -0.31139535 0.5791905 -0.058010682 0.19692612 0.103163145 -0.023354193 -0.21596305 0.22987765 0.23959167 -0.036729008 -0.35041133 0.2051522 0.62595284
bikin -0.26319134 0.44194955 -0.45109677 0.38725394 -0.049946014 -0.50960076 0.18113331 -0.12699972 -0.08811831 -0.069973305 -0.63095665 -0.22458854 -0.025184328 -0.3158262 -0.041976284 0.023230955 -0.040705707 0.090015866 -0.045172427 -0.0072573284 0.30976328 0.3905119 0.27632886 0.28941697 -0.14146693 0.13990295 0.08013457 -0.03928173 -0.20560116 0.5083338 0.3697958 -0.023765331 0.4092601 -0.029440263 -0.35522562 -0.19266166 -0.011077576 -0.45322594 0.40677798 0.1098128 0.276068 -0.07938279 -0.14898819 -0.15006523 0.12793563 0.65411 -0.3516267 -0.65760577 0.082204245 0.5550882
yaa -0.15767226 -0.09890313 -0.28922454 0.26158553 -0.42252642 -0.44551244 0.17352274 -0.29607424 -0.102334924 0.12523614 -0.3356003 0.08177273 -0.3812827 0.3897363 0.3971338 0.12915632 0.09806586 -0.36081725 0.06321989 0.3147294 0.014805559 -0.17566875 -0.15959334 -0.034949664 -0.10372438 0.43820757 0.3032557 -0.23351482 0.20372607 0.34733805 0.39664966 0.40349114 0.5171327 0.24228261 -0.32252878 -0.09067188 -0.062008318 -0.067828014 0.6445507 0.21870531 -0.19864543 -0.39970967 -0.07503377 -0.3764502 -0.22105162 0.5240918 -0.049925182 0.0879549 0.25483042 0.56571573
dicopy -0.06125973 0.52656955 -0.46192586 0.24601467 -0.21860152 -0.59392285 -0.047985468 0.23648031 -0.20877814 -0.17155857 0.15794463 0.41995084 0.14235958 0.3128746 0.03883864 -0.02702365 0.15251759 -0.20529148 0.24362214 -0.12800558 0.40519503 -0.025962966 -0.028284676 -0.2998596 0.2962021 -0.34098423 0.5815949 0.07188422 -0.1328719 0.06571377 0.6076376 -0.28322884 0.16273281 0.6030265 0.10650717 -0.2252763 0.3313178 -0.48246357 0.7577053 0.30882213 0.117042854 -0.007335289 -0.27588284 -0.7643572 0.20353995 0.46187034 0.05318889 -0.3432985 -0.26196536 0.7909278
ternyata -0.088377275 0.17739774 -0.5247677 0.3609846 -0.4671605 -0.4330572 0.18123221 0.006188135 -0.1957107 -0.15961108 -0.51993364 -0.059687167 -0.17392862 -0.2072229 0.037600283 0.05590774 0.20832515 -0.037763596 0.06563046 0.11425973 0.22431672 0.25167862 0.052274983 0.22182086 -0.01436617 -0.06598706 0.18050794 -0.20550217 -0.3871841 0.42176452 0.5197074 0.061110128 0.4016876 0.31073013 0.02496258 -0.018675527 0.014571766 -0.1377158 0.60318667 0.09938352 0.3714429 0.065323696 0.05900783 -0.37836847 -0.0162726 0.30364788 -0.017001007 -0.23617482 0.16737694 0.6628674
kek -0.27202144 0.33488852 -0.29436445 0.019579995 -0.31919965 -0.60886824 0.30209705 0.07036337 0.096558794 -0.079168305 -0.27638248 -0.118571796 -0.12727626 0.014646878 0.23655786 0.2744228 0.31881666 0.104990676 0.14070956 0.08975823 0.1576419 0.19307366 0.21623352 0.20035602 -0.20153107 -0.09430775 0.009901021 -0.19693491 -0.3915266 0.3261506 0.5560948 -0.13430238 0.21440005 0.36177114 0.23313978 -0.2100491 -0.21563275 -0.4321892 0.4916638 0.04633493 0.54747355 0.017289462 0.1642707 -0.5018651 0.00077065465 0.3229805 -0.34970936 -0.35601512 0.34650993 0.72014934
lg -0.14498807 0.26493588 -0.5079156 0.22071128 -0.37431568 -0.52595097 0.22324345 -0.16678251 -0.1086805 -0.13707046 -0.27196214 0.061234683 -0.052063018 -0.123894185 0.11396979 -0.037759423 0.12749393 0.23798537 0.1840276 0.29351065 0.026418274 0.03239536 -0.083177134 0.011997495 0.0522911 0.19676921 -0.122161016 -0.0045242826 -0.19826919 0.4180287 0.44121608 -0.14231962 0.37519294 0.37894773 -0.25252616 -0.17052712 0.008799988 -0.2621342 0.40874806 0.30160737 0.48118135 0.15445268 -0.18672201 -0.5311729 -0.14271304 0.5752949 0.063275754 -0.29939795 0.06257485 0.7842203
padahal 0.02088656 0.45743573 -0.4596884 0.3008337 -0.44721764 -0.4729288 0.08722301 -0.0029055309 -0.090033844 -0.06616661 -0.3622932 -0.024662947 -0.07210451 -0.11479351 0.07579257 0.035299446 0.36496967 0.10311481 -0.0984574 0.08375991 -0.09320065 0.31789717 0.0026760602 0.14676428 -0.06407655 -0.20525002 0.06786555 0.012424024 -0.3667137 0.4858 0.37275147 -0.22476326 0.2849341 0.32580113 0.031212453 -0.21844116 0.087303154 -0.3564349 0.33900198 0.10711998 0.3607662 0.10097055 0.106012106 -0.47522378 0.015481386 0.61043096 -0.38420397 -0.24040422 0.16354214 0.648984
lu -0.37828004 0.29697827 -0.36005712 0.1533994 -0.30454078 -0.7576535 0.40028852 -0.07548869 -0.22786692 -0.1326932 -0.20171867 -0.6253582 0.1170222 -0.10958525 0.29966325 0.34911838 0.19135359 -0.14493662 -0.045875907 0.022431983 0.05975227 0.28997895 -0.04922234 0.07927484 -0.1417391 0.22542262 0.027744083 -0.29742354 -0.5909275 0.4541397 0.30805314 -0.027273003 0.48159963 0.58423656 -0.06226271 0.23427363 -0.3283211 -0.2708492 0.77796316 0.11599246 0.6545084 -0.034300324 0.0146607105 -0.38024142 -0.00023354345 0.30391708 -0.07093542 -0.3384576 0.08122725 0.7737814
nanti 0.056511164 0.103514016 -0.34856054 0.22869776 -0.21748929 -0.50975436 0.14634879 -0.17722143 0.12763554 -0.15488134 -0.4100206 -0.050100096 -0.25146845 0.13303156 0.052184526 0.1392738 0.26443914 -0.10537902 0.055020362 0.23813643 -0.013510062 -0.0040876223 -0.056984376 -0.10857709 -0.21732497 0.29610965 0.124658935 -0.27897358 -0.03363465 0.45481795 0.3470799 0.00040548755 0.5980288 0.4938956 0.06868072 -0.073650666 0.14381313 -0.28530177 0.65331846 0.24524452 0.39738226 -0.0043285736 -0.22226752 -0.36017466 0.11589038 0.3430817 0.2669841 -0.2248392 0.21765424 0.5755804
dong -0.08815861 0.14263037 -0.27416116 0.3175627 -0.40159285 -0.57267916 0.061890192 -0.40743944 -0.16532344 0.036397927 -0.057873767 0.14697659 -0.2992582 0.23995784 0.346879 0.029670404 0.20344085 0.035687245 -0.024256034 -0.016694995 0.14929378 0.042605493 0.12201123 -0.095654264 0.0007520809 -0.04231652 -0.042470682 -0.19601414 -0.00016986573 0.32705572 0.44142678 0.23870033 0.20299745 0.39276773 -0.18471886 -0.19027822 0.1712121 -0.23113146 0.6443761 0.2582032 0.3719998 -0.040547747 -0.11274769 -0.36687234 0.03828175 0.50050795 0.14093998 -0.30660546 0.35666603 0.4524469
jangan -0.12840769 -0.1013281 -0.4224996 0.26364198 -0.16913338 -0.44856995 0.26658434 -0.69160306 -0.055512063 -0.17290394 -0.44116294 -0.08596078 0.28057662 0.26670736 0.17855294 0.08901304 -0.1183207 -0.13812259 0.19484176 0.48844117 -0.07869248 0.03882453 0.31936356 -0.27698097 -0.22220488 0.29063147 0.048161387 -0.4083835 -0.02442505 0.48787302 0.08435296 0.14017183 0.5165841 0.3124494 -0.5206497 0.05008565 -0.16280337 -0.26820529 0.68545663 0.293229 0.2749352 -0.3431099 -0.10277905 -0.4098783 -0.20414965 0.49999848 0.111744754 -0.44534287 0.11796688 0.62230045
kak 0.0108552165 0.012090311 -0.12800126 0.37055492 -0.36601672 -0.46093005 0.30399448 -0.5212778 -0.11232202 0.112885185 -0.27720797 0.34318256 -0.4277453 0.34183642 0.26820248 -0.006463874 0.07217695 -0.14109156 -0.09970756 0.35057506 0.041453216 -0.007918856 -0.20376992 -0.06282352 -0.06144639 0.35001448 0.14845331 -0.20225538 0.29365522 0.49572957 0.38859987 0.22573611 0.5154126 0.4776749 -0.34857184 -0.16024862 -0.04909362 -0.070410945 0.4980045 0.12506446 0.010617255 -0.16140412 -0.16942364 -0.43330896 -0.20066726 0.3716054 0.23292948 -0.2519199 0.1786118 0.5816053
langsung 0.07118803 0.19912192 -0.41057163 0.19972724 -0.3426564 -0.4506288 0.052571613 -0.11732634 0.032579493 0.042836815 -0.34188312 -0.12964997 0.004716836 0.17552881 0.1843839 -0.21098757 0.35950443 -0.04403498 0.16516714 0.21234646 0.16688798 0.029067287 0.18820468 -0.102272145 -0.25159416 -0.09808968 0.2619509 -0.0057230084 -0.24026088 0.42574427 0.35528764 -0.11914962 0.53498507 0.58007854 -0.031883717 -0.44006538 0.18534252 -0.30272514 0.5044615 0.43589532 0.34315065 -0.07708855 -0.10493288 -0.45444682 -0.08272803 0.35834607 -0.009044106 -0.1431821 0.21567906 0.5672465
dengan -0.43297246 0.36346906 -0.6280383 0.19398417 -0.36962953 -0.29922053 0.17583619 -0.23121515 0.07412338 0.10687678 -0.5784454 -0.25614443 0.047575533 -0.10548828 0.059927657 -0.21262905 -0.0349912 0.14996596 0.16966969 0.2178881 0.3130343 0.1118315 0.1562369 0.07918008 -0.23403509 0.23697057 0.019261617 -0.0028069583 0.13739063 0.2623521 0.60824114 0.22020547 0.34726518 -0.2544692 -0.44607008 -0.35155267 0.16933548 -0.3144089 0.7087331 0.18419784 0.06169851 -0.05584682 -0.1492396 -0.30968344 0.12316233 0.4662327 -0.5345536 -0.323655 0.5359354 0.45536762
jd -0.25717908 0.22281618 -0.6534389 0.4300997 -0.542167 -0.6259754 0.4090835 -0.42367616 0.014019496 0.0861449 -0.39386156 -0.130506 0.23559739 -0.31093273 0.15270047 -0.08444245 0.07394207 0.091558546 0.17836614 -0.031183464 0.04782032 0.2424937 -0.12187392 0.32233468 0.0019283524 0.35041952 -0.0068724602 -0.01664791 -0.06925122 0.4262815 0.31682718 -0.065813415 0.35050514 -0.057820592 -0.10444932 -0.16779755 0.012229567 -0.37519744 0.47162202 0.12285625 0.4349081 0.10215675 -0.016645335 -0.4183672 -0.02618439 0.48665878 -0.34965593 -0.5248197 0.33003026 0.6225414
lo -0.062359884 0.47972384 -0.19256447 0.17862609 -0.2830022 -0.37235844 0.19548558 0.109131776 -0.08744691 -0.10434911 -0.5244815 -0.123937495 -0.16949108 -0.09637483 0.22583447 0.011625627 0.41151613 -0.08381675 0.057306092 -0.091408946 -0.008560954 0.40910834 0.30058688 0.04855075 -0.16890885 -0.15969254 0.06147856 -0.21466672 -0.428844 0.41247928 0.22643293 0.096826635 0.57474196 0.53770685 0.3089079 -0.0811046 -0.06872232 -0.32231936 0.61966276 0.18452545 0.43352732 -0.02994109 0.16767584 -0.22993433 0.071936116 0.42738685 -0.10799267 -0.07486341 0.11295196 0.5542791
of 0.12998915 0.5054232 -0.01721969 0.46670112 -0.01219729 -0.6869712 0.2409324 -0.9152323 -0.33678982 -0.37491146 -0.9774938 -0.37876537 -0.55249256 0.26204017 0.59111977 0.247597 0.41725674 -0.8943112 0.16412763 0.06658953 0.21379925 0.09463981 -0.019282619 0.13060592 0.0036462322 0.3557063 0.1574478 -0.4105149 0.37651932 0.092703186 -0.42486393 0.2543888 0.6280679 0.4545868 -0.04921642 0.5417325 -0.43054566 -0.4272305 0.76710314 -0.36426875 -0.0071696015 -0.23241861 0.04134195 0.3053894 -0.19906013 0.914265 -0.27241477 -0.31305063 0.27149203 0.45246223
bilang -0.22284107 0.26958656 -0.37879682 0.4441145 -0.34105328 -0.602462 0.44959813 -0.10531118 -0.12974699 0.07732093 -0.4941324 -0.22459662 -0.05828866 -0.1383022 0.25600705 0.1268959 0.15749224 -0.06077686 0.059745178 0.060743537 0.046845183 0.18744609 0.08926709 -0.14416203 -0.259279 0.15218662 0.015612918 -0.30281115 -0.19331582 0.6066455 0.40584362 0.047367085 0.5705062 0.37922403 0.07290148 -0.043009084 -0.14929003 -0.11559948 0.51891613 0.22212154 0.31021193 -0.14009166 -0.06326867 -0.105050966 -0.16351634 0.14155255 -0.14859392 -0.2698586 0.24721546 0.65531516
wong 0.078860216 0.8710428 -0.7396738 0.0055654496 -0.07659669 -0.22151174 0.08335612 0.38737634 0.036305048 0.12599787 -0.10962776 0.673096 -0.05819568 0.31065956 -0.029592456 -0.008140429 0.3604075 -0.17165402 0.40243593 0.12135714 0.6227922 0.5373481 -0.044177078 -0.35810724 0.35470873 -0.8111248 0.4223573 -0.13331519 -0.13005312 -0.27153355 0.29026163 0.18186434 0.19241166 0.51492846 0.09154901 -0.38294804 -0.110976666 -0.5327376 0.97503775 0.12229705 -0.2178321 0.02523284 0.2621082 -0.3715443 -0.098171934 0.6062021 -0.652188 0.09677122 0.52271026 0.729891
3 0.119751304 0.08558564 -0.3470704 0.16677393 -0.43153265 -0.26116914 -0.39816695 -0.08978438 -0.30519453 0.28948218 -0.31133047 0.12581353 -0.8441662 0.49911252 0.1397429 -0.10601225 0.39894307 -0.21922421 0.02424395 0.29908493 0.10283915 0.24607784 0.34980813 -0.2504073 -0.038871292 -0.009829358 0.39144152 0.006474494 0.11098025 0.32118616 0.35388222 0.011734417 0.8256582 0.03516105 0.011940113 -0.5133797 0.4072461 -0.3438581 0.1324703 0.2016258 0.31770635 0.18812013 -0.1280751 -0.49821678 -0.55918694 0.78032565 -0.27678284 -0.010916447 0.4063858 0.10035956
amp 0.02353026 0.23311988 -0.4857817 0.39470056 -0.5177722 -0.6101451 -0.060031954 -0.18982874 -0.4547391 0.7271411 -0.17976531 -0.16255373 -0.59610564 0.4530311 0.40254852 -0.27703282 0.13909131 -0.40499163 -0.296861 -0.031647373 0.08916858 -0.07113025 0.4624757 0.41017577 -0.33315778 0.060747355 0.9575076 -0.4648619 -0.016683802 0.33581898 0.6894447 0.4267984 0.5626127 -0.3766697 -0.08706372 -0.3184081 0.28009778 -0.62332416 0.074337475 -0.18659104 0.4911606 -0.43863484 0.073255874 -0.31791022 -0.534627 0.63171506 -1.0208832 -0.26064044 0.95422643 0.22937651
pasti -0.08996612 0.18354237 -0.33591515 0.56364197 -0.35291553 -0.82256943 0.25667578 -0.32950386 0.1695804 0.010706026 -0.54355776 -0.37697163 0.059949093 0.11344063 -0.02614794 0.37472525 0.15877397 -0.17719811 -0.0874257 0.5547624 0.01454563 0.09159105 -0.028439745 -0.050562903 -0.31167912 0.40116644 0.102437936 -0.047227047 0.116060756 0.5087972 0.24687769 -0.060851026 0.5504733 0.10116048 -0.068653114 -0.10765154 -0.22335654 -0.13058804 0.5250981 0.012981655 0.059070215 -0.17896289 -0.04797778 -0.42225784 0.0039559565 0.42696816 -0.2302209 -0.44669488 0.15088572 0.50269413
satu -0.040698644 0.22796226 -0.4589597 0.31070304 -0.15972574 -0.51816106 0.24758762 0.010109634 -0.02646101 0.1044776 -0.6081248 -0.09326865 -0.2161069 -0.07333775 0.070493884 -0.14177263 0.07925442 0.2623805 0.34753373 -0.036060985 0.1446692 0.2540564 0.23394196 0.22706874 -0.3623025 -0.034682095 0.23441832 0.046337944 -0.2639355 0.48468462 0.37868947 -0.16739574 0.58463246 0.2193031 -0.10599176 -0.31650278 -0.12685746 -0.5612871 0.46362066 -0.037364163 0.5799156 0.3212086 0.10815297 -0.59758425 0.03973935 0.4123695 -0.56406265 -0.33424783 0.36230922 0.3079662
:( -0.090448365 0.30493185 -0.39144003 0.15140593 -0.055724427 -0.36081013 0.124856785 -0.049527418 -0.092056386 -0.1631089 -0.20127316 0.24843399 -0.09700548 0.05409776 0.23472019 0.08086431 0.36812454 -0.03769279 0.1727463 -0.0645806 0.16924258 0.16037382 0.0740741 -0.0033215408 0.19862847 -0.18162246 0.07843532 -0.09378969 -0.20576727 0.28392148 0.27816513 0.0749635 0.11553022 0.50361276 0.053542677 -0.023340477 -0.0040061064 -0.35462847 0.5995158 0.10286216 0.21507452 0.0016203341 -0.032820664 -0.25924996 0.05978178 0.49489686 -0.15148625 -0.3142402 0.26796934 0.65254176
pengen -0.21850003 0.5380765 -0.3728807 0.24775812 -0.1258583 -0.36029476 0.18803793 -0.2380334 0.079863586 -0.00047448758 -0.5227009 0.12240083 -0.2885601 -0.17201383 -0.14929073 0.0038616227 0.08365308 0.25240085 0.15248765 -0.064605124 0.39340174 0.49646088 0.3010853 -0.17057131 -0.14983492 -0.04939138 -0.16748425 0.24918129 0.383857 0.41902474 0.3790979 0.113634534 0.14374746 -0.089177586 -0.010282596 -0.6268697 0.20297672 -0.27283606 0.48619536 0.016885558 -0.1391509 -0.26596048 -0.1697983 -0.2208304 0.15488105 0.8312199 -0.47194543 -0.29167372 0.20066957 0.3541356
trus -0.012606861 0.2480007 -0.6798523 0.14683865 -0.4864289 -0.4645132 0.26045322 0.09344542 -0.1320397 -0.1941054 -0.2605198 -0.013397821 0.2150887 0.029001985 0.13241395 0.10195154 0.20850334 0.10758329 0.41777962 0.1818098 0.16747017 -0.024783544 -0.026148913 0.03291493 -0.035834525 -0.26828808 0.18105486 -0.21015269 -0.5296821 0.1332265 0.28004494 -0.061991982 0.4500106 0.70227844 0.29683697 -0.4196303 0.14825429 -0.21073213 0.5878853 0.45351842 0.43640977 0.12010037 0.07278019 -0.50710595 0.023730902 0.41452327 -0.31719732 -0.07243931 0.035596456 0.7192005
